species,0,1,2,3,4,5,6,7,8,9,10,11,12,13,14,15,16,17,18,19,20,21,22,23,24,25,26,27,28,29,30,31,32,33,34,35,36,37,38,39,40,41,42,43,44,45,46,47,48,49,50,51,52,53,54,55,56,57,58,59,60,61,62,63,64,65,66,67,68,69,70,71,72,73,74,75,76,77,78,79,80,81,82,83,84,85,86,87,88,89,90,91,92,93,94,95,96,97,98,99,100,101,102,103,104,105,106,107,108,109,110,111,112,113,114,115,116,117,118,119,120,121,122,123,124,125,126,127,128,129,130,131,132,133,134,135,136,137,138,139,140,141,142,143,144,145,146,147,148,149,150,151,152,153,154,155,156,157,158,159,160,161,162,163,164,165,166,167,168,169,170,171,172,173,174,175,176,177,178,179,180,181,182,183,184,185,186,187,188,189,190,191,192,193,194,195,196,197,198,199,200,201,202,203,204,205,206,207,208,209,210,211,212,213,214,215,216,217,218,219,220,221,222,223,224,225,226,227,228,229,230,231,232,233,234,235,236,237,238,239,240,241,242,243,244,245,246,247,248,249,250,251,252,253,254,255,256,257,258,259,260,261,262,263,264,265,266,267,268,269,270,271,272,273,274,275,276,277,278,279,280,281,282,283,284,285,286,287,288,289,290,291,292,293,294,295,296,297,298,299,300,301,302,303,304,305,306,307,308,309,310,311,312,313,314,315,316,317,318,319,320,321,322,323,324,325,326,327,328,329,330,331,332,333,334,335,336,337,338,339,340,341,342,343,344,345,346,347,348,349,350,351,352,353,354,355,356,357,358,359,360,361,362,363,364,365,366,367,368,369,370,371,372,373,374,375,376,377,378,379,380,381,382,383,384,385,386,387,388,389,390,391,392,393,394,395,396,397,398,399,400,401,402,403,404,405,406,407,408,409,410,411,412,413,414,415,416,417,418,419,420,421,422,423,424,425,426,427,428,429,430,431,432,433,434,435,436,437,438,439,440,441,442,443,444,445,446,447,448,449,450,451,452,453,454,455,456,457,458,459,460,461,462,463,464,465,466,467,468,469,470,471,472,473,474,475,476,477,478,479,480,481,482,483,484,485,486,487,488,489,490,491,492,493,494,495,496,497,498,499,500,501,502,503,504,505,506,507,508,509,510,511,512,513,514,515,516,517,518,519,520,521,522,523,524,525,526,527,528,529,530,531,532,533,534,535,536,537,538,539,540,541,542,543,544,545,546,547,548,549,550,551,552,553,554,555,556,557,558,559,560,561,562,563,564,565,566,567,568,569,570,571,572,573,574,575,576,577,578,579,580,581,582,583,584,585,586,587,588,589,590,591,592,593,594,595,596,597,598,599,600,601,602,603,604,605,606,607,608,609,610,611,612,613,614,615,616,617,618,619,620,621,622,623,624,625,626,627,628,629,630,631,632,633,634,635,636,637,638,639,640,641,642,643,644,645,646,647,648,649,650,651,652,653,654,655,656,657,658,659,660,661,662,663,664,665,666,667,668,669,670,671,672,673,674,675,676,677,678,679,680,681,682,683,684,685,686,687,688,689,690,691,692,693,694,695,696,697,698,699,700,701,702,703,704,705,706,707,708,709,710,711,712,713,714,715,716,717,718,719,720,721,722,723,724,725,726,727,728,729,730,731,732,733,734,735,736,737,738,739,740,741,742,743,744,745,746,747,748,749,750,751,752,753,754,755,756,757,758,759,760,761,762,763,764,765,766,767,Beak.Length_Culmen,Beak.Length_Nares,Beak.Width,Beak.Depth,Tarsus.Length,Wing.Length,Kipps.Distance,Secondary1,Hand-Wing.Index,Tail.Length,Mass,Mass.Source,Inference,Habitat,Habitat.Density,Migration,Trophic.Level,Trophic.Niche,Primary.Lifestyle,LengthU_MEAN,WingU_MEAN,WingM_MEAN,WingF_MEAN,TailU_MEAN,TailM_MEAN,TailF_MEAN,BillU_MEAN,BillM_MEAN,BillF_MEAN,TarsusU_MEAN,TarsusM_MEAN,TarsusF_MEAN,WeightU_MEAN,WeightM_MEAN,WeightF_MEAN,Sexual dimorphism,Clutch_MIN,Clutch_MAX,Clutch_MEAN,Broods per year,EggL_MEAN,EggW_MEAN,Egg_MASS,Young,Association during nesting,Nest type,Nest building,Mating system,Incubation period,Incubation sex,Hatching,Fledging period,Age of independence,Feeding independence,Age of first breeding,Life span,Association outside the breeding season,Territoriality,Sedentary,Facultative migrant,Short distance migrant,Long distance migrant,Deciduous forest,Coniferous forest,Woodland,Shrub,Savanna,Tundra,Grassland,Mountain meadows,Reed,Swamps,Desert,Freshwater,Marine,Rocks,Human settlements,Folivore_Y,Frugivore_Y,Granivore_Y,Arthropods_Y,Other invertebrates_Y,Fish_Y,Other vertebrates_Y,Carrion_Y,Omnivore_Y,Folivore_B,Frugivore_B,Granivore_B,Arthropods_B,Other invertebrates_B,Fish_B,Other vertebrates_B,Carrion_B,Omnivore_B
Troglodytes_troglodytes,-0.23176783,0.02718592,0.1880774,-0.30041707,0.0761011,0.21367949,0.17485718,0.297003,-0.036047004,-0.11684985,-0.08941406,-0.3585727,-0.31922626,0.3033843,-0.32323498,0.80573094,0.27599472,0.015468294,-0.28414837,0.2257017,0.47748622,-0.09382797,0.015240303,0.32039064,0.5781719,0.2867539,0.122812934,0.29409254,-0.008075937,-0.21099965,0.36526838,0.33622512,-0.1370514,-0.07114972,0.004150777,0.12447711,0.08125274,0.038704418,0.13711473,0.08708455,-0.21678734,-0.43220836,-0.07026828,-0.11130595,-0.24765684,-0.40412304,-0.053756997,-0.08836476,0.009072985,-0.20404205,-0.5662839,0.5005855,0.068288624,-0.101314545,0.03434003,0.61132294,-0.08662164,-0.4939023,-0.14732768,-0.27639028,-0.33294418,-0.31382445,0.001185269,0.16284291,-0.07146176,0.040249057,-0.07181158,0.3578961,-0.71916413,-0.12717713,-0.35523775,0.027559416,-0.04203443,-0.014065384,-0.11360658,0.007905582,0.091310486,0.21664275,0.18623784,0.038075015,-0.040479835,0.33590856,-0.17696646,0.41148835,0.18554382,-0.040643882,-0.33417204,0.18323472,-0.24529094,0.379222,-0.03962639,-0.4038495,0.033414204,-0.09042512,0.13189864,-0.063154206,0.27597123,-0.0017464601,0.22390403,0.18704726,0.13304156,-0.1670069,0.20863864,-0.083599135,-0.4608838,0.18814501,-0.07446133,0.018332683,-0.16244094,0.4748935,0.22295336,-0.18019287,0.08312897,-0.2393104,0.14626668,-0.0013111333,0.017122816,-0.08462461,-0.24249223,-0.029074732,0.22752257,-0.009016877,0.38212445,0.59698,0.117467985,0.1320448,-0.08520278,-0.037464682,-0.2398836,0.01113601,0.40851304,0.5426779,0.07224442,-0.16217154,-0.20590693,-0.1842734,-0.1801975,-0.36007646,-0.014321218,0.081546396,0.0104042115,-0.15701132,0.050310217,-0.053418458,0.257252,0.16675603,-0.09944954,-0.30227318,-0.054017454,0.18204676,0.21475385,-0.06964873,0.011339989,-0.21731456,-0.35225344,0.084766895,-0.24525107,-0.18506548,0.0655939,0.1253448,0.32460728,0.24269515,-0.22266111,-0.12196939,-0.18278633,0.13675275,-0.35865507,0.5379318,-0.31667826,0.30090016,0.02000181,-0.2094626,0.8926759,0.09383231,-0.032276314,-0.066589035,0.24962583,-0.222865,0.29207355,0.13333544,-0.57420236,0.28805903,-0.17751047,-0.18101709,-0.01319687,-0.34831616,0.1123664,-0.6729168,-0.066865414,-0.35811833,-0.033079438,-0.049956545,-0.38305515,-0.1458506,0.13651645,-0.21786754,0.0072856355,-0.30393296,-0.27723175,-0.09380352,0.049349688,0.267116,0.05313884,0.19691561,-0.35419875,-0.026468536,0.11396756,-0.1615821,-0.27105653,0.03388409,-0.27492857,0.15528947,0.007216928,-0.14095359,-0.16188425,0.10355011,0.1015875,-0.04038044,0.3542808,-0.12738134,-0.049198374,-0.01914553,-0.4173324,0.538281,-0.022733208,0.48501012,0.36749464,-0.5333051,0.07278211,0.42335966,-0.19743758,-0.39878252,0.5212579,-0.29095078,-0.19901016,0.069116086,-0.19767894,-0.1839208,0.11810204,-0.30174074,-0.1017483,0.2946893,0.59451896,0.12821893,0.082476564,-0.2533162,0.16359802,-0.2153446,-0.42496166,0.20114456,-0.113345295,0.15700012,-0.09878503,-0.5687394,0.24747108,-0.37832388,0.20189407,-0.4704137,-0.14857854,0.0010224252,0.32989198,0.05950576,0.07904786,-0.17480886,-0.25539446,-0.3823131,0.1583208,0.15294762,0.44180635,-0.015737563,-0.17182398,0.153028,0.17652336,0.552816,-0.28263056,-0.17906709,0.37242386,-0.2927043,-0.12538186,-0.074095875,0.13646759,0.3219026,-0.4222272,-0.053545043,-0.41354167,-0.09261218,0.64614373,0.30425218,-0.035550356,-0.69777954,-0.15007891,0.269762,-0.015087375,0.19033839,0.082762994,0.031821333,0.012466117,0.46221715,0.3241483,-0.41132113,0.089553945,-0.1046669,0.3729637,-0.11227222,-0.23891106,0.026846902,-0.2176834,-0.51116997,-3.8764794,0.008314409,0.2730997,-0.25893122,0.55905557,0.09118926,-0.09337636,-0.19700406,-0.35262987,-0.06458374,0.14226809,-0.2161017,0.040216986,0.09342102,0.5720895,-0.59371054,-0.2776282,0.008791646,-0.21554828,0.24013649,0.04499863,-0.30130857,0.1243349,0.029872399,0.28500143,0.19582483,0.15018046,-0.5472527,-0.53276205,-0.14052121,-0.13318083,-0.25024897,0.122668505,0.50312024,-0.023631237,-0.10856128,0.056722756,-0.27901098,0.021192405,-0.05325539,-0.08945225,-0.6299166,-0.034263644,-0.10676228,0.6541057,-0.06938427,-0.15173453,-0.4016751,0.14352411,0.030903596,0.12931207,-0.25712365,-0.59677196,-0.079371884,0.18171348,0.049090955,0.24989054,0.618477,-0.19724907,-0.2623682,-0.048159346,-0.081833676,-0.66279125,-0.19090357,-0.18186375,-0.024162894,-0.3973039,-0.044941008,0.19394593,-0.10686493,0.10006096,0.2679455,-0.19561875,-0.43100744,0.22342566,-0.37281397,0.084180556,-0.2724689,0.11553698,0.37732837,-0.12258313,-0.36179453,0.121923864,-0.09469593,-0.2959508,-0.6636282,-0.15106611,-0.110059865,-0.041557554,-0.575035,0.27506277,-0.12741823,-0.079507194,0.23690192,0.44941404,0.23735999,0.23449896,-0.17753653,0.5735397,-0.2542947,0.22086596,-0.02069332,0.45685506,-0.15774924,0.17206942,-0.017616611,-0.44104946,-0.12095402,0.10093543,0.29593512,0.40880457,-0.6820526,0.33127812,-0.33887985,0.008941965,-0.26287562,0.31005138,0.49679372,-0.073296435,0.22918427,-0.056821723,0.14900939,-0.38676304,-0.50448483,-0.16414154,0.28920338,-0.11999348,-0.011433472,-0.39129665,-0.422177,-0.0068157334,-0.3658862,0.08523267,0.19274518,0.17059389,0.097534575,-0.18258491,-0.36748883,-0.13005479,0.1931523,0.017600233,0.21908717,-0.054000534,0.030949365,0.15388055,0.56904423,-0.07132472,-0.31573153,-0.012320678,-0.017746517,-0.11519333,-0.43291,-0.18220988,-0.6455793,0.21979181,0.023923418,0.25356993,-0.11543223,-0.21729454,-0.30747983,0.16615458,-0.06053532,0.39628497,0.25743958,-0.11987453,0.39512727,-0.058434714,-0.2000723,0.08427472,0.13457786,-0.2466805,-0.03465843,-0.2278138,-0.02766898,-0.29679564,0.52131855,-0.17648461,-0.06564788,-0.03676718,0.14330962,-0.19341233,-0.09280526,-0.24651937,-0.09872879,0.32956508,-0.26449844,0.2946041,-0.22426657,0.0050134244,0.09506577,-0.08706706,0.42850024,0.017520059,-0.016488915,-0.27490437,0.07150737,0.22275911,0.28402767,-0.114503644,0.031098176,0.26297182,-0.26932368,-0.12318414,-0.17209198,0.12835476,-0.19498102,0.34772334,0.25928783,-0.26907152,0.04322016,-0.32771942,-0.36640438,-0.35786098,0.24447317,0.15746063,-0.3984403,-0.08474393,-0.26382306,-0.20128293,0.19777349,-0.15591201,-0.16166547,0.13660127,0.012101789,-0.532069,0.015926024,-0.106810115,-0.14108552,0.19821467,-0.2953265,0.25937805,-0.694491,0.36049923,-0.01821182,-0.10766113,0.1491963,-0.12296586,-0.35653448,0.15351824,0.19145533,0.22246401,0.2560961,-0.17977998,-0.073471956,-0.10449426,0.011813554,-0.05349014,0.13954864,-0.27204344,0.36116093,-0.00261438,0.104858354,-0.0014990701,-0.15026355,-0.02595425,-0.43004367,-0.4662456,0.1183315,-0.009585068,-0.013509526,0.13244188,-0.106720015,-0.1615888,0.2351394,0.2802477,0.062875964,-0.19556779,0.19113432,0.01473661,-0.0075007803,0.45663518,-0.41706225,0.08492162,-0.32505295,0.13729544,0.27673015,-0.20995629,-0.30600026,0.15687585,-0.42226148,-0.1312898,0.0010246235,0.05980339,0.080285974,0.0136951655,-0.4038419,-0.42783418,0.18261027,-0.021258475,-0.13022657,0.48253557,0.25203687,0.013457732,0.20945832,-0.115408026,-0.085062325,0.5552348,0.33216923,0.09786309,-0.05215233,-0.07108625,-0.1789355,-0.039570186,-0.13005266,0.1448948,-0.24986403,0.051230885,-0.40042645,-0.050503124,0.14222808,0.007887312,-0.14541876,0.5455746,0.2650672,-0.09820042,-0.053163666,-0.11143039,-0.10107215,0.09436614,0.19530126,0.1837675,-0.048061967,0.7113111,0.34921598,0.056933057,0.38906404,-0.024323672,-0.0046936744,0.045321077,0.50410414,0.18694554,0.37788695,-0.12833726,0.2690273,-0.22629878,-0.3109499,0.2451854,-0.1998027,-0.15972456,-0.17567621,0.23233192,0.012684792,0.5120437,0.57306725,0.2461759,-0.10139119,0.33876294,0.0037295823,0.39782885,0.2712276,0.29952154,0.34157026,-0.09007528,-0.109404705,0.28009492,-0.094984174,0.31707442,0.32710359,-0.04326886,0.5944108,0.30265453,0.45397732,0.25012317,-0.37100068,-0.4999623,0.026206542,0.26974705,-0.0672037,-0.39165756,-0.023752186,0.21056807,0.10862854,-0.21513422,0.00042374388,-0.026115857,0.031370923,0.03571488,0.032167472,-0.017803062,0.32729074,-0.32911688,0.029288761,-0.122150026,-0.26904544,0.06900431,-0.39795262,-0.053176768,-0.08120044,-0.057549663,-0.19469282,0.0033407905,0.16107672,0.35304475,-0.38286838,-0.17687896,-0.5158632,0.38604945,0.22556365,0.55735064,0.07966462,0.53499454,0.30331197,-0.37640768,0.039425444,0.43417323,-0.07236265,0.030660363,0.33706695,-0.15830667,0.4361804,0.23111369,0.42100602,-0.4408261,0.118913345,-0.13703656,-0.08044565,0.15203445,-0.07384759,-0.29783398,-0.09721307,-0.37120005,-0.35871902,0.3127687,0.0556556,0.06586959,0.12369946,0.19073166,0.24217623,-0.23563467,-0.24013843,-0.08628718,0.3435293,0.18115926,-0.010357032,-0.06957942,-0.6841039,-0.3089334,-0.18539774,-0.5912226,-0.10674914,0.36121678,-0.09650666,0.069043174,-0.33368742,0.52095747,-0.01449359,-0.0051285783,-0.28340918,-0.14624846,-0.53442955,0.011814281,-0.0877422,-0.120383695,-0.078825735,-0.28316504,-0.32919738,-0.27595755,0.013145894,-0.020072935,0.21272624,33.7,19.6,11.6,18.0,67.3,337.6,122.6,215.0,36.3,241.1,866.04,0,0,0,1,2.0,0,5,1,55.0,332.5,312.0,353.0,239.5,223.0,256.0,23.5,22.0,25.0,79.2,74.4,84.0,931.5,717.0,1146.0,1.0,1.0,6.0,3.5,1.0,59.0,45.0,52.0,2,3,5,1,0,37.0,2,1,39.0,70.0,70.0,3.0,22.0,4,1.0,1.0,0.0,1.0,0.0,0.0,1.0,0.0,0.0,0.0,0.0,0.0,0.0,0.0,0.0,0.0,0.0,0.0,0.0,0.0,0.0,0.0,0.0,0.0,0.0,0.0,1.0,0.0,0.0,0.0,0.0,0.0,0.0,0.0,0.0,1.0,0.0,0.0
Turdus_viscivorus,-0.10548326,0.0061108777,0.29229808,-0.26093784,0.122524016,0.26845142,0.3239921,0.28112924,0.0002869342,-0.1704703,-0.19134125,-0.30055618,-0.40951544,0.4207043,-0.13160998,0.8229356,0.36492184,-0.13537578,-0.1534334,0.09131225,0.51066107,-0.0665143,-0.031049756,0.30380544,0.46782684,0.31422603,-0.0026795056,0.050536737,-0.2243291,-0.09630236,0.35624,0.41826433,-0.0807956,0.024567917,0.048497815,-0.12322156,0.10016548,0.04918518,0.14785926,-0.07631109,-0.417283,-0.30564675,-0.051446896,-0.0052760243,-0.39940852,-0.34337506,0.14707349,-0.20076203,-0.18490085,-0.17285103,-0.574813,0.49720943,-0.020248078,-0.11275745,0.048886605,0.47895274,0.09815941,-0.5005196,-0.119558334,-0.40729925,-0.012186412,-0.38300413,0.26787287,0.010067744,-0.13214612,0.100356385,-0.050692655,0.13555881,-0.7203929,-0.08461909,-0.3631161,-0.061430767,-0.086147144,-0.041265547,-0.017267715,-0.056967158,0.12291252,0.12667853,0.2572484,0.18311633,-0.13168743,0.3624696,-0.041793663,0.25677717,0.09104995,0.034787953,-0.070677266,0.29305702,-0.22550023,0.46470234,-0.12125514,-0.4298201,-0.015154643,0.031757254,-0.020534588,-0.18019024,0.3762795,-0.12975556,0.16152087,0.07141676,0.12981665,-0.2972011,0.26393333,0.09350237,-0.6279042,0.26778603,-0.005754434,0.17140922,-0.19424693,0.38234955,0.11361065,-0.17823122,0.10242214,-0.19667378,0.05205684,-0.19020472,-0.0431046,-0.046183046,-0.13936321,-0.019887468,0.09672565,-0.032355983,0.43582574,0.6297525,0.0111358715,0.113882184,-0.19948074,-0.039336137,-0.14729936,0.022963108,0.32302618,0.4807451,0.28044558,-0.113646716,-0.31819302,-0.10608535,0.037439693,-0.30243874,0.2049864,-0.08254105,0.06542889,-0.12802523,0.27107897,-0.08876759,0.116146944,0.05072165,-0.14113298,-0.27614298,0.012383224,0.39289254,0.25971776,0.09639434,0.045180414,-0.29298475,-0.23760566,-0.069940515,-0.32077044,0.0036095823,0.06333374,0.0877747,0.21844691,0.487183,-0.14813963,0.10692573,-0.06646778,0.1205757,-0.34172735,0.4146599,-0.24525885,0.30616832,-0.12366506,-0.11886108,0.8923024,0.048631527,-0.1307416,0.11465569,0.44268498,-0.14932911,0.06583264,0.15677543,-0.6994354,0.5266791,-0.19186473,-0.18967772,-0.13053142,-0.3930006,0.11266466,-0.5468785,-0.041449536,-0.45239154,-0.19858353,-0.06895743,-0.37245354,0.00048488207,0.16763486,-0.28089857,0.012033308,-0.44191962,-0.13487412,0.043668214,0.07635599,0.3408958,0.097457476,0.13870454,-0.073719285,-0.20803459,-0.13808922,-0.1886825,-0.20232219,0.19810139,-0.3764228,0.16511308,-0.00530789,0.018229658,-0.06557721,0.04960424,0.11366161,-0.08797563,0.2695019,-0.17799322,-0.2326407,-0.1277302,-0.41764194,0.6608764,-0.11487984,0.5753495,0.34556502,-0.5117296,0.11756409,0.25125533,-0.07361434,-0.28158578,0.2961011,-0.13201632,-0.11786163,0.13680643,-0.26654276,-0.028328007,0.119024076,-0.4126313,-0.23313814,0.056697387,0.5508851,0.04815247,-0.013266948,-0.05731461,0.2545165,-0.2413754,-0.5330183,0.17445791,-0.27611113,0.04974943,-0.08205558,-0.4325818,0.087718464,-0.34176368,0.06209308,-0.4729034,0.0016196992,-0.016898071,0.30354816,0.15532675,0.30251187,-0.07308064,-0.24494575,-0.41364986,0.3001999,0.21102732,0.38147935,0.028874738,0.003353272,0.024711184,0.020757036,0.5885169,-0.34201902,-0.14899802,0.46950743,-0.27963662,-0.06841671,-0.13001919,0.08659941,0.30291843,-0.3500751,-0.09775743,-0.26691577,-0.106430024,0.49542835,0.20214483,0.07606137,-0.6801951,-0.2844348,0.33988583,-0.1869087,0.12142703,0.09229018,0.09159354,0.050140593,0.42857084,0.20125206,-0.45118442,-0.017330326,-0.20695528,0.2767995,0.010165461,-0.118701965,0.0433997,-0.11622233,-0.34096587,-3.9495544,0.040275943,0.20498545,-0.28092876,0.5644824,0.10609841,-0.03403716,-0.3675962,-0.29506943,-0.037243076,0.05904756,-0.20993537,-0.033783805,0.1245842,0.45458326,-0.5312161,-0.23093851,0.058109622,-0.3537233,0.35386807,-0.101329625,-0.36505696,0.34111378,-0.103221826,0.21001859,0.27851403,0.13043062,-0.42775112,-0.67159176,-0.20582284,-0.31371987,-0.15830435,0.25680795,0.21609786,0.059455607,-0.011135781,-0.044765595,-0.14131524,0.3849123,-0.29724485,-0.051832337,-0.57490784,0.07148333,-0.18263307,0.5337891,-0.1378834,-0.06558269,-0.42088562,0.11989336,0.21318191,0.052644014,-0.3270483,-0.36512795,-0.10009823,0.17549285,0.12186463,0.24323308,0.4306262,-0.16905048,-0.3245032,0.06759404,-0.17586888,-0.6094558,-0.20773305,-0.041968126,-0.06288978,-0.35755178,0.011353402,0.19171412,0.037334573,0.14263046,0.26411113,-0.135832,-0.48688868,0.20588252,-0.41569182,0.035961144,-0.12911156,0.19660528,0.24550892,-0.11260702,-0.39624074,0.1570061,0.04810619,-0.16327985,-0.5396666,-0.08821547,-0.15481018,-0.27063465,-0.54924613,0.20733765,-0.051192988,-0.14676662,0.0038199995,0.40194458,0.13665819,0.16673692,-0.18537843,0.45709872,-0.3481361,0.043101754,-0.1338116,0.3366325,-0.01932056,0.13287456,0.0061448608,-0.46532914,-0.07437856,0.06749243,0.19332531,0.2835895,-0.47264868,0.5302323,-0.28282428,0.0015400171,-0.280632,0.2200307,0.5143104,-0.15234682,0.059611976,-0.08616526,0.40281436,-0.4342912,-0.37073654,0.12695669,0.22794233,0.04169657,-0.20397536,-0.28419343,-0.49479845,-0.13199194,-0.4393807,0.12377877,0.15228137,0.23534018,0.014396542,-0.34409216,-0.20789303,0.16424377,0.14928141,0.028814739,0.26296425,-0.0984221,-0.027102828,0.25389352,0.62137634,-0.15619335,-0.29271045,0.040114846,0.06007118,0.11360531,-0.5923622,-0.30503035,-0.663614,0.22620668,-0.24439168,0.13333786,-0.14318314,-0.36044437,-0.2727495,0.09634338,0.020623354,0.4115614,0.3644589,-0.10194691,0.3338054,-0.17133595,0.02137043,0.04320995,0.009773356,-0.217506,-0.011468005,-0.1827198,0.059507675,-0.19053859,0.46372604,-0.2268649,-0.14430068,-0.028617552,0.25620097,-0.017818697,-0.019865155,-0.18438143,-0.089930885,0.4175662,-0.14973585,0.269291,-0.19486637,0.07188121,0.18314958,-0.06456365,0.110913046,-0.08312555,0.10466548,-0.30655083,0.14088929,0.23939729,0.28196993,-0.028763693,0.07099907,0.37063727,-0.23606576,-0.16447741,-0.08580049,0.06537369,-0.1636861,0.36747873,0.09601911,-0.42687035,0.16749045,-0.11619426,-0.4125038,-0.3522264,0.060015243,-0.050135445,-0.29864562,-0.28289038,-0.38362825,-0.08512138,0.08541025,0.18218862,-0.12850022,-0.03744053,0.06591015,-0.40614387,-0.06932669,-0.2311797,-0.1335272,0.041954905,-0.3408955,0.2566288,-0.726847,0.2914818,0.030271694,0.014810784,0.015237531,-0.2593465,-0.30617177,0.16972487,0.09557479,0.2163823,0.08439051,-0.13430792,-0.021059062,-0.0327297,0.25697413,-0.21725094,0.24970779,-0.24783115,0.59364766,0.065569974,-0.022297252,-0.25389236,-0.06586169,0.07429394,-0.54529494,-0.3377354,0.24016446,-0.0055318014,0.07309128,0.10496906,-0.013564825,-0.08037976,0.071562566,0.18017085,0.13313083,-0.16036396,0.29928374,0.123975046,-0.060416114,0.17203815,-0.49961695,-0.07873807,-0.3175012,0.23879814,0.3283415,-0.25787148,-0.42334345,0.10995815,-0.30068162,-0.27222428,0.10199006,0.20459153,0.1771301,0.13364434,-0.47520557,-0.42145965,0.069359295,0.06310989,-0.29931733,0.46664634,0.36217874,0.13852942,0.31404063,-0.28604868,-0.031196063,0.42362335,0.31843874,0.10399355,0.016274258,-0.030010277,-0.077527866,0.054734744,-0.07420096,0.03183854,-0.1725301,0.08189445,-0.447997,0.09622168,0.2037107,0.1091781,-0.15856624,0.6181825,0.32211816,-0.056563254,-0.13861366,0.027342422,-0.059653603,0.04475973,0.13104667,0.25575605,-0.015263895,0.7639348,0.20545506,0.28883702,0.4352192,-0.29270566,-0.01121344,0.036618575,0.5094188,0.19348969,0.31096244,-0.33292764,0.18261288,-0.2909642,-0.22841118,0.17836133,0.050952896,-0.015816253,-0.18926628,0.34212354,0.04543701,0.37696254,0.48070446,0.3614044,-0.087327436,0.3702581,-0.006377019,0.5000156,0.43066984,0.23811474,0.21167271,-0.013658097,-0.062250983,0.26878184,-0.0384416,0.30593544,0.3644522,-0.02026704,0.53741485,0.25117975,0.4420123,0.3764561,-0.3074488,-0.43218225,0.1345674,0.16957805,-0.08600482,-0.35727438,0.06898088,0.18550637,0.07885986,-0.19666958,-0.15776038,-0.08857028,-0.08828296,0.035813626,0.1607327,-0.23727676,0.24310273,-0.2257484,-0.18265907,-0.19343664,-0.27180734,0.10205083,-0.46258116,-0.28581956,-0.036778133,-0.22858448,-0.1339877,-0.089852445,0.21709533,0.053798772,-0.46602336,-0.2827468,-0.4033896,0.36962017,0.08777937,0.4226535,0.13872667,0.42651352,0.3362171,-0.48693815,-0.21541291,0.504469,-0.12771912,-0.10812525,0.40910456,0.048448343,0.4097021,0.05818871,0.36752635,-0.47050214,0.31636515,-0.21959355,-0.021098536,0.018636983,-0.1355308,-0.2993941,-0.056398615,-0.30524918,-0.31490454,0.045340233,0.11218433,0.04319936,0.12665722,0.27205348,0.15182258,-0.16168043,-0.17107801,-0.17568444,0.3624086,0.037092388,-0.21300954,-0.016868742,-0.62032825,-0.20926228,0.14171498,-0.65118814,0.101562485,0.2398086,-0.047876004,0.10048656,-0.1628883,0.25419068,-0.11709085,0.100626364,-0.20962167,-0.06289885,-0.39691806,0.23583202,-0.008702888,-0.15610063,-0.16429953,-0.07495507,-0.52704537,-0.19332142,0.058549266,0.10490762,0.0505625,35.9,22.1,12.6,16.6,75.8,382.9,147.2,236.9,38.3,214.4,759.1,0,0,1,3,2.0,0,5,2,54.0,392.5,387.0,398.0,211.5,208.0,215.0,22.3,21.6,23.0,75.75,75.0,76.5,806.5,732.0,881.0,0.0,2.0,4.0,3.0,1.0,55.0,44.0,53.0,2,3,5,1,0,33.0,1,1,53.0,100.0,100.0,3.0,29.0,4,1.0,1.0,0.0,1.0,0.0,1.0,1.0,1.0,0.0,0.0,0.0,0.0,0.0,0.0,0.0,0.0,0.0,0.0,0.0,0.0,0.0,0.0,0.0,1.0,1.0,0.0,1.0,0.0,0.0,0.0,0.0,0.0,0.0,0.0,0.0,1.0,0.0,0.0
Phylloscopus_bonelli,-0.111742444,0.06511056,0.2735507,-0.4031315,-0.007583271,0.39793834,0.18183817,0.43993402,-0.10553322,0.10768212,-0.1678124,-0.4038977,-0.2187901,0.26116127,-0.10413053,0.73072153,0.28340882,-0.033255197,-0.07799635,0.12504521,0.24252506,-0.026496358,0.17641897,0.36573538,0.51483744,0.35069475,0.058551192,0.15440504,0.04933599,-0.2512042,0.31021488,0.46030453,-0.19472572,0.042686705,-0.15633811,0.035597388,0.0047759577,0.0763126,-0.059913028,0.083377466,-0.49782035,-0.36058033,-0.11799431,-0.19986135,-0.50032747,-0.4193026,-0.020558322,-0.07858141,0.042999882,-0.10987351,-0.5996801,0.3298296,-0.19403276,-0.20188646,-0.020118961,0.69852585,-0.152636,-0.7418173,0.005333384,-0.24733026,-0.33681345,-0.35715652,0.08814441,0.14054565,-0.17731263,0.071968816,-0.195769,0.47483927,-0.83621085,-0.14169995,-0.51608866,-0.06461633,-0.12070414,0.00020582741,-0.08826896,-0.044117596,0.15228182,0.228019,0.045057617,0.066131,-0.0814098,0.4422209,0.021363737,0.47669542,0.21169327,0.024887402,-0.39017242,0.34559223,-0.18507439,0.3503313,0.051020376,-0.44011816,-0.03429508,-0.23635843,0.17437495,0.11906567,0.22387119,-0.15227981,0.3833133,0.09860083,0.20189789,-0.17490584,0.24785405,-0.055223368,-0.48583487,0.18627529,0.10222272,0.13302597,-0.1611358,0.5293296,0.028514758,-0.25258374,0.19950442,-0.20434749,0.12921917,0.0031013403,-0.048196495,-0.12960155,-0.1835439,-0.15390667,0.28302926,-0.07322294,0.19544165,0.39540747,0.080582015,0.24793524,0.008807663,0.1408629,-0.16467257,0.082122855,0.40830138,0.43770573,0.16949618,-0.019355873,-0.22287509,-0.16495585,-0.034772374,-0.28041992,0.023536071,-0.03280319,-0.05391798,-0.16219516,-0.036324315,-0.2413815,0.48911974,0.32205084,-0.24995188,0.08652232,-0.07267586,0.18587987,0.34413946,0.051069178,0.12393492,-0.031495973,-0.43031412,0.019907324,-0.009046088,0.020674368,0.14212026,0.07154544,0.28900626,0.39998382,-0.14010176,0.07746678,-0.0625496,0.2041971,-0.4796667,0.40591288,-0.42226687,0.29037744,0.016240235,-0.28547788,1.022189,0.16234064,-0.11753176,-0.117060855,0.25272378,-0.21585324,0.24840765,0.028431755,-0.7217282,0.3337486,-0.090512715,-0.15760557,-0.04706977,-0.30391797,0.03212317,-0.73756045,-0.16071081,-0.43079606,0.13756421,0.06537645,-0.32566226,-0.3382362,0.20842795,-0.30888367,-0.03829279,-0.58470285,-0.37469408,0.06840881,-0.005813361,0.19395456,0.064621046,0.18023272,-0.2719466,-0.08952581,-0.0007005621,-0.15043566,-0.21991286,-0.029006384,-0.5012823,0.15222546,0.29384604,-0.025350714,-0.2573367,0.099202625,0.021544814,-0.2856213,0.22051623,-0.051518567,-0.20052956,-0.029193982,-0.43716618,0.625715,0.25638205,0.54383886,0.49287558,-0.38688296,-0.013658396,0.48518658,-0.18591592,-0.24640757,0.52808404,-0.3545473,-0.16355893,0.09962285,-0.1890122,-0.34940088,0.08821908,-0.29971284,-0.3153521,0.1607433,0.46193424,0.044510968,0.12683491,-0.12609278,0.41061607,-0.19970568,-0.3678434,0.23770943,-0.16678752,0.09855709,-0.06359665,-0.41956788,0.097898886,-0.20895167,0.1951126,-0.3432875,-0.17897809,-0.06988454,0.32893094,0.22506502,0.2616958,-0.19276743,-0.19439206,-0.41133133,0.2071623,0.13920741,0.43897918,0.23124915,-0.098338716,0.09881217,-0.058702376,0.71054953,-0.37754765,-0.20189396,0.555772,-0.37244058,-0.09318879,-0.10907551,0.11904592,0.39844173,-0.53502226,-0.042594403,-0.34265092,-0.08899089,0.42789096,0.49340752,0.08086026,-0.7517219,0.08168245,0.25338414,-0.11350593,0.21892336,0.25089484,-0.012681012,0.1570613,0.56989145,0.4224223,-0.39611366,0.16094169,-0.038972437,0.2753087,-0.18416172,-0.3389591,0.05864137,-0.28323552,-0.5218813,-3.782811,0.015687004,0.43552306,-0.26252994,0.42695338,0.11782158,-0.18416464,-0.2846939,-0.18232553,0.09804702,0.018061336,-0.34856856,-0.024178356,-0.09895388,0.56847566,-0.442183,-0.14331886,-0.17033277,-0.2595015,0.268894,0.030518604,-0.22141473,0.09272378,0.15272047,0.41397935,0.14614262,0.15429805,-0.62228805,-0.43204153,-0.16408928,-0.26776168,-0.20446503,0.176758,0.32956088,-0.051539578,-0.14313489,0.23848669,-0.090374246,0.01006927,-0.033629876,-0.0036788015,-0.6401203,-0.038198408,-0.170077,0.484189,0.038634792,-0.31550863,-0.56988615,0.18598317,-0.08477369,-0.0290458,-0.1610429,-0.6089564,-0.086647145,0.30909273,0.2772725,0.28520796,0.50947523,-0.2274007,-0.1950701,0.1451711,-0.033586517,-0.7577648,-0.21012814,-0.21850862,0.10682207,-0.6818607,-0.22543678,0.16471042,0.14607768,0.1287819,0.40193725,-0.15307757,-0.5321891,0.12845473,-0.3914949,0.12382343,-0.28713796,0.17927504,0.3329993,-0.16215047,-0.4606858,0.092387035,-0.002649885,-0.29858166,-0.4187761,-0.17163831,-0.11221972,-0.046999622,-0.46554074,0.29820615,0.08941766,0.06168246,0.21175277,0.40390635,0.3131562,0.3062833,-0.23218383,0.6366307,-0.519046,0.09224292,-0.037961796,0.36848587,-0.1202924,0.2798051,0.22455508,-0.64203733,-0.3540664,0.15242594,0.3034007,0.34069875,-0.5772547,0.31866524,-0.21344274,-0.08103628,-0.35526228,0.29408818,0.7757746,-0.12860788,0.17269243,-0.0104731,0.30126247,-0.24220891,-0.4164866,-0.123017,0.24721362,-0.18426989,0.13038392,-0.32231623,-0.25702038,-0.08375573,-0.3663837,0.029748293,0.023878276,0.35924214,-0.0071740896,-0.10076248,-0.107165046,-0.03716349,0.34639585,0.16752614,0.09059226,-0.05315467,-0.13122827,0.3165636,0.5016644,-0.13038993,-0.29636297,0.060976762,0.07636845,0.10382804,-0.33274254,-0.19793999,-0.5887488,0.17315054,-0.1305355,0.043737624,-0.27530003,-0.31170318,-0.30225244,0.23389368,-0.03474496,0.31363025,0.39452133,-0.041803602,0.26242593,-0.12432225,-0.08204993,-0.07123118,0.22411112,-0.17697917,-0.014075907,-0.1962713,-0.11239281,-0.38837638,0.6151002,-0.20072234,-0.13030589,0.02599393,0.22226766,-0.11132438,-0.16022682,-0.17771786,-0.041758645,0.3838505,-0.27791408,0.46181545,-0.23627697,-0.07226297,0.101418115,-0.18907386,0.23173052,0.021826586,-0.14557108,-0.2316067,0.1847394,0.17823479,0.120539874,-0.050436653,0.17814974,0.4556846,-0.14835139,-0.034344103,-0.2785447,-0.053097345,-0.18535003,0.29037762,0.023348281,-0.46605867,0.084630445,-0.099714816,-0.42334569,-0.43122658,-0.022878852,0.15015037,-0.35111994,-0.22979417,-0.13435474,-0.29309827,0.030949727,-0.2133483,-0.18059589,-0.10459872,-0.0027642893,-0.6596353,0.15406485,-0.13244984,-0.12815228,0.03467198,-0.43805763,0.09741197,-0.7459511,0.31183162,-0.050547875,-0.26654294,-0.03686129,-0.18255237,-0.31058002,0.27659807,0.24230614,0.3260348,0.20295279,-0.23518392,-0.2229896,0.014091319,-0.055115882,0.17072374,-0.16446228,-0.07614968,0.3897935,-0.11448474,0.059804928,-0.22396843,-0.08560235,-0.0031856515,-0.5336786,-0.3155089,0.22621112,-0.047116518,-0.043436665,-0.060048964,-0.12605827,-0.43305978,0.38725427,0.16130671,0.10719554,-0.025710534,0.38524383,0.038537234,-0.08845925,0.17394164,-0.51024246,-0.009229257,-0.14880279,0.08284354,0.16702226,-0.4642454,-0.36261952,0.3318246,-0.43381736,-0.22469525,0.12429704,0.14117917,0.23912942,-0.08048566,-0.29116908,-0.3373206,0.13874573,-0.21191695,-0.16124289,0.5939628,0.32266602,-0.09017786,0.38751143,-0.21725337,-0.19262369,0.4460958,0.45757657,0.04811043,-0.04235872,-0.19847044,-0.15585297,-0.14279811,0.036460254,0.0346549,-0.17621373,-0.0027050318,-0.5527744,-0.07038787,0.15091214,-0.008527287,-0.1602196,0.5298491,0.48017976,0.11633663,0.0022732273,-0.17667401,-0.1379312,-0.27264962,0.29361957,0.216384,-0.00034867748,0.9308921,0.2744573,0.06087337,0.29124317,-0.008167666,-0.00590551,-0.10724477,0.61320734,0.09964877,0.20207874,-0.07478352,0.25038758,-0.25887275,-0.33535072,0.19762784,-0.26991287,-0.1993267,-0.085271835,0.22531903,0.11377305,0.5467799,0.5288115,0.34369558,-0.14552747,0.2790538,0.05936308,0.4242885,0.10338781,0.36274362,0.34965995,0.04807232,-0.0972151,0.2513041,0.053728655,0.16193448,0.19658422,0.000706342,0.6244104,0.073038116,0.4427964,0.36185622,-0.40261588,-0.5014436,0.065045245,0.17285515,0.034233022,-0.4684483,-0.006114765,0.17770591,0.19938354,-0.23145692,-0.022241052,-0.28401232,0.092761725,-0.0057745897,-0.09334954,-0.095629245,0.12768102,-0.2179704,-0.13270892,-0.18985778,-0.2336272,0.06524526,-0.52896506,-0.027010838,-0.2128997,-0.0064818887,-0.069481134,-0.04693077,0.09736557,0.42282417,-0.48107088,-0.12417403,-0.40623397,0.4148357,0.2845672,0.5276462,0.107874304,0.67993367,0.10997382,-0.47023383,-0.007185457,0.4683045,-0.029042354,0.014785202,0.38746735,-0.029472442,0.36003438,0.27442026,0.42154577,-0.56208277,0.4586142,0.015715163,0.07918383,0.014624327,-0.08425686,-0.37245554,-0.10157218,-0.44719756,-0.31689167,0.16511142,0.24220584,0.054406714,0.24214652,0.19639078,0.32375738,-0.14587831,-0.45448533,-0.18108921,0.34271094,0.14054193,0.048701562,0.11973141,-0.3854791,-0.3391438,-0.13819505,-0.77377844,-0.03207198,0.43147337,-0.32628688,0.10112081,-0.20482607,0.4060162,-0.10251528,0.136952,-0.18811359,-0.2898508,-0.42952472,0.0478018,-0.08010478,-0.057763398,0.008250875,-0.12737603,-0.29548037,-0.39670324,0.08977204,-0.098209344,0.19687457,40.0,22.4,13.0,17.4,51.4,457.4,219.9,237.5,48.1,269.5,734.1,0,0,6,3,3.0,2,4,0,57.5,455.5,447.0,464.0,262.0,256.0,268.0,26.05,25.1,27.0,55.55,55.2,55.9,828.5,807.0,850.0,0.0,1.0,5.0,2.5,1.0,54.0,43.0,56.0,2,3,5,3,0,32.0,2,1,42.0,87.0,87.0,3.0,24.0,0,0.0,0.0,0.0,0.0,1.0,1.0,1.0,0.0,0.0,0.0,0.0,1.0,0.0,0.0,1.0,0.0,1.0,0.0,0.0,1.0,0.0,0.0,0.0,1.0,0.0,1.0,1.0,1.0,0.0,0.0,0.0,0.0,0.0,0.0,1.0,1.0,1.0,0.0
Corvus_corone_cornix,-0.015774587,0.3224151,0.3170896,-0.4433747,0.19153592,0.1295032,0.30281714,0.39782938,-0.028888594,0.039336327,-0.081687465,-0.3413672,-0.38392276,0.30535272,-0.3139967,0.75807446,0.26967144,-0.03546304,-0.25177518,0.19117413,0.35408536,-0.034266517,-0.0506571,0.36831778,0.70425946,0.21130516,-0.04133926,0.20146687,-0.15047249,-0.13009672,0.46307012,0.35617417,-0.020308396,0.024138281,-0.051735204,0.04599986,0.15510371,0.15631287,0.14090475,-0.13372782,-0.29366714,-0.4558173,-0.025508592,-0.1659442,-0.30855423,-0.33282447,0.14440033,-0.32724258,0.10165043,-0.22425236,-0.38445148,0.5337795,-0.002390357,0.08042837,-0.0717847,0.62896127,-0.091045044,-0.4961029,-0.18961084,-0.40473256,-0.1468787,-0.21493877,0.25242457,0.07111345,-0.049437564,0.36354586,-0.073141076,0.27142435,-0.6352273,0.006670552,-0.32336512,-0.06953224,-0.14411797,0.16326582,-0.15044239,0.07500743,0.13198747,0.2670386,0.07498741,0.1179863,0.09351397,0.40922934,-0.14809047,0.34372336,0.22236228,0.10241561,-0.17661183,0.31857607,-0.360419,0.30819702,-0.04988422,-0.26407856,-0.13772193,-0.005832506,-0.10010154,-0.10547937,0.33190545,-0.1104629,0.18181355,0.1116403,-0.009693402,-0.19534314,0.25640106,-0.022633659,-0.48940396,0.14778438,0.066502966,0.14513241,-0.09802981,0.5967492,0.2557586,-0.26782256,0.045657594,-0.31710142,-0.018839454,0.09357841,0.037056476,-0.14546268,-0.22293814,-0.05799245,-0.015781134,0.035146482,0.26598507,0.5735317,0.036151648,0.06648591,-0.15527894,0.043438096,-0.17227183,0.12666278,0.2988105,0.57344645,0.1334892,-0.13622506,-0.30323824,0.016783988,-0.09117914,-0.3646824,0.100120105,0.1687863,-0.049006764,-0.26574516,0.13207343,0.14996448,0.07732422,0.057489973,-0.35757834,-0.23236026,-0.05576303,0.42364112,0.26549086,0.001543259,-0.14256571,-0.30905646,-0.5318212,-0.22907212,-0.45372635,-0.2736804,0.19589138,0.14690705,0.16200195,0.23845649,-0.35389042,0.100021385,-0.25307015,0.13570556,-0.2685447,0.38068157,-0.33959445,0.17302546,-0.07464798,-0.122529864,0.71330434,0.14258263,0.042480476,-0.08413072,0.2950297,-0.22573319,0.3157234,0.1668112,-0.67126817,0.3789492,-0.27178323,-0.112288214,0.13206007,-0.5241391,0.16666372,-0.67176425,-0.0423266,-0.46565676,-0.039162714,0.14834687,-0.34576812,-0.06364729,0.14356145,-0.40833834,0.028497627,-0.51611406,-0.13895454,-0.11074865,0.23681132,0.2951319,0.14552149,0.15802182,-0.32758203,-0.10240904,-0.10675856,-0.25202432,-0.12444909,0.16542439,-0.45952898,0.27442163,-0.17662,-0.09158774,-0.069793515,0.07926526,0.1910193,-0.051125042,0.26735586,-0.13239631,-0.15350129,-0.16886374,-0.35223106,0.63785917,-0.040500443,0.5808088,0.51475745,-0.45261058,-0.022834169,0.409436,-0.065233156,-0.3535337,0.51458687,-0.29532665,-0.22460817,0.17373495,-0.16518421,-0.108319715,-0.037373085,-0.24479182,-0.093755975,0.20322594,0.7297347,0.08054711,0.07230637,-0.26884204,0.20130205,-0.25014693,-0.6982088,0.15049204,-0.13092107,0.086447,-0.032312024,-0.48839924,0.13767341,-0.45347276,0.112399764,-0.46221164,-0.1062612,0.050108515,0.5682723,-0.017879413,0.1308352,0.04993969,-0.19268565,-0.35679218,0.368536,0.24539106,0.3086757,0.014685239,-0.004718125,0.29018518,0.24014832,0.6224829,-0.3135426,-0.10735165,0.44062826,-0.23660609,-0.15393864,-0.07897758,0.028855769,0.23408958,-0.47508806,-0.049467783,-0.16958006,-0.06418879,0.575851,0.21539085,-0.06996647,-0.49640974,-0.22443804,0.26996383,-0.12338067,0.13937724,-0.06938464,-0.061289262,-0.032535814,0.6255398,0.39305022,-0.45816115,0.034419797,0.0062254556,0.35018498,0.08989855,-0.27859282,-0.18611965,-0.117480315,-0.48215556,-3.8219893,0.034996666,0.37929058,-0.1820834,0.5968465,0.02528266,-0.21601996,-0.2242273,-0.36719105,0.0048197946,-0.0016576232,-0.45519018,0.12412311,0.041228898,0.5718933,-0.74972063,-0.37956485,-0.1342185,-0.28465918,0.38733268,-0.020672457,-0.36399207,0.10780115,-0.10191985,0.37388515,0.258356,0.3220632,-0.39958817,-0.3345628,-0.042854965,-0.13257855,-0.06395601,0.26924202,0.6134288,0.04635512,-0.1780424,-0.009380296,-0.24265112,-0.08708565,-0.13977812,0.042257927,-0.59773797,-0.016497632,-0.083917014,0.8523083,-0.023484048,-0.06899794,-0.54745585,0.06691325,-0.055510644,-0.083795466,-0.12782304,-0.5845815,0.08987552,0.23500894,0.0868749,0.090307474,0.51181126,-0.2254201,-0.23843172,0.11270319,-0.15286902,-0.7612649,-0.0487863,-0.1657439,-0.0933851,-0.36912128,0.09367693,0.2812608,-0.1893036,0.14606307,0.18788607,-0.19660945,-0.5318667,0.23700081,-0.31075025,0.052436702,-0.1942629,0.17272745,0.1259713,-0.0127178645,-0.37932286,0.1523949,-0.18991794,-0.2088879,-0.78542084,-0.26797515,-0.13053022,-0.1131231,-0.5220922,0.20534411,-0.073032506,-0.09253461,0.28302753,0.4757607,0.122473836,0.32916376,-0.18748382,0.69387186,-0.21492894,0.23506998,-0.09786081,0.4740406,0.0469918,0.07798229,0.07063757,-0.36962986,0.21175109,0.122388504,0.22122104,0.22349468,-0.741191,0.47752884,-0.4040824,0.023978028,-0.17063144,0.4145105,0.5934678,-0.06095412,0.058662407,-0.23994906,0.14453138,-0.32273167,-0.07784926,0.0005476177,0.3597415,0.026403448,-0.0042370535,-0.23757696,-0.48579648,-0.11633249,-0.41741085,-0.023198199,0.06267419,0.10408795,0.10532186,-0.11621539,-0.49751887,0.071919456,0.16004393,0.1354608,0.29672095,-0.11487855,0.086364016,0.15355936,0.5480487,-0.11428838,-0.32827067,0.19642207,-0.024717573,-0.15949102,-0.54959136,-0.27170053,-0.32617232,0.31479815,-0.1379552,0.35635898,-0.074559376,-0.33487576,-0.444464,-0.013756434,0.14451186,0.3548186,0.24656264,-0.0859481,0.25305897,-0.0608452,0.06835712,0.13245982,0.19422308,-0.0072566224,-0.07204814,-0.06726154,0.11797316,-0.52652085,0.37098512,-0.3361563,-0.13976029,0.07998098,0.08757508,-0.11306715,-0.29262972,-0.27110818,-0.038392406,0.47534055,-0.07204824,0.5109631,-0.20113687,0.16761014,0.048352677,-0.13633649,0.15747891,0.08028462,-0.00807055,-0.22627854,0.0965655,0.26655492,0.01841106,-0.12442581,0.11463083,0.2119569,-0.1631994,-0.092929825,-0.2574217,0.23896587,-0.14885882,0.2893819,0.08228451,-0.3122832,0.1550426,-0.07499558,-0.19910781,-0.402693,0.18500891,0.0663522,-0.40314856,-0.34240246,-0.19753768,-0.1813955,0.4434926,-0.12955023,-0.057927947,0.0283353,0.11612749,-0.7815963,0.046283532,-0.38914868,-0.06604681,0.20474385,-0.23815975,0.15338717,-0.5695084,0.2855113,0.14948463,-0.1917425,0.08974151,-0.18767402,-0.17335431,0.08627857,-0.006939343,0.16279693,0.20504498,-0.19363572,-0.046454947,-0.0050630313,0.075957075,-0.27062434,0.40389317,-0.38651636,0.44336367,0.123409435,0.10590846,-0.04253014,0.016186967,-0.080031864,-0.28620633,-0.54558223,0.29312998,0.031694315,0.014921243,-0.0907625,-0.11161425,-0.23997699,-0.014699506,0.25600356,-0.04384819,-0.2638981,0.29470962,0.03076811,-0.012837534,0.23388843,-0.5430981,-0.105037645,-0.34574002,0.2572136,0.35376307,-0.16648078,-0.40003586,-0.075392306,-0.31399482,-0.13588063,-0.05147775,0.047188576,-0.01778252,0.12397074,-0.52201194,-0.24816927,0.2035725,0.08742646,-0.2148612,0.36338815,0.114039935,0.040721517,0.29632655,-0.23845349,-0.113987505,0.59600216,0.5326967,0.169975,-0.02803627,-0.24447785,-0.19331326,-0.06594101,-0.079855725,0.13884287,-0.09839897,-0.026109409,-0.2707766,-0.15631178,0.17278488,0.051886447,-0.360241,0.5187563,0.27376446,-0.1254143,0.05922858,-0.05308876,-0.15405722,0.09444611,0.24471949,0.24407105,0.010561734,0.70013875,0.31332153,0.11576009,0.27686495,-0.014776706,-0.15385793,0.32710716,0.50070745,0.21368885,0.41148075,-0.20099245,0.06314121,-0.31878442,-0.13738945,0.13398875,-0.06585987,-0.062610455,-0.055927854,0.4095915,-0.12199227,0.25181714,0.48079398,0.22347032,-0.12313584,0.38766542,0.04274047,0.4136831,0.2922013,0.031518377,0.3885994,-0.08360624,-0.14481094,0.33840996,0.0051547885,0.20679758,0.4586636,-0.0032481381,0.60006475,0.25584522,0.48767933,0.105976276,-0.41130945,-0.4855725,0.108104706,0.07294322,-0.19893105,-0.26445228,-0.08504493,0.15451512,0.12867846,-0.24199149,-0.2603296,-0.088668995,-0.073640384,0.027840218,-0.010938651,-0.012050458,0.117101036,-0.27568805,-0.09951143,-0.25305063,-0.4209039,0.16526474,-0.34508133,-0.16918747,-0.22157781,-0.12255384,-0.34971014,-0.13199879,0.102596745,0.047240667,-0.35979387,-0.08709618,-0.4576547,0.60091865,0.17078362,0.46969768,0.095606364,0.4267249,0.22233233,-0.6946278,-0.14202379,0.47854617,-0.055036496,-0.13239454,0.32159162,-0.0616378,0.298713,0.1936352,0.39206234,-0.5493234,0.2898393,-0.14870958,-0.1023282,0.012894814,-0.19411711,-0.38330463,-0.09600299,-0.22428848,-0.25203896,0.13808116,-0.12329646,0.14597867,0.09149109,0.4148343,0.094001174,-0.1578122,-0.3073225,-0.011345538,0.25286317,0.2331986,-0.17772698,-0.076069646,-0.604968,-0.34300122,-0.2654168,-0.6651414,0.0674428,0.5395852,-0.14094242,0.32843605,-0.094935045,0.43167862,-0.17341639,0.068756446,-0.31938028,-0.1089276,-0.36991474,0.016456055,0.066050336,-0.21963897,-0.08504968,-0.26515892,-0.27088484,-0.27359492,-0.008644619,0.08482565,-0.16390543,40.2,26.6,13.2,18.7,52.9,481.5,241.6,241.6,49.9,317.3,1071.77,0,0,4,2,2.0,2,4,1,63.0,496.5,490.0,503.0,335.0,327.0,343.0,27.55,27.4,27.7,53.0,53.2,52.8,1015.5,912.0,1119.0,0.0,1.0,5.0,2.0,1.0,57.0,45.0,63.0,2,3,5,1,0,32.0,2,1,50.0,71.0,71.0,2.0,26.0,4,0.0,0.0,0.0,1.0,0.0,1.0,0.0,1.0,0.0,1.0,0.0,1.0,0.0,0.0,0.0,0.0,0.0,0.0,0.0,0.0,0.0,0.0,0.0,1.0,0.0,1.0,1.0,1.0,0.0,0.0,0.0,0.0,0.0,0.0,1.0,1.0,1.0,0.0
Passer_domesticus,0.24283938,0.23522885,0.41337574,-0.41789275,0.13498165,0.15484056,0.3778764,0.554023,-0.1258646,0.014430457,-0.28127578,-0.6089221,-0.3895944,0.72304,-0.30499604,0.82629806,0.15496002,-0.070653334,-0.15006787,0.05179527,0.34169042,0.09077595,-0.17071874,0.3968423,0.54942346,0.47552016,-0.12229731,0.07943295,-0.15127692,-0.40142298,0.32569072,0.49628904,-0.22188906,0.1990255,-0.12035878,0.20641682,0.12556568,0.12782523,-0.13474911,-0.034371622,-0.52773154,-0.56942546,0.07986958,-0.25476176,-0.41932178,-0.6104495,0.0008666789,-0.25499728,-0.15345025,-0.4898561,-0.5201126,0.5407605,-0.06673618,-0.07329541,-0.3043904,0.95269126,-0.14851224,-0.91422445,-0.0871154,-0.47701418,-0.2227936,-0.3048576,0.3167759,0.09753448,-0.13421498,-0.060105246,-0.030844392,0.19248576,-0.76411724,-0.13714378,-0.46956035,0.09992841,0.13107419,0.23411454,-0.13955233,0.20721206,0.052230604,0.39912787,0.21016693,0.078553416,-0.2118296,0.39685014,-0.08910625,0.33887503,0.22378883,0.26663983,-0.42837223,0.39874917,-0.4188621,0.22938877,-0.19892047,-0.38783053,-0.24559917,-0.13504805,0.24025765,-0.07565162,0.34777087,-0.2841192,0.49459228,0.110920966,0.039385624,-0.24515498,0.23939966,-0.013902985,-0.8583354,0.37348056,-0.0993892,0.08412811,-0.10280223,0.38500443,0.0942227,-0.40017045,0.16918539,0.016036812,-0.1046308,-0.16783714,-0.04603232,-0.0336934,-0.42035,-0.09656001,-0.17230302,0.10916554,0.4000549,0.57580507,0.21383423,0.28519493,-0.16837189,-0.05644017,-0.17327179,0.23501289,0.4210494,0.7751526,0.2214968,-0.1872669,-0.23479961,-0.17183782,0.09202077,-0.36711815,0.18197025,0.15001091,-0.12512417,-0.07160907,0.07055997,-0.029305384,0.2692393,0.24222447,-0.4548389,-0.15347327,0.071674205,0.48010084,0.40401947,0.030699817,-0.115666926,-0.5408996,-0.6131602,-0.09503898,-0.3092332,-0.055854257,0.35604393,0.3617865,0.29039937,0.54420495,-0.5656583,0.34238395,-0.20823044,0.31477174,-0.3650078,0.48725885,-0.41698632,0.48907584,-0.09344017,0.020027688,0.99214333,0.06803434,0.0462769,0.13117014,0.44665647,-0.29492605,0.27092832,0.11689569,-0.68132967,0.55438983,-0.46790966,-0.37685135,0.09997033,-0.3886212,0.10435972,-0.87152815,-0.09969341,-0.44671768,0.043342657,0.21385117,-0.42953303,-0.21123505,0.25580403,-0.65931207,-0.35023078,-0.6647472,-0.24724948,0.051005375,0.08924187,0.3007556,0.13726375,0.19768625,-0.36426464,-0.0261476,-0.162221,-0.34982103,0.017368566,0.02351734,-0.52349263,0.5470321,-0.113908626,-0.006305851,0.019791383,0.06452881,0.12962097,-0.09984098,0.18555167,-0.22818682,-0.2969423,-0.38489753,-0.4417112,0.9648534,-0.09579329,0.42434987,0.37557304,-0.39276198,-0.028628815,0.43766508,-0.0637358,-0.4268939,0.586017,-0.0460437,-0.32288343,0.19703025,-0.28484783,-0.1739364,-0.223664,-0.40541133,-0.2849124,0.24497147,0.8442945,0.1872713,-0.25169113,-0.16037261,0.41305614,-0.20024009,-0.5657167,0.19602898,-0.07042688,-0.04187999,-0.076214194,-0.3916837,0.117771305,-0.5437837,0.1772772,-0.28197426,-0.20682174,0.014862799,0.7631733,0.11674992,0.6045875,0.11730263,-0.07382313,-0.5309872,0.44642845,0.09670165,0.4889772,-0.115482874,-0.08568755,-0.039529253,0.16827612,0.57408416,-0.18244173,-0.36202252,0.6124378,-0.2717159,-0.037312243,-0.24771245,-0.015924009,0.16009232,-0.6163262,-0.008849156,-0.013766238,-0.2544294,0.20045663,0.20730907,0.046534855,-0.8036186,-0.28411973,0.14606522,-0.29523176,0.1944126,-0.15475792,-0.027233038,0.008362281,0.7498173,0.61679727,-0.36898685,0.110408954,-0.09560108,0.30536407,-0.03707845,-0.28950545,-0.08181159,-0.20235159,-0.7256546,-3.276416,0.18270789,0.5264985,-0.4171445,0.80705243,-0.031372413,0.011624051,-0.42334846,-0.26238906,-0.0054583,-0.04672316,-0.45918727,0.01488854,0.22780618,0.626754,-0.8743797,-0.2647075,-0.23727325,-0.408372,0.39706713,-0.032082647,-0.054355804,0.056146417,0.0072492203,0.3960138,0.3024109,0.023885844,-0.2895014,-0.4434253,-0.05493682,-0.5159354,-0.2759716,0.30249098,0.5340713,-0.12830411,0.06685768,0.04245721,-0.1910341,0.0010954044,-0.23695411,0.29845458,-0.4890827,0.032709625,-0.4511483,0.66501236,-0.06773614,-0.15860379,-0.66494846,0.18437347,0.011098303,-0.0033710874,-0.16578895,-0.4235778,0.13226333,0.4742392,0.17412698,0.16385344,0.56981236,-0.2578896,-0.3858046,0.13116068,-0.1550429,-0.85536313,-0.032065626,0.100140676,-0.25803405,-0.48143154,-0.039769784,0.19272731,-0.098093875,0.28080693,0.09037888,-0.34030494,-0.58389544,0.18707189,-0.38309175,-0.024019394,-0.1941643,0.15048657,0.25370544,-0.29252312,-0.34154978,0.39341924,-0.21416351,-0.51775753,-0.5364181,-0.10005461,-0.06253501,-0.116578005,-0.4903789,0.039507054,0.22002426,-0.17188078,0.2702527,0.57011586,0.009364502,0.27881485,-0.2988846,0.6192216,-0.32773453,0.24259914,-0.16959664,0.30003846,0.060544398,0.09697196,0.049400605,-0.4416495,-0.34440762,0.11235685,0.46917978,0.388358,-0.70212716,0.4991011,-0.20214821,0.04897493,-0.27980927,0.48437485,0.8122037,-0.23763093,0.14792192,0.027554117,0.2400423,-0.7467377,-0.12334889,0.12943359,0.29563433,0.045777477,-0.13412902,-0.49069816,-0.4804662,0.030376641,-0.48071712,-0.12921475,0.050124455,0.26349002,0.25101304,-0.066563874,-0.11651727,-0.0904459,0.21496858,0.0021611569,0.29149634,-0.044176318,0.18216524,0.20994493,0.7715442,-0.21597575,-0.40734473,0.17424089,0.10414919,0.07745624,-0.8136404,-0.4202925,-0.6627334,0.5751646,-0.4278537,0.48579836,-0.26263827,-0.29526618,-0.43778712,-0.17026532,0.13927174,0.2704581,0.73875517,-0.34450543,0.20802367,-0.21644574,0.30150595,0.20424823,0.17180347,0.048656404,-0.27230033,-0.16278547,0.019270401,-0.5011446,0.6492216,-0.50071996,-0.15929703,0.024718933,0.100474566,-0.06799244,-0.22791478,-0.19922967,-0.14816514,0.45397624,-0.31507805,0.34201726,-0.15822425,0.21480975,0.29189572,-0.35098264,0.30000034,-0.1462366,0.075432286,-0.39954972,0.2927131,0.17891027,0.15549316,-0.23289904,0.135596,0.28170547,-0.06453903,0.098810606,-0.15347382,0.16193649,-0.17884912,0.18066838,0.31920403,-0.37324104,0.2720941,-0.048706196,-0.31444532,-0.32404384,0.115092665,0.09639696,-0.465067,-0.20889193,-0.3264735,0.0132889,0.36582458,-0.10809351,0.09999592,0.0063917167,-0.0045965854,-0.8346833,0.0038229628,-0.551964,-0.2835475,0.10956766,-0.31018618,0.1958665,-0.58109945,0.3052972,0.20956141,0.15816739,0.1688691,-0.58159316,-0.2696387,0.5590925,-0.0727387,0.068941295,-0.14902113,-0.22972247,-0.1898904,-0.14770678,0.26353785,-0.1715388,0.36961225,-0.3415955,0.7661236,-0.043097056,0.10830117,-0.28237045,-0.010313709,-0.075501226,-0.33286166,-0.47482875,0.32388157,-0.07742219,0.20166782,-0.032014053,-0.14588122,-0.1181806,0.17465584,0.16551694,-0.10538063,-0.09606982,0.4273458,-0.056774445,0.096435115,0.2583538,-0.6381494,0.056741238,-0.27466714,0.14239787,0.24274355,-0.11748947,-0.55137783,-0.1251489,-0.27971447,-0.37841198,0.04180916,0.026799155,0.301981,0.26037496,-0.57876736,-0.41579995,0.16649346,0.008482666,-0.39448017,0.5912175,0.5222535,0.030002719,0.33669874,-0.28161952,-0.0075762584,0.5365742,0.43652022,0.12707166,0.04605476,-0.32612103,-0.19317637,0.039326955,-0.039347716,-0.053482387,-0.19707543,0.113270625,-0.09479638,-0.007956677,0.39099517,-0.089639634,-0.046565484,0.5560536,0.32588702,0.10696237,-0.0027173094,-0.30200568,-0.11502601,0.12148794,0.278798,0.25841162,-0.064961486,0.9161522,0.3966661,0.17229658,0.19702014,-0.092190266,0.16652639,-0.030509418,0.42984197,0.07045438,0.3002113,-0.020155061,0.20747554,-0.18571454,-0.3752898,0.09104164,-0.18314786,-0.09881223,-0.16435081,0.27978778,0.08639692,0.4981099,0.5744819,0.42442867,-0.08733085,0.70690304,0.10742066,0.49975199,0.29881096,0.292082,0.41856518,0.12335669,-0.24580765,0.37879056,0.049104035,0.52673763,0.6574526,-0.09395454,0.6482555,0.24814172,0.5026585,0.24682228,-0.3648468,-0.5742388,0.37864077,0.06429181,0.037315674,-0.5079224,0.18972643,0.21357918,0.026330885,-0.33064348,0.16953413,-0.36351106,0.009724798,0.07126863,-0.060154483,-0.15117048,0.21738963,-0.4290456,-0.044026796,-0.3187014,-0.3795483,0.17422141,-0.6203013,-0.25549242,-0.24847391,0.043771047,-0.17700577,-0.014319553,0.23257235,0.29107752,-0.47846162,-0.0022787012,-0.55695516,0.48124734,0.12751037,0.5334186,0.20622218,0.62577444,0.42621505,-0.65361136,-0.23971188,0.53254646,-0.26156184,-0.2319052,0.29231584,0.22182778,0.064863384,0.07578528,0.4070796,-0.7234505,0.27592668,-0.17379285,-0.20135911,0.03927689,-0.07818003,-0.5826362,-0.13563731,-0.45226237,-0.20927213,0.1900538,0.17832047,0.07241217,0.2602619,0.34423104,0.36185497,-0.26060158,-0.22735089,0.0076643364,0.31213886,0.03195489,-0.19364448,-0.03299595,-0.88739383,-0.40790465,-0.13824102,-0.8207327,-0.053703893,0.5510259,-0.30668715,0.11340482,-0.5439313,0.35891825,-0.021038208,0.11742664,-0.33481544,-0.11110152,-0.8157156,0.06829425,-0.0474837,-0.050285995,-0.07698927,-0.09419109,-0.43408003,-0.3613988,0.1251007,0.111963116,0.21720988,34.8,19.1,11.7,13.7,43.9,407.4,154.2,253.0,37.9,253.2,754.37,0,0,0,1,3.0,0,3,2,56.0,409.5,404.0,415.0,255.0,251.0,259.0,20.9,20.5,21.3,52.75,51.9,53.6,899.0,836.0,962.0,0.0,1.0,3.0,2.0,1.0,52.0,41.0,49.0,2,3,5,2,0,33.0,1,1,42.0,88.0,88.0,2.0,29.0,6,1.0,0.0,0.0,0.0,1.0,1.0,1.0,1.0,0.0,0.0,0.0,0.0,0.0,0.0,0.0,0.0,0.0,0.0,0.0,0.0,0.0,0.0,0.0,1.0,0.0,0.0,1.0,0.0,0.0,0.0,0.0,0.0,1.0,0.0,0.0,1.0,0.0,0.0
Pica_pica,-0.13489798,0.24519537,0.15872313,-0.23131922,0.2249223,0.141844,0.112379014,0.5473775,-0.08273023,-0.022626497,-0.12966768,-0.4236163,-0.48637298,0.39766085,-0.19968887,0.7063767,0.1908461,-0.09252982,-0.2649178,0.2638337,0.27431253,-0.09027317,0.06411108,0.41204837,0.5053485,0.44489235,-0.23764558,0.2225878,-0.14987697,-0.20467888,0.34091446,0.28992045,-0.14266461,-0.14949258,0.037115753,0.05013061,-0.0017417953,0.08159468,-0.082263805,-0.016921323,-0.44818765,-0.26718295,-0.057311144,-0.094195135,-0.37531924,-0.18566564,0.09599861,-0.46376565,-0.05786751,-0.3453435,-0.531606,0.22345881,0.078215316,0.031115612,-0.1829414,0.5557918,-0.20859425,-0.6635303,-0.071903616,-0.21186233,-0.06296413,-0.3951112,0.26076028,0.062147517,-0.0723517,0.021086244,-0.14144316,0.23394579,-0.62907016,0.03330497,-0.36458424,-0.00092780916,-0.20807011,0.17165963,-0.11219645,0.117012106,0.13112614,0.21961798,0.20298775,0.20123844,-0.06129434,0.36569932,-0.10963077,0.20361942,0.09270971,0.2947124,-0.33026043,0.3240456,-0.2672561,0.3970825,0.00079975656,-0.48354065,0.03611513,-0.15385108,0.0388941,0.05263208,0.28298318,-0.16535567,0.28047183,0.08041775,0.17221835,-0.45707354,0.20530607,5.1069695e-05,-0.52136695,0.14357924,0.059387624,0.26620218,-0.18253498,0.4548469,0.15825325,-0.3325723,0.23966987,-0.2522541,-0.13906744,-0.10700097,0.0085793305,0.050937027,-0.08490628,-0.09633927,-0.007953229,-0.04373665,0.40801427,0.51709974,0.05740134,0.29314113,-0.027866902,0.03750892,-0.059145596,0.14538564,0.2610376,0.48631603,0.13118657,-0.16259086,-0.20511745,-0.24416767,0.036616694,-0.299311,0.072199784,0.065163456,0.057570636,-0.18339196,-0.008814199,0.07284956,0.27051377,0.11771318,-0.4076737,-0.14812544,0.06535356,0.4675212,0.0884175,0.0006385227,0.091111645,-0.24183448,-0.5778472,-0.20746455,-0.29378322,-0.30320215,0.1520932,0.05139063,0.3428992,0.30708432,-0.26637527,0.18489422,-0.17590848,0.06634246,-0.37399226,0.37478462,-0.3221478,0.5633923,-0.078676924,-0.026509516,0.88367957,-0.024256757,-0.05978345,-0.10189412,0.19366673,-0.32623196,0.16073786,0.1418728,-0.6814345,0.55171055,-0.17043588,-0.2062173,-0.12961105,-0.33309558,0.16986333,-0.42019728,-0.1486923,-0.34762394,-0.011764164,-0.10630502,-0.164318,-0.044749193,0.17851692,-0.35691628,-0.04781763,-0.5286018,-0.16941334,-0.035220325,0.15973875,0.2658086,0.09246046,0.27960056,-0.4370687,-0.043350864,-0.12117361,-0.18609549,-0.03155306,0.063454345,-0.28155732,0.15533099,0.14042716,-0.035845097,-0.014576998,0.11368361,0.1536457,-0.13440461,0.3472074,-0.20781937,-0.18925704,-0.18705131,-0.40740627,0.66325414,-0.032318115,0.5289091,0.42283052,-0.50532216,0.24613097,0.5080494,-0.11798385,-0.424112,0.38771102,-0.27133057,-0.07973932,-0.001063255,-0.07039234,-0.2334836,0.06061603,-0.3799027,-0.15618913,0.110219315,0.6751007,0.114143334,0.017975483,-0.18365315,0.31536984,-0.23250927,-0.63491863,0.17139022,-0.19520992,0.17176726,-0.039049655,-0.46652076,0.11989492,-0.2803781,0.052714843,-0.5880979,-0.08589824,-0.03437007,0.53526276,0.24506108,0.2050237,-0.15590335,-0.14783107,-0.51339304,0.38859174,0.08444956,0.42315224,0.066905454,0.12628344,0.04404656,0.27785012,0.43445727,-0.26134065,-0.13000895,0.40008417,-0.17351884,-0.07063245,-0.06684459,-0.049562346,0.36485866,-0.59282935,0.060943313,-0.3100895,-0.104918286,0.57049406,0.2772665,-0.060309026,-0.55403894,-0.03716508,0.15581764,-0.22583336,0.14328787,-0.048338648,-0.16727728,-0.03277594,0.50770277,0.21280184,-0.5355864,0.06648615,0.06484766,0.4780309,-0.12839814,-0.09764305,-0.0919704,-0.08526105,-0.57003397,-4.066688,0.12156175,0.3384685,-0.30965865,0.5605691,0.003278826,-0.054478355,-0.25599194,-0.37550187,0.030140825,-0.011986825,-0.27653784,0.1596854,0.0041622203,0.53267694,-0.650841,-0.4150381,-0.12029783,-0.21972646,0.36471322,-0.010903055,-0.2505786,0.28794646,0.024115277,0.3206842,0.25632635,0.17136598,-0.29935035,-0.5056244,-0.10765694,-0.38582253,-0.15837069,0.1131402,0.61124814,-0.010736624,-0.12741458,0.07140991,-0.17753829,-0.078992136,-0.20817858,0.016473634,-0.6649099,-0.13902585,-0.17943434,0.66904485,0.046421744,-0.032461192,-0.5459446,0.09537125,-0.019727757,-0.14677064,-0.23042966,-0.66303253,-0.0071459976,0.37046954,-0.0069689346,0.29220793,0.5738517,-0.2684688,-0.13804562,0.020365724,0.039210074,-0.76385146,-0.16356611,-0.090887286,0.013771094,-0.36390424,-0.12048059,0.31779477,-0.009005077,0.109449595,0.25669295,-0.07204412,-0.61721957,0.11883579,-0.34065834,0.048311677,-0.105483025,0.28768888,0.21066116,-0.047181435,-0.2890563,0.3013938,-0.084230654,-0.34912708,-0.6534123,-0.19218615,-0.1884088,-0.036006145,-0.5326653,0.27954516,0.13799673,-0.0596511,0.2505266,0.34503758,0.20412472,0.3127647,-0.25418758,0.65203327,-0.3885504,0.10381637,-0.07607194,0.39610046,0.017811282,0.35178307,0.023017844,-0.5195737,-0.15112,0.21925838,0.21528949,0.3598093,-0.611022,0.29539594,-0.48006412,0.029398821,-0.27434075,0.3046971,0.44443443,-0.08065296,0.10921076,-0.037652977,0.30729952,-0.2761872,-0.26398656,0.23448676,0.22210343,-0.10188434,0.109828405,-0.33001512,-0.43790978,-0.03984629,-0.46467787,0.062857695,0.071180426,0.24652223,0.18349268,-0.09687595,-0.25919467,0.10067275,0.15808639,0.04567092,0.11169396,-0.15882008,0.07067104,0.3389415,0.5174808,-0.20464897,-0.39575213,0.16868404,0.16438226,-0.04458808,-0.5774551,-0.17145789,-0.46823198,0.2800202,-0.080792636,0.19743931,-0.19160253,-0.59783524,-0.33785814,0.082443506,-0.051215474,0.13272569,0.34090623,-0.07427897,0.1935949,-0.20089112,0.06679916,0.20027111,0.20085861,-0.028601946,-0.18156351,-0.0915886,0.069269314,-0.3068207,0.40462628,-0.3413963,0.04176005,-0.0106882,0.29139605,-0.09252053,-0.21738073,-0.20470957,-0.18570475,0.5121605,-0.116656974,0.39735848,-0.23898388,-0.012989511,0.18217508,-0.09438883,0.26065913,0.045449138,0.25576568,-0.13019097,0.2470915,0.34710157,0.14511693,-0.031015772,0.08649552,0.34201235,-0.25879574,-0.0027336348,-0.12716503,0.02838975,-0.24813668,0.39982003,0.161248,-0.34754768,-0.0419594,-0.0068412246,-0.25889224,-0.4475586,0.078611866,0.07283761,-0.24764286,-0.07916046,-0.090536535,-0.066768415,0.27717555,-0.1560523,0.053496465,-0.23812898,0.032915156,-0.5561167,0.23105052,-0.117301576,-0.06881629,0.20317952,-0.32327634,0.11828699,-0.63506573,0.22530921,0.017977372,-0.14354172,-0.0449436,-0.09092676,-0.27743033,0.3578688,0.07837992,0.2574205,0.030563785,-0.08049824,-0.15692566,0.03425789,0.040477358,-0.08840592,0.09595157,-0.19729294,0.5457005,-0.030106593,0.016419966,-0.15536432,-0.25356844,-0.16100985,-0.43009695,-0.29340264,0.39095002,0.006635507,-0.017063605,0.028973095,0.0038616266,-0.23691435,0.17723927,0.08527803,0.036043372,-0.27718708,0.2771597,0.083031416,0.015901856,0.1974858,-0.45874524,0.13928072,-0.2644379,0.17589182,0.21711853,-0.17302392,-0.37274736,-0.010319612,-0.34203234,-0.20035803,-0.023031283,0.10050517,0.12086074,0.15128155,-0.49262688,-0.36895406,0.105085805,-0.03977246,-0.24693546,0.570764,0.29062504,0.19521363,0.3750586,-0.4162625,-0.06406998,0.50609523,0.5083157,0.35610366,-0.01759931,-0.13088596,-0.10811255,-0.018280268,0.13706553,-0.0442831,-0.13372685,0.032265816,-0.45137975,0.032356933,0.11542474,-0.054464035,-0.1854769,0.48858756,0.44039956,0.018750045,0.05704234,-0.24235983,-0.041373033,0.088580176,0.15837346,0.3346561,-0.11327127,0.77648413,0.23818217,0.060374383,0.386221,-0.15308349,-0.0957917,0.10720905,0.4164583,0.25439575,0.2789255,-0.054286078,0.060716704,-0.19888036,-0.21197303,0.14634794,-0.12762348,-0.07570788,-0.18463485,0.18275625,-0.014328355,0.32209918,0.4469065,0.29440635,-0.032049373,0.4849553,0.107951134,0.38302872,0.32585347,0.2632278,0.47518033,0.015745167,-0.15520304,0.18944387,0.07169296,0.23615041,0.35841808,0.03761842,0.490088,0.16239646,0.46718913,0.17069085,-0.39169446,-0.51895106,0.14155348,-0.016902167,-0.1724417,-0.4219653,-0.10226333,0.05726523,-0.034806997,-0.25731972,-0.049324516,-0.1832167,-0.078643896,0.099922396,0.08499609,-0.3118975,0.37607425,-0.33810478,-0.2242624,-0.34799603,-0.2725921,0.15270185,-0.44735697,-0.2236489,-0.08226666,-0.121564806,-0.12388871,-0.09480587,0.35961705,0.37206867,-0.5070521,-0.07942747,-0.41524655,0.4905672,0.09809429,0.40611002,-0.11190724,0.41868073,0.2512628,-0.52604806,-0.17016478,0.55613524,-0.13394669,-0.0647736,0.5524196,-0.079451144,0.2522933,-0.023109997,0.4812701,-0.59206873,0.2894964,0.020160437,-0.002521913,0.015968058,-0.20227362,-0.42548484,-0.08639913,-0.28832683,-0.454845,0.13116632,-0.031091033,0.055899296,0.14242943,0.28561366,0.13302493,-0.11761035,-0.22417052,-0.21806942,0.43750635,-0.030965164,0.032943908,-0.0019105618,-0.5965369,-0.19616319,0.013344995,-0.65076035,0.037264064,0.4175284,-0.15933627,0.08576824,-0.13202307,0.32189086,-0.17601725,0.14485812,-0.26909465,-0.24755692,-0.44016364,0.20508483,-0.07768078,-0.14307067,-0.17259465,-0.19761641,-0.30913687,-0.24315163,-0.0008285691,0.051222935,0.20890976,61.2,31.8,22.5,21.6,76.2,435.7,204.7,229.4,47.2,136.1,3302.41,0,0,5,3,3.0,1,2,3,82.5,453.5,465.0,442.0,134.0,139.0,129.0,64.05,66.6,61.5,81.75,84.7,78.8,3347.0,3578.0,3116.0,0.0,3.0,12.0,5.0,1.0,85.5,58.0,156.0,1,4,2,2,0,28.0,2,3,58.0,0.0,0.0,3.0,23.0,0,1.0,0.0,0.0,1.0,0.0,0.0,0.0,0.0,0.0,0.0,1.0,1.0,0.0,0.0,1.0,0.0,1.0,0.0,0.0,0.0,1.0,0.0,0.0,0.0,0.0,0.0,0.0,0.0,0.0,1.0,0.0,0.0,0.0,0.0,0.0,0.0,0.0,0.0
Garrulus_glandarius,-0.16690683,0.29426542,0.2093463,-0.345693,0.19828124,0.10700425,0.31516945,0.671166,-0.11373622,-0.0035534564,-0.14146717,-0.40135613,-0.41835693,0.30941415,-0.32308206,0.65341365,0.29626915,0.03131465,-0.10881908,0.18370631,0.33744872,-0.20674224,-0.15876386,0.4771224,0.7995181,0.2618798,0.10724641,0.16706029,-0.09081881,-0.25492042,0.4372708,0.32379594,0.08913173,-0.049593683,0.035466377,0.045789935,0.11893845,0.0843894,-0.0012067294,0.112037204,-0.40918055,-0.47778094,0.028476838,-0.19270532,-0.29893756,-0.41293567,0.11242887,-0.18432164,-0.10020992,-0.1858554,-0.6033157,0.6083609,-0.11910527,-0.031073123,0.08960457,0.579017,-0.13574117,-0.49577257,-0.13185057,-0.3290505,-0.031736452,-0.27482134,0.22765607,0.0496641,-0.037904788,0.32598543,-0.034439664,0.38770908,-0.6055715,-0.04707132,-0.35621405,-0.02544823,-0.09121162,0.26052743,-0.15100189,0.070369326,0.1770759,0.21872523,0.21370871,0.10634159,0.15483733,0.1993496,-0.18710634,0.48369125,0.19681965,0.13092087,-0.121549174,0.41189542,-0.40115136,0.32989028,0.021258742,-0.36837938,-0.0624495,-0.24785449,0.027130762,0.09748322,0.3338674,-0.11706039,0.18155766,-0.050659485,0.112554945,-0.23788057,0.18037431,0.061375786,-0.47409236,0.26469666,0.08835269,0.12358399,-0.22311227,0.5849928,0.17934708,-0.2642768,0.06766213,-0.29514498,0.020516904,0.080312006,-0.0030543872,-0.09513089,-0.31816274,0.046263102,0.24850748,-0.05945514,0.22710681,0.6399871,-0.014540494,-0.07941018,-0.094492815,0.18400404,-0.18654622,-0.01880124,0.5301587,0.5133491,0.11638966,-0.23234056,-0.19325598,0.021157226,-0.087033644,-0.36529174,-0.1655378,0.27268276,-0.13234325,-0.27099872,0.13639197,0.051801883,0.13533655,0.1628476,-0.1986641,-0.2371476,-0.029279174,0.27734578,0.28864932,-0.14523096,-0.21751924,-0.2596982,-0.43692172,-0.22221835,-0.4089731,-0.10623308,0.055478204,0.086676925,0.3892538,0.14461601,-0.108198404,0.1104191,-0.112211086,0.07405801,-0.29534706,0.40269265,-0.42743534,0.3178187,0.032551553,-0.07931688,0.86651784,0.17423001,0.08499827,-0.045307998,0.29941794,-0.20470802,0.3857894,0.12731372,-0.6560781,0.4102524,-0.041385252,-0.20132707,-0.13990706,-0.50758237,-0.12438239,-0.67217726,-0.09029495,-0.3586999,-0.09383956,0.0367148,-0.44084504,-0.045149278,0.11912571,-0.43523186,0.04799861,-0.5316687,-0.35429177,-0.15493177,0.2978871,0.21901092,0.061967824,0.35322064,-0.35750413,-0.17279212,-0.0055372715,-0.17185767,-0.19669749,0.03843222,-0.36446503,0.1946671,-0.08610141,-0.03432851,-0.1527444,0.22422822,0.0877582,-0.040030878,0.2732276,-0.17047445,-0.28116593,0.03832925,-0.642078,0.55759907,0.05067635,0.50664467,0.33119237,-0.5585418,-0.015425126,0.3425579,-0.081061825,-0.16546518,0.5224739,-0.34684995,-0.3410924,-0.09795989,-0.2625009,-0.08864618,0.14685711,-0.32701686,-0.15636902,0.24778828,0.6735597,0.26546606,0.2138345,-0.23222232,0.16687752,-0.045014113,-0.28777382,0.08326687,-0.110522486,0.03760103,0.06529397,-0.5724047,0.20255263,-0.47968113,0.089665,-0.559516,0.06498035,0.12934381,0.29067346,0.11695964,0.15597709,-0.048334107,-0.24223892,-0.41332826,0.27938655,0.25268456,0.31153035,-0.00037200013,0.045189586,0.05068561,0.24331865,0.5999479,-0.34358254,-0.121815845,0.41204217,-0.19831625,-0.19178286,-0.006188743,0.00033524772,0.3209743,-0.65909654,0.016218772,-0.19350846,-0.1300263,0.5054708,0.34431115,-0.119492725,-0.52326804,-0.078229666,0.19366871,-0.08494151,0.27038202,0.007697389,-0.039220203,0.02132931,0.6120899,0.28254187,-0.5379562,0.18298902,0.05827282,0.34242725,0.070284665,-0.25415847,-0.11832855,-0.09875435,-0.41806638,-3.5979123,0.10856708,0.48588407,-0.38826483,0.56035894,-0.050166436,-0.11810085,-0.11247717,-0.37100962,0.09359136,0.03209151,-0.4745124,0.18068476,0.12034525,0.6444879,-0.66160095,-0.2805992,-0.15427712,-0.14448023,0.25726706,-0.13565804,-0.45393652,0.09319005,0.025419816,0.25673524,0.058712896,0.106849976,-0.63523376,-0.38691315,-0.034625113,-0.090717085,-0.23522185,0.25414562,0.6330791,-0.049276307,-0.14631493,0.036835227,-0.39932227,-0.03902785,-0.21544689,0.015828323,-0.6778967,-0.0016267601,-0.008791633,0.7511495,-0.12550966,-0.05744339,-0.4552095,0.124537006,-0.080639616,-0.041540734,-0.08266207,-0.6486754,-0.1192149,0.10089311,0.110480465,0.32807028,0.39154565,-0.20181529,-0.3565652,-0.011212625,-0.07045741,-0.76769096,0.037207272,0.036078222,-0.12084191,-0.64573646,-0.1258587,0.3049121,-0.120943606,0.11753866,0.32667017,-0.13419718,-0.5497049,0.12250289,-0.38517094,0.12907557,0.007456388,0.14149158,0.19186464,0.036500566,-0.2795123,0.18792246,-0.19766286,-0.19970287,-0.720456,-0.21897677,-0.13989808,-0.11088684,-0.65094835,0.48290128,0.10120504,-0.08147106,0.30923083,0.4766786,0.26370713,0.1994165,-0.38399643,0.6301791,-0.2375614,0.15561293,0.0056005092,0.42727283,-0.03069538,0.25201446,-0.15317391,-0.44165438,0.0051600835,0.14746347,0.16989613,0.4126712,-0.79343784,0.45079988,-0.49738228,-0.012080059,-0.1255088,0.55665237,0.6717559,-0.017552055,-0.033626426,-0.15635854,0.25321135,-0.3742297,-0.14960414,-0.10040561,0.16282466,-0.063926205,0.078705415,-0.19273424,-0.50377715,-0.050023746,-0.44985983,-0.059572935,0.36918905,0.22988698,0.24456906,-0.14769511,-0.56034714,-0.041322388,0.19173929,-0.0073581324,0.2918231,-0.0220637,0.019766897,0.24031854,0.5864534,-0.041873343,-0.1541241,0.082930885,0.014932417,-0.31203058,-0.46464625,-0.39163622,-0.47037825,0.2372682,-0.03337694,0.15827227,-0.12498541,-0.3069473,-0.33795846,-0.014394838,0.07630022,0.27644956,0.33132333,-0.06691401,0.46542904,-0.07741059,0.08674252,0.07777307,0.25114787,-0.27180693,-0.13190085,-0.31002867,0.10778166,-0.2422853,0.73155844,-0.3777479,-0.006572739,-0.022457287,0.23143902,-0.20736632,-0.36368024,-0.4398064,-0.027874395,0.47828507,-0.20360015,0.35523504,-0.4421907,0.16141629,0.05258606,-0.046593893,0.31852034,0.04714045,0.096403494,-0.24847096,0.06277686,0.12866482,-0.05502796,-0.00087050145,0.020267474,0.17362843,-0.23303646,-0.061519325,-0.24027319,-0.0005661434,-0.25190705,0.3185087,0.06334049,-0.33970642,0.20179936,-0.400827,-0.38204548,-0.35515332,0.17488433,0.065371916,-0.43479306,-0.2815719,-0.06928234,-0.2855638,0.41871464,-0.25023565,-0.036548186,-0.029152315,0.106053285,-0.76494265,-0.007660332,-0.07198893,-0.027425084,0.14528309,-0.34261817,0.06912395,-0.56434757,0.27465466,0.117023006,-0.1680428,0.17213999,-0.09757706,-0.5267974,0.19030155,0.10823237,0.34180653,0.189045,-0.035688374,-0.1550392,-0.006205621,0.03341631,-0.24659398,0.32362825,-0.2774217,0.31304592,0.08530416,0.1777652,-0.037238494,-0.07887585,-0.12077577,-0.41742113,-0.51539075,0.18238959,0.060505327,-0.021172652,-0.0053746225,-0.1657396,-0.26651612,0.16163637,0.21872003,-0.12193569,-0.32055917,0.29789102,-0.014066121,-0.022119477,0.3299222,-0.59888077,0.012641906,-0.24627699,0.25387907,0.2717917,-0.22206311,-0.45469096,-0.06413688,-0.3555773,-0.06789925,0.031302746,0.17870519,0.00871443,0.101410754,-0.5272617,-0.34917727,0.36438844,0.18287924,-0.14970466,0.51781774,0.21172243,0.12593302,0.17448728,-0.23443276,-0.1999554,0.6161369,0.32554764,0.21407664,-0.121337496,-0.19973454,-0.29521063,-0.01783884,-0.11165801,-0.105583794,-0.19451079,-0.13518208,-0.45790127,-0.1697657,0.21992585,0.123343796,-0.23972064,0.45252955,0.38522035,-0.0028808857,-0.03161446,-0.25245643,-0.13790983,0.05359198,0.22006346,0.26330677,0.053291988,0.6776818,0.26145583,0.08496866,0.2599498,-0.08294744,-0.115842335,-0.026229177,0.26655412,0.15588313,0.18311805,-0.20433404,0.4089303,-0.24509792,-0.32921132,0.077212796,-0.029784847,0.04567417,-0.2007913,0.1924895,0.068661414,0.58370143,0.4830773,0.28338492,6.728805e-05,0.4526901,-0.014568502,0.4647718,0.32478738,0.3175531,0.25854164,-0.06912302,-0.18419012,0.46206748,0.10146589,0.27527884,0.40795752,0.25880393,0.70132786,0.30509353,0.5113259,0.110101305,-0.49419641,-0.58183765,0.14939833,0.16305673,-0.19575337,-0.41873834,0.039136037,0.18491125,-0.036228374,-0.25979406,-0.28623468,-0.021714201,0.12118629,0.08814214,-0.077113025,-0.049329363,0.14795846,-0.34720442,-0.06829123,-0.32003483,-0.32253456,0.14164265,-0.36625043,-0.16404629,-0.2088761,-0.16467626,-0.25430176,-0.02578724,0.27159065,0.26182416,-0.41001967,0.032091323,-0.49169984,0.6580891,0.2879258,0.5256852,0.034183953,0.3911151,0.10315407,-0.68525356,-0.078580834,0.5142164,-0.20447965,0.010096892,0.4643762,-0.17613107,0.30572987,0.15395214,0.44838887,-0.6066898,0.19665903,-0.19041905,-0.15833932,0.04254222,-0.09124813,-0.4348398,-0.37093753,-0.28720707,-0.24250256,0.26456508,-0.05443938,-0.007696445,0.09128064,0.42228714,0.16508546,-0.1955519,-0.1532498,-0.16145818,0.40100026,0.24086985,-0.10249977,-0.0924002,-0.59558713,-0.29228747,-0.07881196,-0.6231735,-0.006342961,0.45424637,0.06472795,0.349989,-0.25415513,0.66978794,-0.19376616,0.053581618,-0.22921558,-0.14109834,-0.47688767,0.02496228,-0.031232975,-0.113823794,-0.057002805,-0.30470565,-0.30789128,-0.2548825,0.052153245,0.08532775,0.0466826,28.1,14.9,4.6,5.5,48.3,222.5,89.1,132.9,40.2,103.2,218.37,0,0,5,3,2.0,0,4,3,107.5,570.0,580.0,560.0,227.0,227.0,227.0,162.5,170.0,155.0,220.0,220.0,220.0,3245.5,3341.0,3150.0,0.0,1.0,7.0,4.0,1.0,73.0,52.0,111.0,2,4,5,1,0,34.0,1,1,61.0,75.0,75.0,4.0,39.0,0,1.0,0.0,0.0,0.0,1.0,0.0,0.0,0.0,1.0,0.0,0.0,1.0,0.0,0.0,1.0,0.0,1.0,0.0,0.0,0.0,0.0,0.0,0.0,1.0,1.0,1.0,1.0,0.0,0.0,0.0,0.0,0.0,1.0,0.0,0.0,1.0,0.0,0.0
Turdus_pilaris,-0.047145236,0.15046497,0.16229874,-0.13123791,0.17904751,0.033884417,0.03495167,0.5512395,-0.1263411,0.0066516628,-0.1553767,-0.50763583,-0.46469668,0.35740954,-0.24441709,0.752385,0.30132756,-0.22217198,-0.23678245,0.1947312,0.14757009,0.06826574,0.043364942,0.22545482,0.65038097,0.053171597,-0.055560026,0.12038065,-0.20909263,-0.1783577,0.3603781,0.30937105,-0.080917805,-0.020151168,-0.18613459,-0.09840134,0.07667911,0.23842506,0.08166311,-0.26998878,-0.43949127,-0.2928215,-0.0017477381,-0.20320088,-0.24023098,-0.22729939,0.1195187,-0.26826757,0.04147691,-0.34967902,-0.4625322,0.46154955,-0.06722609,-0.03404876,-0.16977574,0.47123548,-0.18141657,-0.49711907,-0.1508703,-0.38119063,-0.107220426,-0.38493022,0.30439138,0.12714186,0.10437691,0.11584183,-0.063372664,0.25908685,-0.5318989,-0.052305724,-0.22971879,-0.12618436,-0.060356744,0.16503361,-0.22660613,-0.10220267,0.12780184,0.24166611,0.24136123,-0.10476236,0.038857978,0.29301098,-0.3885044,0.510257,0.11466753,0.14847493,-0.25228205,0.3586663,-0.5885611,0.3160872,0.10428671,-0.5751021,-0.14264525,-0.09409678,0.02418965,0.05891391,0.248798,0.078669295,0.14576118,0.059391487,0.17516217,-0.29400113,0.20213144,-0.14134586,-0.21951465,0.17202164,0.111467175,0.14007829,-0.05062632,0.62468106,0.3164983,-0.26082674,0.06463327,-0.18940118,-0.031124821,-0.0038332755,-0.11525045,-0.05943533,0.016269526,-0.1813119,0.029475957,-0.10615663,0.22392425,0.6490323,0.0032677497,0.2178046,-0.06692918,0.13721777,-0.26662916,0.10049737,0.28284645,0.4534669,-0.050392523,-0.17865933,-0.2936991,0.039139252,0.06675943,-0.40186778,0.020331798,0.2144389,0.08796507,-0.24446586,0.26723346,-0.20619628,0.164006,-0.037959006,-0.37136203,-0.14068271,0.020230703,0.3145814,0.13658932,0.020946264,-0.19685115,-0.18083197,-0.42825773,-0.25517553,-0.32497212,-0.1541849,0.22795178,0.12809327,0.20180498,0.20021263,-0.206338,0.14120285,-0.12445782,0.10818341,-0.41591644,0.40137723,-0.575245,0.2524818,-0.042070244,-0.051000446,0.85777926,0.18636939,0.11874983,-0.05096884,0.33760938,-0.31387663,0.06344942,0.24334945,-0.5811748,0.4020302,-0.13407288,-0.07947205,-0.119469605,-0.46826187,0.07134193,-0.4897718,-0.024106922,-0.5009918,-0.1453375,-0.0011072212,-0.20560893,-0.23630956,0.2369287,-0.2735599,0.3163372,-0.5461899,-0.34980053,0.02937746,0.09086291,0.2957214,0.089365534,0.19853732,-0.17551827,-0.07043813,-0.07139631,-0.09906685,-0.1923605,0.11246172,-0.42455325,0.1884249,0.039899964,0.09584767,-0.08668486,-0.008656271,0.1935918,-0.0331903,0.40786195,-0.25536898,-0.23787609,-0.14393899,-0.5903324,0.59125084,-0.046503298,0.6353583,0.41258264,-0.55921125,0.03456362,0.26577848,9.7990036e-05,-0.22412632,0.4250718,-0.16772975,-0.12316035,0.081717186,-0.15634386,-0.18158317,0.020454422,-0.43447372,-0.28218362,0.15386231,0.6271644,0.010472701,0.21010154,-0.25000057,0.21924268,-0.18404986,-0.513972,0.037353955,-0.22953908,0.13071735,0.11501766,-0.8678548,-0.09952479,-0.32691923,0.21643834,-0.41783258,0.12752517,0.045464598,0.40610126,-0.012237055,0.26929998,0.066912055,-0.31179717,-0.49030626,0.19098881,0.2027963,0.41470537,0.053702515,0.123717554,0.05546118,0.2592598,0.642139,-0.57035923,-0.20378786,0.61090595,-0.28926197,-0.07250749,-0.2184469,-0.042784702,0.6262953,-0.62469417,-0.0986438,0.0020689063,-0.08838299,0.57554454,0.37396178,-0.021369977,-0.44156432,-0.033244863,0.11124681,-0.27241436,0.0291722,0.03297799,0.053680822,0.00010579366,0.52276456,0.20111327,-0.42227262,-0.019625248,0.023083739,0.33965728,0.107289694,-0.22469352,-0.16520783,-0.15661778,-0.42049316,-4.1641245,0.020685121,0.40647796,-0.17395428,0.54195446,0.05419824,-0.38096297,-0.18781735,-0.5065399,0.16236426,-0.07657499,-0.3492392,0.1331666,0.15689366,0.5499326,-0.5660297,-0.32316333,0.039716993,-0.24441436,0.28838974,-0.17620075,-0.45935488,0.36341128,0.118092455,0.2232777,0.06762894,-0.09129542,-0.3874884,-0.40098435,-0.1003288,-0.15286647,-0.14483486,0.15131779,0.5112306,-0.104113996,-0.20405522,0.076204054,-0.21610683,0.00045560874,0.021343645,-0.08708257,-0.5545982,-0.19929229,-0.06227686,0.53779507,-0.18057607,-0.10119399,-0.41431078,0.14526771,0.008333497,0.077910885,-0.28443134,-0.5751509,-0.11509213,0.11369945,-0.11330479,0.26018217,0.43384027,-0.13043527,-0.47654694,0.00039489454,-0.102176666,-0.6442072,-0.017611524,0.0050703273,0.03627227,-0.4800865,0.044006463,0.21352364,-0.020940904,0.08371313,0.29097113,-0.10590381,-0.67287356,0.18310322,-0.32707337,0.074247986,-0.12341757,0.40834215,0.36904863,0.08331603,-0.26387757,0.18266714,-0.13396506,-0.17730731,-0.6504489,-0.17747362,-0.268759,-0.01990191,-0.4994088,0.23848198,-0.08191034,0.107279584,0.12472071,0.46734276,0.16992046,0.20232654,-0.29331857,0.65469295,-0.44484407,0.3703647,0.050380897,0.4471907,0.076265186,0.11282434,0.0073054326,-0.49757415,-0.036459286,0.10743816,0.31389713,0.30883133,-0.48936945,0.32577127,-0.34854963,-0.26182193,-0.11176975,0.3028892,0.45931444,-0.17806198,0.033041716,-0.12041809,0.105144694,-0.38132954,-0.10044796,0.14134285,0.3301937,-0.22637673,0.012396045,-0.08032888,-0.40610456,0.07036114,-0.45360017,-0.014635187,0.017065749,0.39980978,-0.107480854,-0.21181151,-0.2720997,0.1166688,0.14124282,0.015381098,0.34557623,0.019346658,0.06417951,0.23693024,0.44638795,-0.12629728,-0.33834562,0.14899799,-0.06257845,-0.15955792,-0.52856916,-0.2874491,-0.47797257,0.16312595,-0.042993374,0.35465902,-0.17030813,-0.29852772,-0.3050881,-0.12627815,0.0668615,0.27179438,0.26344198,-0.24451974,0.38222122,-0.026460247,0.10184062,0.08266408,0.09255494,-0.11952772,-0.17630494,-0.078627266,0.18139434,-0.41947672,0.49950927,-0.25560102,0.02164964,0.107411094,0.36297667,-0.26688808,-0.40268415,-0.23672436,0.010029182,0.44731092,0.008274719,0.57798475,-0.15802407,0.044032156,-0.05421655,-0.11336083,0.36122075,0.0143243475,0.29437727,-0.11804522,0.010678664,0.2497567,0.06623934,0.08593288,-0.028270416,0.19613405,-0.17946629,0.14117026,-0.23603016,0.27166304,-0.106171146,0.2518044,0.19197217,-0.1963057,-0.024325004,-0.168579,-0.38120297,-0.4080921,0.0057800557,0.13390054,-0.51307,-0.26033857,-0.21818012,-0.18853009,0.5629067,-0.07455744,0.16878295,-0.14756382,-0.019236354,-0.60519683,-0.079671994,-0.21507011,-0.08588572,0.104942776,-0.3889198,0.24133083,-0.6154441,0.29545859,0.031279765,-0.11875276,0.05399294,-0.1872958,-0.39386606,0.37119377,-0.145656,0.113213636,0.07656529,-0.15751873,-0.13773176,0.065877676,0.17168476,0.0138576,0.23728286,-0.40032703,0.5350608,0.18121342,0.07382053,-0.13129531,-0.030169865,-0.08042162,-0.12214421,-0.578784,0.25798804,0.10298179,0.20467037,-0.066771075,0.066118665,-0.36173424,0.0007990904,0.23517445,0.17062838,-0.29074892,0.1853256,0.026273089,0.013348384,0.27352569,-0.45745337,-0.082840905,-0.41059852,0.1785302,0.4898893,-0.25924554,-0.32155752,0.084133945,0.004472005,-0.14934455,0.024564914,0.05686199,-0.056578923,0.012984128,-0.3931443,-0.38082093,0.11573749,0.09978913,0.04881421,0.2726649,0.3350461,-0.03875443,0.38605696,-0.12199467,0.009603702,0.55633384,0.46899801,0.15577538,-0.14230014,-0.13798188,-0.33805373,-0.0012672013,-0.024462095,-0.03915639,-0.1025766,-0.04479328,-0.28272736,-0.18267874,0.17543358,0.08066357,-0.36692813,0.5122806,0.2615225,-0.02171042,0.07690916,-0.05121687,-0.16190624,0.053153932,0.13265358,0.3045537,0.04000399,0.70535916,0.100491226,0.07971738,0.360518,-0.11165722,0.120490745,0.105426736,0.49045938,0.34506497,0.38911644,-0.12103576,0.31382143,-0.21605147,-0.23234221,0.22530292,-0.100482866,-0.16300707,-0.121412486,0.3371041,0.061175823,0.41696817,0.5034699,0.04910626,-0.15303098,0.6039632,0.1969614,0.48485345,0.43010107,0.13812178,0.53462505,0.072645,-0.09021059,0.4424849,-0.09662835,0.4001756,0.40080827,0.08052772,0.5193246,0.29734367,0.61423045,0.12041216,-0.40130404,-0.2223381,0.08512224,0.013578033,-0.055689726,-0.22790745,-0.09708094,0.20004463,-0.05006822,-0.30387855,-0.30971384,-0.109537184,-0.04690589,0.06625808,-0.081207566,-0.14972746,0.24458915,-0.19981894,-0.0977547,-0.32741597,-0.37075084,-0.004639839,-0.4276576,-0.108542725,-0.28080755,-0.040674694,-0.13184395,-0.2471803,0.07102953,0.20249884,-0.44709542,-0.015492215,-0.5300381,0.5172571,0.31363174,0.45451105,0.17158428,0.49291945,0.17322734,-0.5207038,-0.24163188,0.5473296,-0.20173118,-0.0090677785,0.4846135,0.024025002,0.2842039,0.19192122,0.5296992,-0.5413404,0.2219385,-0.17442012,-0.3045104,-0.10188314,-0.24576351,-0.21476787,-0.19333613,-0.42916512,-0.2081682,0.015131078,0.07514195,-0.0036073418,0.094632044,0.23415795,0.061061714,-0.09201267,-0.28774765,-0.12543438,0.398758,0.37321663,-0.026021486,0.036207803,-0.44032416,-0.47858176,-0.102169745,-0.5302049,-0.08031696,0.55488235,-0.032221336,0.06818061,-0.09599666,0.34685844,-0.05361842,0.10565138,-0.04559373,-0.13239075,-0.36045986,-0.10036603,0.054318845,-0.093657956,0.033431605,-0.15283425,-0.27148104,-0.29413235,0.0030889327,-0.011182336,0.14226112,69.7,56.9,4.6,6.0,30.0,127.9,56.6,71.3,44.3,54.0,112.94,0,0,5,3,3.0,0,0,3,33.0,219.0,222.0,216.0,116.0,118.0,114.0,19.35,19.6,19.1,29.4,29.6,29.2,292.0,304.0,280.0,0.0,1.0,2.0,2.0,3.0,38.0,29.0,17.0,2,5,4,1,0,17.0,1,1,29.0,38.0,38.0,1.0,13.0,0,0.0,1.0,0.0,1.0,0.0,1.0,1.0,1.0,0.0,0.0,0.0,0.0,0.0,0.0,0.0,0.0,0.0,0.0,0.0,0.0,1.0,0.0,1.0,0.0,0.0,0.0,0.0,0.0,0.0,1.0,0.0,1.0,0.0,0.0,0.0,0.0,0.0,0.0
Corvus_monedula,-0.1587954,0.2797345,0.21306674,-0.29623732,0.1783689,0.15702425,0.2305921,0.47419137,-0.020883892,-0.0456546,-0.14201397,-0.31905422,-0.27195227,0.25374302,-0.30990732,0.836148,0.14970021,-0.0056717526,-0.2734862,0.16886438,0.32041052,-0.15946597,-0.16283685,0.29838154,0.79765236,0.22428511,-0.022336073,0.093497224,-0.09687061,-0.2927384,0.40150008,0.39534009,0.010131774,-0.055242952,-0.05024398,-0.031893473,0.22890398,0.16358529,0.03270087,-0.005937486,-0.40627664,-0.37056455,-0.07913722,-0.18050309,-0.36637938,-0.3461257,0.14925648,-0.36820623,0.021072172,-0.25060812,-0.4800949,0.50918174,-0.062356923,-0.024300111,-0.03520569,0.6801955,-0.118567765,-0.5581821,-0.08155436,-0.24340054,-0.05455538,-0.22564001,0.2939927,0.10248379,-0.039005347,0.18300691,-0.10456342,0.18972704,-0.5749847,0.035089396,-0.3037982,-0.0673012,-0.2788886,0.11380669,-0.07908143,0.09354832,0.08265099,0.2400304,0.10447769,0.07018616,0.1505852,0.35426143,-0.21774344,0.3548491,0.21992788,0.23522699,-0.16785023,0.35457683,-0.29043797,0.2126735,0.098608494,-0.3113089,-0.040804666,-0.110038936,0.053529587,0.03926575,0.36138874,0.034216624,0.16760243,0.112195484,0.14186159,-0.13036929,0.20185408,-0.01597798,-0.5439451,0.14502451,0.025370065,0.004650009,-0.1472379,0.51049757,0.16482605,-0.17722416,0.052995443,-0.17680956,0.032118697,0.016360296,0.07776569,-0.04051502,-0.21841057,7.1480106e-05,0.16944082,-0.06128409,0.31268796,0.5646686,-0.022979649,0.046765793,-0.09565133,0.11909137,-0.023227174,0.039620776,0.27350122,0.43196106,0.0032001238,-0.28026888,-0.18979493,-0.08915763,-0.0734962,-0.4152943,-0.052548304,0.17157505,-0.044206116,-0.17961513,0.23392884,-0.020505542,0.09602566,0.22383773,-0.28265756,-0.19418918,-0.03642705,0.21161816,0.28611565,-0.1359913,-0.1198726,-0.19828157,-0.36996207,-0.20785923,-0.10384433,-0.10487955,0.048655067,0.031156948,0.27912718,0.27227962,-0.23410714,0.050379463,-0.029711103,0.17771074,-0.2607046,0.30012807,-0.44163188,0.43191874,-0.09108411,0.16536932,0.8680124,0.03484396,0.023013242,-0.10659509,0.25032935,-0.18127203,0.25644216,0.23528045,-0.5970736,0.36236355,-0.21874632,-0.24352509,0.06732262,-0.4261892,-0.062032178,-0.619792,-0.059449244,-0.33121935,-0.015387563,0.19404575,-0.42021328,-0.10091421,-0.030110875,-0.3901528,0.14123045,-0.2897936,-0.32189712,-0.13726711,0.1793991,0.2569818,0.054657888,0.26836964,-0.33764604,-0.15281798,-0.16999328,-0.21333429,-0.25414023,0.11091051,-0.40912196,0.10076952,0.017132798,0.048611537,-0.14179929,0.12246529,0.25264937,-0.04654574,0.26956826,-0.20538792,-0.16280872,-0.0041286903,-0.37869787,0.6407967,0.0007441244,0.5399742,0.41646856,-0.5339334,-0.019959245,0.37879765,-0.015731331,-0.2242365,0.44293827,-0.29572326,-0.3297069,0.04172326,-0.1784893,-0.124854036,0.12590142,-0.38895577,-0.17656644,0.18356228,0.8542761,0.13122052,0.098107465,-0.19957808,0.25098887,-0.020333018,-0.4386404,0.07231362,-0.15479596,0.03245284,-0.052639544,-0.65671325,0.08893642,-0.38263023,0.12476303,-0.5292634,0.00016199498,0.08645209,0.5539126,0.11405415,0.038810737,-0.081517495,-0.17944449,-0.4773705,0.30107304,0.10488702,0.3081751,0.021683428,0.053583425,0.14004692,0.1661836,0.503215,-0.43884453,-0.16434103,0.47872347,-0.35015613,-0.19781575,0.11361853,0.035610814,0.23787932,-0.5573914,-0.048378173,-0.30989105,-0.1316439,0.5294442,0.34125066,-0.14475864,-0.6166472,-0.031544384,0.17757441,-0.12685117,0.16597186,0.09355604,0.11127176,-0.059762023,0.6395164,0.2819534,-0.5282538,-0.012866589,0.01615669,0.40260231,0.03079185,-0.32295406,-0.11159135,-0.12740181,-0.5112211,-4.0405912,0.15409002,0.50125444,-0.25930363,0.5292661,-0.0313773,-0.121781595,-0.21667926,-0.47264883,0.11368015,0.09558937,-0.41422707,0.20200685,0.19256951,0.5856592,-0.59477323,-0.3194262,-0.017645912,-0.21804701,0.24084038,-0.12728365,-0.44755018,0.2968693,0.02442402,0.3399355,0.06897942,0.20190525,-0.49912485,-0.4484145,-0.13516773,-0.18600518,-0.094892696,0.24198118,0.53111815,-0.010118629,-0.21638584,0.029355926,-0.29888985,0.06062921,-0.13950486,-0.009586056,-0.6455391,-0.08424251,-0.10852461,0.6466162,-0.06512257,-0.15114647,-0.38521498,0.18904214,-0.031969972,0.008846104,-0.094854936,-0.57039547,-0.093055025,0.11584822,0.11867403,0.20934048,0.39173996,-0.24209781,-0.34901705,-0.046236966,-0.011346749,-0.8168275,0.0021983897,0.036497407,0.12555605,-0.4986559,0.0020513674,0.28787223,-0.09346355,0.043036442,0.396209,-0.05607468,-0.5404139,0.11346011,-0.3920473,0.08376072,-0.10410887,0.2274303,0.2595084,0.015387168,-0.29341754,0.20815928,-0.047147047,-0.13795875,-0.76559323,-0.2836427,-0.22083691,-0.16370712,-0.5611717,0.18769117,-0.10315818,-0.11578991,0.32035893,0.4079544,0.16350235,0.29990828,-0.2846196,0.58702826,-0.32881722,0.20936924,-0.08681291,0.3853449,-0.07044727,0.14143771,0.06123518,-0.36620438,0.07067409,0.2171443,0.30069262,0.35971022,-0.5724831,0.44199732,-0.41972458,-0.12349454,-0.17364512,0.41963765,0.5723913,-0.082390115,0.14282288,-0.21373972,0.14959168,-0.3453606,-0.14359444,-0.09576466,0.22746012,-0.057388663,-0.15091597,-0.14858885,-0.5236796,-0.023085818,-0.49880275,-0.076257624,0.19659102,0.09940459,0.13825746,-0.08107964,-0.45838833,0.05350594,0.10788602,0.0021784757,0.26747024,-0.0032741798,-0.15300193,0.20555465,0.5335757,-0.16849972,-0.3211426,0.24784967,-0.0009949373,-0.20013583,-0.5720476,-0.25946587,-0.42196622,0.28396317,-0.11763268,0.30449605,-0.15970735,-0.2958711,-0.41370866,-0.14622757,0.075309835,0.3037187,0.36028862,-0.06309447,0.28180856,-0.08897672,0.00071466836,0.12092464,0.17669153,-0.19940595,-0.000133698,-0.23600276,0.20411135,-0.31438813,0.6699122,-0.32140508,-0.042948492,0.026516266,0.17459615,-0.24271996,-0.3277557,-0.31502092,-0.059366755,0.54048216,-0.118808605,0.40217474,-0.19026902,0.16356713,-0.016553188,-0.26714778,0.24395002,0.05129474,0.24148537,-0.12798627,0.15358223,0.22426178,0.078558385,-0.031253356,0.0046584406,0.2195235,-0.24039164,-0.014121115,-0.27042466,0.0485323,-0.3108111,0.3326071,0.19207068,-0.44185844,0.17416662,-0.23974398,-0.29950067,-0.4643658,0.041159447,0.0653739,-0.45596802,-0.3230188,-0.12686369,-0.11246655,0.41091812,-0.10698269,0.0020192352,-0.01694233,0.118739605,-0.5960807,-0.009421404,-0.21965794,-0.037924085,0.21562587,-0.25409895,0.14355837,-0.5162839,0.31130937,0.13809659,-0.28693622,0.1329129,-0.26644903,-0.47569168,0.13418575,0.0118213035,0.33888352,0.18727303,-0.11239924,-0.07385473,-0.054485478,0.02375071,-0.26213682,0.3300919,-0.18673919,0.2958687,0.06682591,0.095359765,-0.13174848,-0.03711279,-0.16824754,-0.29503277,-0.45595446,0.16452836,0.08776531,0.12222421,-0.003948264,0.021666307,-0.35875994,0.14047171,0.18292621,0.009366514,-0.28309774,0.18788058,-0.03218096,0.05989662,0.20768015,-0.4476979,-0.0582867,-0.33849043,0.3832395,0.3028392,-0.09749977,-0.48219222,0.08576748,-0.3976339,-0.021496449,0.0346455,0.18429129,0.047874924,0.0904173,-0.4719955,-0.49287608,0.29890853,-0.061515518,-0.07681749,0.5781314,0.20787525,-0.05564507,0.12515269,-0.15909511,0.018888738,0.5891108,0.2626738,0.2592137,-0.1745896,-0.19905865,-0.19736934,-0.1023241,-0.16404329,-0.0024442698,-0.1855844,-0.061049677,-0.22502455,-0.1596334,0.19415964,0.2307284,-0.28013447,0.5556183,0.43665364,0.06839107,-0.032586407,-0.20526166,-0.15132174,0.10671643,0.254219,0.32151142,0.067359835,0.7020955,0.17512566,-0.020351067,0.38253185,-0.051201396,0.014942329,0.08421363,0.39260727,0.2201603,0.3459062,-0.16871887,0.236486,-0.30770802,-0.29269397,0.08416752,0.004311452,-0.06885457,-0.09673879,0.2973414,0.061471075,0.5033935,0.43359193,0.13413343,-0.046384275,0.41538948,0.046944965,0.3743073,0.21006213,0.23568124,0.45664322,0.020674229,-0.24532953,0.4382892,0.06832853,0.3014223,0.3696244,0.20046335,0.44604808,0.4014196,0.55839497,0.06439124,-0.48797518,-0.52250904,0.053564057,0.2395469,-0.12610672,-0.33722812,-0.07210398,0.18052003,-0.018848445,-0.22424896,-0.37117788,-0.20629537,-0.041801002,0.17050703,-0.09022802,-0.11962754,0.08546223,-0.22330324,-0.16655603,-0.3134377,-0.40866664,0.05138833,-0.2192994,-0.103380606,-0.149185,-0.15741527,-0.21559832,-0.12376492,0.1570029,0.3154309,-0.42989382,-0.07280265,-0.53713757,0.63297397,0.2544396,0.4216177,0.031925384,0.43380246,0.17386153,-0.55438775,-0.118641,0.5949789,-0.20270117,0.0087618865,0.39347667,-0.2704617,0.36674437,0.10589196,0.41580814,-0.6146388,0.2650346,-0.08386154,-0.18351261,0.022827277,-0.05652909,-0.32500023,-0.29376826,-0.17988525,-0.32376376,0.26786116,0.012059349,0.065827966,0.10401752,0.28327987,0.16151066,-0.10487184,-0.19806115,-0.1426194,0.35584366,0.2062437,-0.11562612,-0.010213533,-0.6741144,-0.27582625,-0.045036364,-0.5202266,-0.13074142,0.4036564,0.031905316,0.18007244,-0.12233795,0.55467033,-0.07722002,0.03291126,-0.24379465,-0.24334733,-0.522932,-0.027759671,-0.007162242,-0.1071621,-0.039622452,-0.20148145,-0.2109421,-0.14096498,0.043987464,0.045138165,0.05396931,76.7,60.9,6.5,10.0,34.2,192.4,75.1,115.6,39.4,84.8,308.31,0,0,0,3,3.0,0,4,3,41.0,251.0,252.0,250.0,162.5,165.0,160.0,21.25,21.4,21.1,32.75,32.8,32.7,496.5,497.0,496.0,0.0,1.0,3.0,1.5,2.0,41.0,29.0,19.0,2,3,5,1,0,17.0,1,3,29.0,36.0,36.0,1.0,18.0,0,1.0,0.0,0.0,1.0,0.0,1.0,1.0,1.0,0.0,0.0,0.0,0.0,0.0,0.0,0.0,0.0,0.0,0.0,0.0,1.0,1.0,1.0,1.0,0.0,0.0,0.0,0.0,0.0,0.0,1.0,1.0,1.0,0.0,0.0,0.0,0.0,0.0,0.0
Sylvia_borin,-0.15804136,0.027453316,0.2448854,-0.18035568,0.26983258,0.2468853,0.115206756,0.39173973,-0.06599983,-0.11645352,-0.011170588,-0.32370657,-0.43112087,0.29532304,-0.18404482,0.68646514,0.39575002,-0.14780776,-0.2156685,0.1132473,0.3819664,0.08314489,0.10429605,0.3139876,0.8084198,0.16410722,-0.10893931,0.1954636,-0.10716488,-0.16008717,0.46379772,0.36151686,0.050164185,-0.12378016,0.0046566944,-0.13097304,-0.0070029176,0.06402275,0.18683605,-0.07931131,-0.41870666,-0.25137693,-0.15658762,-0.12743638,-0.237109,-0.2518639,0.06791183,-0.30158556,-0.17396036,-0.19113187,-0.5638666,0.5887966,0.040242076,-0.017444903,0.08001148,0.48462448,-0.17231674,-0.50390786,-0.10592631,-0.2903515,-0.16525006,-0.44168368,0.24810535,0.044764858,-0.16782151,0.2250422,-0.11296085,0.22775947,-0.5079516,0.026170805,-0.13580112,0.06611413,-0.15210044,0.11500759,-0.10470266,0.046615817,0.077353865,0.113291815,0.23861331,0.1878316,-0.013530179,0.37098536,-0.085393906,0.16518365,0.08808822,0.08613726,-0.070920505,0.4601444,-0.21997409,0.21426068,-0.08716112,-0.52038026,-0.05975641,0.03115002,0.023676807,-0.14350681,0.37619537,-0.20915751,0.21749516,0.09449697,0.21499887,-0.41585192,0.17943507,0.056797277,-0.3478467,0.21094473,0.045870524,0.23906708,-0.31215033,0.6771143,0.06391333,-0.24211653,0.090729624,-0.2361042,-0.009374682,-0.066255145,0.061996907,-0.045150187,-0.16110003,-0.0023423026,0.07537764,-0.097897224,0.31313807,0.56035525,-0.009946305,0.08554718,-0.07793121,0.03015682,-0.06738875,0.0076110996,0.1882745,0.44626546,0.13213189,-0.074625075,-0.30438814,-0.22544174,-0.016557777,-0.30602512,-0.07007184,0.06971941,0.0026560787,-0.18012618,0.24002501,-0.20347247,0.22755828,0.06509379,-0.24779236,-0.14969726,0.0805136,0.43542063,0.21295448,0.122113794,-0.17795773,-0.14915793,-0.38513303,-0.17339909,-0.31955522,-0.14660363,0.17668237,0.059985016,0.35165888,0.41053382,-0.059880007,0.11758945,-0.052312844,0.2116698,-0.37905335,0.2925578,-0.3608038,0.4273874,-0.19177453,-0.15351194,0.79435754,0.06145814,0.05626164,0.040236186,0.31906134,-0.10901009,0.1314492,0.15783678,-0.7232513,0.39830318,-0.24899201,-0.24470472,-0.2612977,-0.3813799,0.04400168,-0.46734253,-0.029014139,-0.51023287,0.0052863746,0.07853783,-0.27427164,-0.09849499,0.18495665,-0.30399227,0.015133468,-0.61135995,-0.2706718,-0.2113864,0.1556336,0.17503557,0.056194123,0.18089728,-0.19669434,-0.18664794,-0.22569205,-0.17744136,-0.2201921,0.1478752,-0.42100403,0.15024559,-0.022515755,0.03075338,-0.07356986,0.07185814,0.096710116,-0.12940173,0.33136052,-0.1369903,-0.35348907,-0.013886479,-0.41425657,0.65019923,-0.12890063,0.5406852,0.41074505,-0.6661863,-0.05046705,0.37548164,-0.021644633,-0.17081869,0.47218668,-0.24263585,-0.14087994,-0.016702846,-0.29057634,-0.08655931,0.21056473,-0.44949216,-0.11627483,0.016229866,0.6875982,0.15911952,0.09935886,-0.3325482,0.23544307,-0.2179743,-0.4651687,0.06580609,-0.31412178,0.16820459,-0.028811408,-0.62230456,0.019289825,-0.19311051,0.11801575,-0.555485,-0.18491183,0.07525822,0.3680348,0.15666075,0.18158357,-0.04826806,-0.29703617,-0.37520722,0.21827577,0.2614085,0.56222296,-0.07275554,0.07247398,0.08923855,0.23846146,0.6224414,-0.28463158,-0.13539694,0.48191607,-0.25824693,-0.1700377,-0.23770942,-0.002457135,0.3583916,-0.5466805,-0.09621877,-0.30085516,-0.018230306,0.52404195,0.19995804,0.085754015,-0.6553361,-0.20889671,0.2831828,-0.25050348,0.2689419,0.094634004,0.09953215,0.16362227,0.43506217,0.30981934,-0.38205156,0.09361929,-0.12589882,0.38035396,-0.013257566,-0.1977263,-0.1554708,-0.022022147,-0.42842904,-3.9186344,0.10238299,0.2788439,-0.30685642,0.49699014,0.10273666,-0.12740646,-0.30378112,-0.20787206,-0.012752227,-0.06889838,-0.36981347,0.04623306,0.045138013,0.588679,-0.63356876,-0.46334141,-0.1599801,-0.27386424,0.3198567,-0.12539135,-0.2822764,0.3306875,-0.066631936,0.20391607,0.15657964,0.057509992,-0.33281898,-0.55973953,-0.1429386,-0.22114684,-0.18835309,0.26047137,0.42451486,-0.07521297,-0.06979793,-0.081772156,-0.23470104,0.10156118,-0.15922041,-0.20641565,-0.6812279,0.009630089,-0.11463607,0.45545137,-0.103225805,0.0147405295,-0.5815146,0.20899238,-0.0060770377,0.079762585,-0.21510963,-0.42995343,-0.15659137,0.26891392,0.19983453,0.35487345,0.36760464,-0.21068282,-0.26064384,0.00069404434,-0.13768081,-0.71492434,-0.119029485,0.19542386,-0.084087394,-0.47197908,0.05732161,0.3050243,0.015756557,0.21106665,0.3562551,-0.097878344,-0.5103992,0.24184255,-0.32824776,0.15209652,-0.086800195,0.28180248,0.16747785,-0.016708395,-0.21736436,0.24212031,-0.08757912,-0.09802802,-0.7093223,-0.1418486,-0.17159177,-0.13675305,-0.4955495,0.32075205,-0.08396298,-0.08974139,0.101387985,0.4789629,0.15192534,0.19707787,-0.25718164,0.638594,-0.39792877,0.22176339,-0.102633245,0.36443073,-0.057706606,0.18124409,-0.06555448,-0.38047102,-0.102078676,0.08340601,0.19676659,0.43738717,-0.64293694,0.45763803,-0.36858425,-0.007204863,-0.21004331,0.2964912,0.49610335,-0.07209712,-0.008861244,-0.13296376,0.35204765,-0.1970967,-0.1811038,-0.03749579,0.24731973,-0.046096202,0.043061312,-0.19206345,-0.52209115,-0.029156351,-0.41791523,-0.09545403,0.10119766,0.39995718,0.0014832392,-0.21437776,-0.43398294,0.25589198,0.3623897,0.069146655,0.26631567,-0.040403698,0.02388278,0.33721137,0.51632625,-0.15589876,-0.3713813,0.1515623,0.033554412,-0.07827829,-0.44769517,-0.25335908,-0.5614394,0.24517085,-0.057270262,0.15295395,-0.097893566,-0.4662045,-0.25566515,0.055695083,0.07663268,0.17384908,0.3081642,-0.07430494,0.25844455,-0.1156815,0.042877793,0.25270382,0.07080518,-0.21415128,-0.19839276,-0.15416628,0.07159588,-0.25033063,0.56410456,-0.34843054,-0.12479609,0.01775075,0.29224938,-0.232204,-0.3873041,-0.28178146,0.06218926,0.67576593,-0.10772878,0.38426614,-0.21018177,-0.073024504,0.07814486,-0.08569067,0.10212871,-0.09477584,0.09267938,-0.25565076,0.18532628,0.20842238,0.18163069,0.09046723,-0.054526318,0.3335781,-0.2769514,0.05198317,-0.1851773,0.15421991,-0.12384087,0.2553081,0.085096866,-0.50611097,0.113061026,-0.07518629,-0.41421157,-0.45101026,0.024659298,0.06464879,-0.3871125,-0.37802228,-0.22009666,-0.28994855,0.29936025,0.003133798,-0.041732203,-0.045982115,-0.053898554,-0.40430436,0.02138673,-0.096251704,0.033545442,0.13856408,-0.41237828,0.23952472,-0.60997915,0.3766242,0.11020595,-0.05461712,0.016392514,-0.21646477,-0.37462306,0.10230675,0.041085403,0.19836777,-0.034239385,-0.17920026,-0.09685488,0.061106015,0.21123058,-0.25356,0.208106,-0.2809652,0.45257804,0.1807365,0.11372726,-0.18107021,-0.12431898,-0.023623977,-0.292173,-0.38595498,0.08881606,0.030147396,0.13992424,-0.059558354,-0.13483222,-0.27260682,0.08535126,0.2383176,-0.021677773,-0.14574902,0.38846183,0.043028742,-0.00021888001,0.2539646,-0.46366587,-0.14729492,-0.33615682,0.28420395,0.37444484,-0.2298716,-0.4590434,-0.05561825,-0.3152941,-0.20330957,-0.039313152,0.070387386,0.09310138,0.07874544,-0.4498178,-0.40146026,0.20728528,0.0595551,-0.27028948,0.5237574,0.18285815,0.124516636,0.2925544,-0.26548266,0.057402264,0.6200388,0.32306597,0.2534996,-0.08220975,-0.020472711,-0.09644837,0.0002627518,-0.05773247,0.018479278,-0.20774043,0.047072038,-0.5541569,-0.07146399,0.18771674,0.1821918,-0.2578691,0.5363061,0.3296678,0.025491657,-0.08454911,-0.028048621,-0.017647693,0.092594445,0.15568194,0.33435714,0.04479907,0.74444705,0.27871045,-0.07283443,0.32918012,-0.12422917,0.034822185,-0.08051076,0.41383734,0.3087984,0.31756505,-0.19835138,0.28778833,-0.34315687,-0.1920751,0.26434296,0.06681957,-0.026252216,-0.30527136,0.26716983,-0.08837222,0.47387198,0.5202941,0.10319164,0.018096136,0.47224632,-0.010139569,0.48020846,0.4467269,0.2728267,0.40759957,-0.01971638,-0.20010675,0.2355492,0.0473197,0.44179675,0.38305765,0.054481316,0.5013035,0.10538774,0.45084214,0.2797474,-0.46313325,-0.42893687,0.20553117,0.13236885,0.0002050494,-0.3283183,-0.07096246,0.15425718,-0.08333118,-0.43087828,-0.23771206,-0.0067513757,-0.06983053,-0.03495022,0.091996305,-0.048301287,0.40206155,-0.17169729,-0.14116454,-0.30300504,-0.3505178,0.044545237,-0.35193118,-0.11405864,-0.11073956,-0.14137116,-0.19850607,-0.060308784,0.09359299,0.32821366,-0.34399337,-0.17346859,-0.38871497,0.43675262,0.24535257,0.4091644,0.023121437,0.3793479,0.18293813,-0.61170566,-0.17069171,0.53798944,-0.19458973,-0.18921353,0.49045974,-0.1258001,0.2984364,0.04432694,0.4429041,-0.50859785,0.21521826,-0.08663473,-0.083776474,-0.038307644,0.034218118,-0.426431,-0.21371768,-0.33525598,-0.33988833,0.0112782195,0.12218907,0.086681224,-0.02624283,0.3031503,0.07428609,-0.13891248,-0.29625836,-0.16543795,0.34415329,0.21133897,-0.14830619,0.15177217,-0.67924845,-0.1681389,0.044994183,-0.6708643,0.061951336,0.10073194,0.0152923735,0.10961923,-0.15554653,0.36464828,-0.07329396,0.12923433,-0.2363403,-0.041486,-0.58255714,0.17023782,0.060356304,-0.09701275,-0.092419356,0.0446326,-0.3271161,-0.19263116,0.09494072,0.013415861,0.11572224,189.1,153.4,23.5,33.1,217.2,565.6,260.2,306.8,45.9,249.8,3445.8,0,0,1,3,3.0,0,4,3,27.0,175.5,179.0,172.0,114.5,116.0,113.0,16.4,16.8,16.0,23.25,23.6,22.9,144.0,144.0,144.0,0.0,1.0,2.0,1.5,2.5,29.0,22.0,8.0,2,3,5,1,0,14.0,1,3,22.0,28.0,28.0,1.0,13.0,3,0.0,0.0,0.0,0.0,1.0,0.0,0.0,1.0,0.0,0.0,0.0,0.0,0.0,0.0,0.0,0.0,0.0,0.0,0.0,0.0,0.0,1.0,1.0,0.0,0.0,0.0,0.0,0.0,0.0,0.0,1.0,1.0,0.0,0.0,0.0,0.0,0.0,0.0
