species,0,1,2,3,4,5,6,7,8,9,10,11,12,13,14,15,16,17,18,19,20,21,22,23,24,25,26,27,28,29,30,31,32,33,34,35,36,37,38,39,40,41,42,43,44,45,46,47,48,49,50,51,52,53,54,55,56,57,58,59,60,61,62,63,64,65,66,67,68,69,70,71,72,73,74,75,76,77,78,79,80,81,82,83,84,85,86,87,88,89,90,91,92,93,94,95,96,97,98,99,100,101,102,103,104,105,106,107,108,109,110,111,112,113,114,115,116,117,118,119,120,121,122,123,124,125,126,127,128,129,130,131,132,133,134,135,136,137,138,139,140,141,142,143,144,145,146,147,148,149,150,151,152,153,154,155,156,157,158,159,160,161,162,163,164,165,166,167,168,169,170,171,172,173,174,175,176,177,178,179,180,181,182,183,184,185,186,187,188,189,190,191,192,193,194,195,196,197,198,199,200,201,202,203,204,205,206,207,208,209,210,211,212,213,214,215,216,217,218,219,220,221,222,223,224,225,226,227,228,229,230,231,232,233,234,235,236,237,238,239,240,241,242,243,244,245,246,247,248,249,250,251,252,253,254,255,256,257,258,259,260,261,262,263,264,265,266,267,268,269,270,271,272,273,274,275,276,277,278,279,280,281,282,283,284,285,286,287,288,289,290,291,292,293,294,295,296,297,298,299,300,301,302,303,304,305,306,307,308,309,310,311,312,313,314,315,316,317,318,319,320,321,322,323,324,325,326,327,328,329,330,331,332,333,334,335,336,337,338,339,340,341,342,343,344,345,346,347,348,349,350,351,352,353,354,355,356,357,358,359,360,361,362,363,364,365,366,367,368,369,370,371,372,373,374,375,376,377,378,379,380,381,382,383,384,385,386,387,388,389,390,391,392,393,394,395,396,397,398,399,400,401,402,403,404,405,406,407,408,409,410,411,412,413,414,415,416,417,418,419,420,421,422,423,424,425,426,427,428,429,430,431,432,433,434,435,436,437,438,439,440,441,442,443,444,445,446,447,448,449,450,451,452,453,454,455,456,457,458,459,460,461,462,463,464,465,466,467,468,469,470,471,472,473,474,475,476,477,478,479,480,481,482,483,484,485,486,487,488,489,490,491,492,493,494,495,496,497,498,499,500,501,502,503,504,505,506,507,508,509,510,511,512,513,514,515,516,517,518,519,520,521,522,523,524,525,526,527,528,529,530,531,532,533,534,535,536,537,538,539,540,541,542,543,544,545,546,547,548,549,550,551,552,553,554,555,556,557,558,559,560,561,562,563,564,565,566,567,568,569,570,571,572,573,574,575,576,577,578,579,580,581,582,583,584,585,586,587,588,589,590,591,592,593,594,595,596,597,598,599,600,601,602,603,604,605,606,607,608,609,610,611,612,613,614,615,616,617,618,619,620,621,622,623,624,625,626,627,628,629,630,631,632,633,634,635,636,637,638,639,640,641,642,643,644,645,646,647,648,649,650,651,652,653,654,655,656,657,658,659,660,661,662,663,664,665,666,667,668,669,670,671,672,673,674,675,676,677,678,679,680,681,682,683,684,685,686,687,688,689,690,691,692,693,694,695,696,697,698,699,700,701,702,703,704,705,706,707,708,709,710,711,712,713,714,715,716,717,718,719,720,721,722,723,724,725,726,727,728,729,730,731,732,733,734,735,736,737,738,739,740,741,742,743,744,745,746,747,748,749,750,751,752,753,754,755,756,757,758,759,760,761,762,763,764,765,766,767
Accipiter_gentilis,0.12116555,0.08564781,-0.0071665067,-0.05504238,-0.0415936,-0.03563159,-0.09339105,-0.011469522,-0.1899521,0.06685253,-0.07541702,0.046922494,0.177192,-0.27063698,-0.05114114,-0.045996588,-0.063372895,0.06286863,0.042256314,-0.037219465,-0.01959094,0.076695256,0.011880047,0.20959392,0.046769593,-0.05703482,-0.07138859,0.032608747,-0.0033128187,-0.052868858,0.15692392,0.0114137,-0.06105686,0.05856221,-0.002780136,-0.05921778,0.13574018,0.018623743,-0.13299768,-0.04568833,0.104768775,-0.032053564,0.060000394,-0.14241488,-0.024195828,-0.24386868,0.10108659,-0.15932041,0.084913775,-0.061834536,0.060365077,0.20175831,-0.00430164,0.08084014,0.13078192,-0.09431278,-0.12413384,-0.056545824,-0.07720968,-0.044183366,-0.096906684,-0.1341908,-0.038811944,-0.053320758,-0.14499518,0.031945944,-0.009764696,-0.081328124,-0.056155078,-0.051238954,0.011226481,-0.0067482353,-0.009513681,0.08964661,-0.009135267,0.0022556654,0.024349168,-0.035499737,0.018650537,-0.07025335,0.07050971,0.12872513,-0.09487507,-0.07022457,-0.08679011,0.021271367,0.15673766,-0.012164551,-0.054734074,-0.06336403,0.17987856,-0.10884456,0.008411656,0.099509895,0.054113638,0.017381305,0.09556672,-0.022600599,0.093615994,-0.10488142,0.25068077,0.08272945,-0.12778673,-0.051973555,-0.06374768,-0.1366212,0.36464947,-0.15171044,0.024698282,0.019255517,0.06321114,-0.11560319,0.13712728,-0.08943293,0.026255662,-0.05569758,0.10863304,-0.036217064,-0.099530965,-0.005164187,-0.12310138,-0.03726279,-0.07192363,-0.12309444,0.2196584,-0.030730784,-0.11641701,0.20205022,0.03673493,-0.2447884,0.008675082,-0.10167424,0.073431745,0.13437071,6.812243e-05,-0.003343214,0.005969011,-0.07253094,0.09145931,0.09789452,-0.007824754,0.042888775,-0.2993162,-0.065269865,-0.099775374,0.036669187,0.062497843,0.084904835,-0.00072676834,0.017236952,0.073134065,0.18237096,0.10301215,0.07357284,-0.114493616,-0.08417853,-0.028149076,0.11588917,-0.057951484,-0.15035085,0.042993315,0.072417445,-0.0274069,-0.01604078,-0.0070302277,0.094941854,0.020280577,-0.002371516,-0.12417349,-0.1296855,0.1366777,0.01211559,0.10860511,0.027228996,0.089987196,0.33094195,0.0051255724,-0.0238838,0.17286077,0.094157875,-0.13953176,0.04380184,0.014981332,-0.059998296,-0.31058133,0.009209543,0.12697513,-0.11884452,-0.013817879,-0.023984484,0.01697077,0.042422324,-0.11928207,-0.052450765,-0.0031153038,-0.096161015,0.13872093,-0.07732303,0.076805875,-0.0027598338,0.06422701,-0.032145202,0.051251292,0.02869499,-0.036329627,0.13614647,0.16799633,-0.0015135816,-0.19057386,0.1731647,-0.027147831,-0.061600503,0.002867949,-0.038889755,0.04662903,0.12076322,0.010331535,-0.026954975,-0.17680308,0.17291586,0.075266525,-0.20384789,-0.02452318,-0.024377463,0.04415183,-0.019055365,0.0014089753,-0.059919603,0.06390018,-0.01891083,0.005970137,0.15994792,-0.01762362,0.1218877,0.054136142,0.23577073,0.200428,-0.035916813,0.08829901,0.07902572,0.08047633,0.11129625,0.006328021,-0.11050734,0.12358874,-0.045100924,0.17761427,-0.048366778,-0.010150471,-0.16224983,-0.056205723,0.11831783,-0.15941784,-0.0633313,0.037257217,-0.16615295,0.03883236,-0.088162705,0.06882799,-0.006642098,0.20783007,0.07461352,0.03543898,-0.09193243,0.074367344,-0.013211496,0.047122605,-0.27558422,0.019926412,0.0674988,0.008103816,0.05652863,-0.16609463,-0.088297404,0.08606644,0.065014035,-0.032792397,0.045768674,-0.047630545,-0.013942566,-0.014203702,-0.21556216,-0.017244942,-0.017293371,0.13489242,-0.11529135,-0.035341844,-0.061866283,-0.08818513,0.078021295,-0.027915075,-0.034298077,0.024729688,0.07464398,0.0848284,-0.012189972,0.07499846,-0.21003601,0.10014659,0.00971403,-0.020166075,-0.09484835,-0.040715035,0.025367893,-0.033575457,-0.10484225,-0.00013700665,0.0075371624,0.052488178,0.08930073,0.020322615,-0.10050336,0.032716718,-0.012869821,-0.09514362,-0.025247797,-0.12680063,-0.040616937,0.13822816,0.16083944,-0.10019349,0.0065771057,-0.024990872,0.04903352,-0.13547716,0.017934812,0.17647606,-0.010178136,0.14459337,-0.15344612,-0.15327245,-0.013342053,0.033653464,0.0135594,-0.15877312,-0.06600436,0.07404843,0.17350562,0.033627585,0.14154512,0.016091062,0.018493703,0.011633165,0.12229454,-0.26844102,0.0063866894,-0.07330937,0.028378962,0.2269805,0.16502976,-0.1664165,-0.083988935,0.019862633,-0.065133244,-0.014217114,-0.0734464,0.02974988,0.1097915,0.06816349,0.10277361,0.11428491,-0.169755,0.028038656,0.15819606,0.19850557,0.068492696,0.06606922,-0.025957584,0.034421775,0.11297049,-0.009753997,-0.12563643,-0.02648383,0.11176771,-0.13065287,0.02892941,0.05710793,-0.34321854,0.14891808,-0.06444812,-0.053253837,0.11253043,0.043367416,-0.01656339,0.08277895,-0.05263176,-0.031722616,-0.02157339,-0.31881705,-0.04602797,0.012429145,-0.11033768,-0.07838019,-0.12876917,0.17223282,-0.04113177,-0.098574735,0.009764661,0.03187264,0.007865101,0.04291364,-0.118154705,0.08724825,0.060340498,-0.0014215736,0.25701457,-0.1375531,-0.028762648,-0.0266442,-0.010129909,-0.18096009,-0.036405105,-0.064945504,0.22562905,-0.3297339,0.01757098,-0.05632876,-0.06894855,-0.07787741,-0.121104725,0.0304982,0.021717753,-0.019593567,0.05628545,-0.17089814,0.08031666,0.31445837,0.14951777,0.14884979,0.05693193,0.03815545,-0.10804312,0.022085676,0.12568218,-0.15739901,0.01880845,0.12572053,0.14136115,-0.25277254,-0.1379923,-0.10175858,0.10400947,0.13366362,0.037841056,0.18133841,0.18417752,-0.017972523,-0.037032686,-0.12911986,0.081859626,-0.011755074,-0.055545513,-0.058007535,0.15175705,-0.02099736,-0.013961504,-0.103593096,-0.1690773,-0.094751425,0.06256833,-0.0138315065,0.26436186,0.03985028,0.03610148,0.008592419,0.06326621,0.09624231,0.032201998,0.0657742,0.02540051,0.021809146,0.058276486,0.09693527,0.01266288,0.19601421,0.015120659,-0.0806215,-0.15674639,0.16126207,0.10756188,-0.055938754,-0.13761137,-0.008098994,-0.038520224,-0.02191688,-0.13892706,0.07779701,0.039594706,0.006552365,-0.045927107,-0.10542743,0.1187793,0.040708486,0.12798607,0.029367419,-0.038964543,0.06464987,-0.06655689,0.06767043,0.03773939,-0.017596444,-0.11534296,-0.1033955,0.07060437,-0.11299722,-0.06116249,0.14259715,-0.23590015,0.02665415,-0.043627165,0.1418667,0.0057731764,0.060216215,-0.24222437,0.024916956,-0.049531844,0.015663696,0.045180555,0.05007387,0.017089026,-0.037588537,-0.042243976,-0.0088084815,0.055413064,-0.004078176,-0.08001984,0.019040124,-0.034595445,0.018998662,-0.09771433,-0.0147420205,0.12912205,-0.076878525,0.050195567,-0.010242269,0.15579452,-0.025357537,0.039703,0.120161675,0.110578515,0.02464398,0.009058756,0.123742186,0.033555683,-0.0047462313,0.009586093,0.04070981,-0.052675128,0.11306388,0.04189098,0.00094366627,-0.03809881,0.12710774,0.019155039,-0.10922617,0.014874102,-0.119379595,0.04783773,-0.05744657,0.029133758,0.03559097,-0.013647621,0.03998124,0.04180093,-0.11167875,-0.006734296,0.06603591,0.017402465,-0.058724593,0.0017262052,0.093602635,0.071883954,-0.08772171,0.095989205,-0.01218209,-0.085625425,0.124069065,0.100466825,0.017991494,0.042208754,-0.0084423255,-0.05437263,-0.07559671,-0.21841007,-0.068667755,-0.053939663,-0.08561979,0.0823556,0.016790135,0.34682873,-0.050142854,-0.05591931,0.025065262,-0.14412555,0.07876904,-0.16198243,0.08101379,0.10559032,0.13111144,0.13224159,0.024780551,0.004918708,-0.08296306,-0.07155382,-0.048276998,-0.039451264,-0.077867806,0.007462479,-0.055724222,-0.25134027,-0.112188146,-0.075808086,-0.09082665,0.04782164,-0.030881044,0.0648145,0.27394202,0.055706777,-0.012816369,0.28393033,-0.08172342,0.00848652,0.20005178,-0.11368644,0.03159218,0.112762176,-0.09977442,0.16289523,0.064152114,-0.25606737,0.14801347,-0.07803793,0.0593945,-0.007506976,0.13135633,-0.0015241565,0.05113112,0.02610355,-0.030559296,-0.027298668,-0.026016206,-0.12210974,-0.067558214,0.15199235,-0.012075815,0.000850349,-0.014978302,0.019533329,-0.051857267,0.07739029,0.08071045,-0.028282795,-0.023008423,0.10511017,0.020150132,-0.09651192,0.13121514,-0.1411906,0.1321579,0.054113623,-0.08864351,-0.019727428,0.05474229,-0.15046144,-0.14276192,-0.094095044,-0.015305035,-0.033722155,0.18115383,-0.24546714,0.1572423,-0.09332442,-0.01223151,0.014350583,0.031996384,-0.07583267,0.020064313,0.17724039,-0.14287965,0.013778478,0.0041744215,0.101284645,-0.059132494,-0.06779972,-0.046375208,0.1524213,-0.026759842,-0.052122843,0.024720816,-0.020371897,-0.081894174,0.14997461,0.0526595,0.0033252616,-0.07924133,-0.04583074,-0.04903118,-0.08865273,-0.09167923,0.016897608,-0.11594422,0.043399245,-0.05102517,0.015422794,-0.06409713,-0.24095595,-0.21870178,-0.058840893,0.015476851,-0.07494639,0.0011317192,-0.092431806,0.018382732,-0.0010982315,-0.20754825,0.052556023,-0.15788999,0.09349451,0.099821225,-0.071054235,-0.07344842,-0.012953506,0.027664417,0.060774162,0.054248113,0.029139902,0.008645692,0.0280478,0.036386907,-0.0069564614,0.19517337,-0.028165074,-0.017452963,0.21729286,0.1712498,-0.057682812,-0.14657274,0.03226825,0.019100083,0.07567411,-0.14718641,-0.008232176,0.030242553,-0.026767602,-0.04434226,0.09454047,-0.14375775,-0.023821868,-0.11107965,-0.028683206,-0.045591477,-0.002208254,-0.1385665,0.038835537,0.097479224,-0.043164175,0.08255512,0.0057502617,0.0163462,-0.014813568,-0.008542352,-0.12754345,0.006884804,-0.11481543,0.031983327,0.14321232,-0.049794853,-0.055573046
Acrocephalus_palustris,-0.04362824,-0.03229288,-0.0060587055,0.028814431,-0.08152966,-0.068612814,-0.098198205,-0.033474613,-0.16697727,0.021123402,-0.070548736,0.05370588,0.07548455,-0.22339569,0.03821665,-0.16009831,-0.06305981,0.09044605,0.11629509,-0.021920605,-0.039540213,0.013259696,0.027235936,0.16303678,0.026731104,0.044494305,-0.06990549,0.07421592,0.09874909,0.012637457,0.08198475,0.032616727,-0.09091247,0.104216084,0.02996904,-0.06863499,0.08926029,-0.00969949,-0.04216829,-0.0075552603,0.06668988,0.12906823,0.053442348,-0.06062145,0.0025404103,-0.08944195,0.012706739,-0.13185045,0.13753794,-0.023149138,0.02708532,-0.017164074,-0.028858911,0.12183645,0.1450347,-0.09129532,-0.1436341,0.03407998,0.20287403,-0.023532974,-0.14244117,-0.09814395,-0.059604302,0.12809528,-0.105511,-0.07786668,-0.04751941,-0.027770223,-0.063750096,0.06610954,-0.024168696,-0.06722345,-0.077221364,-0.009413848,-0.072501056,-0.006369329,0.028099075,-0.06580866,-0.0024610127,0.03456411,0.08994132,0.00025758753,-0.068219446,-0.051711045,-0.022555389,-0.1873537,0.009519435,-0.024156176,0.030039154,-0.07133645,0.12845653,-0.05871575,-0.01058689,0.05591402,-0.03987562,-0.0244638,-0.03877028,-0.03781873,0.09617213,0.02124804,0.19516492,0.07865165,-0.13949521,0.00088301906,-0.017874923,-0.18580003,0.21263301,-0.25071853,-3.6417972e-05,0.025530122,0.017212119,-0.011171611,0.041649528,0.028864978,0.0856426,-0.13266337,0.03380219,-0.09637913,-0.13659257,0.04824125,-0.06894028,0.044173926,-0.035255615,0.03831116,0.21811204,0.030752,-0.017791234,0.15530567,0.06374969,-0.12427677,-0.027399387,-0.0863066,0.10714589,-0.0254593,0.01502344,-0.120441176,0.057017107,-0.060654104,-0.118992284,0.043188393,0.017852545,-0.003987698,-0.18035913,-0.1084409,-0.02490618,-0.008842981,0.054513335,0.03220667,-0.009337951,-0.009972995,-0.108200125,0.17309114,0.0020071245,0.07268719,-0.15942831,-0.056007046,0.088721156,0.09626995,-0.03831189,-0.12079155,-0.06660881,0.033276483,-0.16791971,0.021030508,-0.10262,0.098480426,-0.2521786,-0.08069648,-0.08904893,-0.075739145,0.18952303,0.0757536,0.042311326,-0.05597589,0.107413925,0.20643076,0.21138233,0.08970462,0.25684634,0.079184674,-0.0067370497,0.21584421,-0.027140573,-0.060674984,-0.23487782,-0.016245611,0.28222972,-0.07321321,-0.01649712,0.012383834,-0.02158977,0.035466824,-0.052930545,-0.05749966,-0.05039029,-0.13425533,0.07266336,0.029305179,0.01885613,-0.010266857,-0.007474088,0.012341038,0.03796743,0.10682007,0.005957079,-0.089666806,0.15449892,-0.0028292402,0.071926564,0.085655674,0.17740566,0.013757439,0.05913589,0.061147977,0.07434191,0.15188716,-0.012118991,0.0012323689,-0.18288127,0.08484836,-0.015366839,-0.17990978,-0.13782506,-0.06850153,0.13044901,-0.061652057,0.042444125,-0.13751672,0.1747688,-0.015776157,-0.016215272,0.13902864,-0.050333753,0.14120601,0.12826969,0.14557716,0.13905708,0.09438654,0.08835394,0.058874168,0.035664666,0.06708191,0.0077851857,-0.09509637,0.025850428,-0.07016824,0.1422872,0.008769115,0.035822026,-0.14896122,0.025911177,0.13766116,-0.05710347,0.04024746,0.08879238,-0.19989899,0.14078254,-0.05865713,0.04216908,0.01348866,0.25374216,0.059743002,0.06743838,-0.031299796,-0.014655871,-0.080019586,0.046308335,-0.20619024,0.019409277,0.012692836,0.01294786,-0.0017595943,-0.22036184,-0.071918406,0.12075072,0.03443343,-0.046539593,0.094036356,-0.06085575,-0.03229992,-0.13892178,-0.30878797,-0.04742009,0.009510245,0.01107658,-0.071013644,-0.13825123,-0.16008288,-0.093134426,-0.07460683,-0.023322493,-0.00036167353,0.029257815,0.10089174,0.031779647,0.03974551,0.07643779,-0.10574594,0.059581466,-0.009850048,-0.10043669,-0.12100568,-0.06370202,0.06370209,0.010245774,-0.016405344,-0.01398088,-0.11448687,0.011827396,0.124924794,0.10757229,-0.07630051,-0.016895877,0.29079905,0.03739086,0.14373007,-0.06137233,-0.12160245,0.08862738,0.02580081,-0.0024675154,-0.022567295,0.025160803,0.025820635,-0.07037279,0.02281518,0.12883784,-0.079512596,0.19223255,-0.0014459067,0.0073217424,0.02754176,-0.030298222,0.01371426,0.021780442,0.07554651,-0.03858317,0.12918895,-0.048302572,0.14664403,0.055933464,0.16967455,0.10204494,-0.026475752,-0.08882422,0.1812788,-0.0370667,0.020863364,0.102448806,0.06434663,0.03107615,-0.08981316,0.0046834922,-0.10737228,-0.049019806,0.050331883,0.05399581,0.08893998,0.1128688,0.10700384,0.12925199,-0.16627142,0.13133287,0.16943948,0.12262683,-0.043267585,0.015221846,-0.0556982,0.06427818,0.15137763,0.08083638,-0.061623994,-0.04682986,0.0045427997,-0.03598996,0.06238658,0.102239445,-0.1791016,0.1300303,-0.045047358,-0.08761904,0.105630964,-0.032647647,-0.033881135,0.019799115,-0.0049274517,0.0019781687,-0.027592711,-0.105536096,0.019556945,0.027457613,-0.10381022,0.08608661,-0.1245883,0.06487779,0.016686631,-0.105112165,0.00983677,0.06942983,-0.061706938,0.077014774,-0.106657505,-0.06650911,0.043072402,-0.0071049198,0.23107561,-0.012967274,0.0027888454,-0.11723351,-0.07895031,-0.05601209,-0.19958185,-0.028399952,0.16487738,-0.1850952,0.05986789,0.075981915,0.08791819,-0.051914923,-0.056755684,-0.057544723,-0.074083775,0.050877452,-0.06106511,-0.21112752,-0.026901592,0.19603735,0.10648913,0.19463585,0.04893733,0.048342265,-0.088706896,-0.006480368,0.050012715,-0.23466115,-0.16478163,0.072480634,0.12381862,-0.20607603,-0.026710963,-0.06934929,0.11940138,0.05221328,-0.013546331,0.16747123,0.13579954,-0.070215836,-0.09434146,0.04531352,0.034969103,0.028170032,0.027156798,-0.23330034,0.10612716,-0.011734372,0.030205835,0.10739413,-0.34388524,-0.114687905,0.091213696,-0.017920367,0.25863814,-0.02197509,-0.03274478,0.11883932,0.0018127694,-0.005035066,0.16166604,0.03971035,0.03371736,-0.09353317,0.010131786,0.057471223,-0.041019846,0.038564194,0.09210588,-0.02897671,0.083667934,-0.04915159,0.16210239,-0.07845189,-0.23129894,0.0015551785,-0.025489662,-0.023070978,-0.21899226,0.053819384,0.032661557,0.030075893,0.020127544,-0.04790435,-0.0046082567,0.05036971,-0.03174132,-0.023736697,-0.09269895,0.0064653894,-0.024715424,-0.058452297,-0.25319383,0.046682764,-0.13914096,-0.100269645,0.048305705,-0.093957625,0.0017435184,0.20082036,-0.1532998,0.11556198,-0.015820015,0.039694257,0.07447491,-0.11948642,-0.18510649,-0.0929983,-0.088201955,0.05080104,-0.106748655,0.034718394,-0.031671617,-0.028374676,-0.009787941,-0.07904908,0.017955901,0.037412554,-0.1202775,0.042471636,-0.089771114,-0.004126573,-0.0815915,-0.030898225,0.1079914,0.0648059,-0.014642453,-0.015415476,-0.010290498,-0.08983542,0.1323672,0.12916349,0.059535112,-0.06833692,0.08938913,0.2948537,-0.0030006315,0.086526416,-0.14553705,-0.04131042,0.10350868,0.10061586,0.14851291,0.047345478,0.008576068,0.009999543,-0.029325765,-0.111914955,-0.029816743,-0.1326549,0.024678424,-0.022097826,-0.27672377,0.05472903,-0.009957962,0.0055638123,-0.013184205,-0.023232747,-0.024525281,0.047839224,0.02098241,-0.06433715,0.023909265,0.03524471,0.006661957,-0.08777781,0.09067507,-0.036329143,-0.087237954,0.037574496,-0.02185087,0.009716701,0.056868494,-0.078229554,0.0802045,-0.02500853,-0.11876331,-0.01638212,-0.094313,-0.07507951,0.046273448,0.04399845,0.23576283,0.0041794386,-0.055174522,0.060314357,-0.04352501,-0.0012525911,-0.17262699,0.14482468,0.1598088,0.2761081,0.06697321,0.03595881,-0.05007842,-0.082767546,-0.06639873,-0.13701333,-0.11806168,-0.12699969,-0.0022011953,0.015196953,-0.2712653,-0.13878357,-0.019778552,-0.10069644,0.17940974,-0.12552315,0.042857815,0.2576301,0.08531229,-0.018932201,0.07529147,-0.0073483763,0.16321357,0.32920542,-0.10863359,-0.009657354,0.11385421,-0.02189017,0.18232729,0.095366254,-0.22331405,0.0987092,0.014409695,0.2309064,0.012740543,0.05740031,-0.06938954,0.08903362,0.017249046,0.008854177,-0.024044968,-0.00065038307,-0.014745952,-0.021250878,0.16740514,-0.06651316,-0.03834541,-0.0056214337,-0.08902447,0.00974852,0.19934085,0.059799008,-0.06574375,-0.051756408,0.11213376,-0.038942754,-0.1381552,0.013143869,-0.068202235,0.05019497,-0.04238888,-0.088409215,-0.02017186,0.0891807,-0.098217376,-0.15130691,-0.12036294,-0.077081986,-0.04079786,-0.07939726,-0.09560219,0.20914413,-0.105494,0.070298895,0.0080161,0.017698118,-0.18726957,-0.04547195,0.19399247,-0.16454715,0.071946636,0.0016076653,0.062516674,0.06959503,0.14084497,0.0144884195,0.09939058,0.033914898,0.055934258,0.04853358,-0.02790402,-0.07251082,0.118258625,0.12933451,-0.0012129401,-0.06116542,-0.09595708,-0.16165574,-0.106026135,-0.17798091,0.10896486,-0.040631384,0.027882526,0.076961,-0.12055037,-0.0007264195,-0.23667383,-0.1142939,-0.061212044,-0.11434451,-0.06475087,0.05160876,-0.036338694,-0.033810697,-0.014793757,-0.019009534,-0.07051077,-0.109199725,0.015760224,0.048072033,-0.1944915,-0.16200659,-0.0292098,0.031801276,-0.0064108213,0.15341942,0.052425846,-0.086016856,0.06015835,0.05199532,-0.09280407,0.15674248,0.019309662,0.159629,0.09668944,0.18588369,-0.006818917,-0.0015133461,-0.02906004,0.07105806,0.04952827,0.012598248,-0.027330587,0.024201212,0.004270941,-0.04306818,0.10521473,-0.09321977,0.009259207,0.013509583,-0.08029069,-0.060247097,-0.017897798,-0.05821243,0.009911376,-0.07298137,-0.16363168,-0.019159434,0.052640103,-0.04289808,0.015520582,0.050520334,-0.0712081,0.055253543,0.10791033,0.027103227,0.052693605,0.0063226093,-0.09927005
Acrocephalus_scirpaceus,0.059420228,-0.5583937,-0.007199475,0.008182809,-0.015796471,-0.016576154,-0.1520156,-0.015387653,-0.10547747,0.08038058,-0.06778408,-0.018309327,-0.0037981342,-0.10529785,-0.029113641,-0.20781732,-0.07508694,0.006874498,0.06722719,0.04120232,0.09001447,-0.012327075,0.024416309,0.06689725,0.014589081,-0.046267163,0.016445098,-0.02227313,0.03539042,0.07018277,0.09955763,0.0980448,-0.09342483,0.09312168,0.062944315,-0.0017875768,0.06342054,-0.019905187,-0.17048712,0.0343374,0.14306489,-0.061813742,-0.008244467,-0.04858616,-0.016654788,0.013485012,0.05410786,-0.13870516,-0.014693566,-0.013794054,0.042154517,0.18172729,-0.33685994,0.08059864,0.22953741,-0.10994135,-0.13712122,-0.053789645,0.21770729,-0.029319217,-0.19265567,-0.017123146,-0.03497611,0.058626976,-0.044223465,-0.06065651,-0.16233788,0.020870198,-0.044592842,0.094652504,-0.010663302,-0.072189175,-0.04376023,0.1265943,-0.06409837,-0.17001645,-0.037080362,-0.10796317,-0.010219206,-0.07066991,-0.11495066,0.0068749813,-0.14265068,0.015176702,-0.08431549,-0.082349,-0.0066275443,-0.09752987,0.055312812,-0.12307243,0.18547554,-0.011254731,-0.10843229,-0.041237477,-0.022639368,-0.042798657,-0.04919184,0.06638558,0.092783466,0.07696286,0.22739226,0.044675115,-0.1104034,0.050354797,-0.09819654,-0.060922503,0.077636234,-0.023985336,0.0673549,-0.041044466,0.067696944,-0.044420313,0.012700375,-0.11466707,0.093812935,-0.090001896,-0.06622618,0.07865147,-0.009740755,-0.006919089,0.08190356,0.07325289,-0.03390264,0.055172242,0.07536739,0.21987376,-0.12492759,0.09344304,0.10928111,-0.060846522,-0.013857932,-0.04700869,0.014533058,-0.074832715,0.040146325,-0.09005923,0.03103334,-0.08673065,0.2162336,0.059494585,0.027100421,-0.021346468,-0.05955376,-0.118931696,-0.08241898,0.008947429,0.088825986,-0.016735056,-0.009533367,0.0023657135,-0.13775975,0.14747933,-0.086956024,0.02508807,-0.043708496,-0.08255226,-0.11664605,-0.0507467,0.0345447,-0.11263723,-0.0099277925,-0.024172226,-0.13536128,0.034200415,-0.062686495,0.020364087,-0.19236758,0.03090176,-0.05939392,0.009033652,0.19875033,0.22737357,0.05110136,0.053515714,0.022388002,0.021844735,0.1432882,-0.23288555,0.17120144,0.18799049,-0.1440739,0.24598241,0.025313668,0.056312766,-0.21555075,-0.03800332,0.21242051,-0.07392263,-0.12180643,0.0188699,0.04904656,0.083189465,0.08521738,-0.078459084,-0.00094665796,-0.079905644,0.007834552,-0.1755907,0.083845906,0.026863253,0.06730597,-0.11888306,0.022161148,0.17018831,-0.0704823,0.034036852,0.10067462,0.012007967,0.1560604,0.114422806,0.06843242,-0.020587152,-0.015196458,0.017254382,0.10988478,0.16791633,-0.0035897628,-0.021066837,-0.16878673,0.059656993,0.05084366,0.033823904,-0.023383856,-0.10551672,0.12703991,-0.13432164,0.012565064,0.065094955,-0.02381207,-0.00029129768,-0.029511824,0.10883659,-0.019443197,0.17022659,0.08492562,0.13526057,0.111708306,-0.09141481,0.07474829,0.018209796,-0.11992612,-0.07046769,-0.010350857,-0.06471728,0.13022064,-0.024604192,-0.029289959,-0.0870386,0.062384762,-0.09653223,0.06922668,0.13506283,-0.087837644,0.009360672,0.014750451,-0.094156906,-0.08856386,-0.10704096,-0.013406246,-0.11170831,0.19819403,0.059701204,0.039951913,-0.12165294,0.07766798,-0.027455473,-0.01177801,-0.030719778,0.015221739,0.010988297,-0.05274883,-0.017585319,-0.09166673,-0.024004836,0.013165234,0.0026875038,-0.19311881,0.21729483,-0.03627177,0.036357533,0.049599107,-0.24350214,0.010230756,0.070277214,0.057773374,-0.042833045,-0.14736135,-0.14143394,-0.03983628,0.048565112,0.1343372,0.038421974,0.01693922,0.014455018,0.05904599,0.04979322,0.02960963,-0.07685214,0.019489074,-0.13974848,-0.007882752,-0.20102961,0.03511295,0.06951055,-0.11183737,-0.067655616,0.068604074,-0.28987077,0.098353036,0.17196843,0.044745073,-0.009214492,-0.066504866,-0.05626574,-0.046066742,0.11894046,-0.06301538,0.016203154,0.12592025,0.10888779,-0.06800138,0.101653025,0.050169848,-0.006710395,-0.08976368,-0.03253765,0.09013074,-0.1272194,0.0759007,-0.14430216,-0.04391439,0.15855351,-0.023192894,-0.03899524,-0.051498953,-0.057052746,0.060386647,0.16543287,0.03619636,-0.015318669,0.033683624,0.092551775,0.11175504,-0.09326363,0.0051619494,0.034128435,0.1150197,0.032069903,0.24336597,0.09052779,-0.10823421,-0.12379351,-0.011908873,-0.113842994,-0.006128585,0.08023116,0.046029292,0.043159634,0.08766131,0.03393113,0.21642628,-0.031004557,0.10707027,0.052878477,0.105309375,-0.12228933,-0.08437519,0.13734928,0.06943532,0.043873064,-0.014980694,-0.040786177,-0.10265406,-0.007854553,-0.08539041,0.15299211,0.08010693,0.008812277,0.31797415,-0.018189821,0.0015209627,-0.20635766,0.011186883,-0.03977401,0.029199997,-0.019247489,-0.10310141,-0.0051336777,-0.11611451,0.009496426,0.029872704,-0.0024346034,0.03546952,0.033672895,0.06569114,0.29667455,0.090592615,0.061545163,-0.0694439,-0.08701399,0.17181087,-0.12142578,-0.113345705,0.060969844,0.006233717,0.1585547,-0.19121997,0.06952548,-0.04671938,-0.11489661,-0.048207227,-0.051709507,0.103419885,0.08487013,-0.22348002,0.1051618,-0.07582755,0.052366056,-0.07767618,-0.07148129,0.12903197,0.0069761295,0.15104496,-0.014245223,-0.13521054,0.0077987085,0.19010687,0.13258958,0.17336711,0.060051348,-0.0023978928,-0.010298725,0.01844497,-0.09220063,-0.21032198,-0.12695996,0.009770079,-0.07808132,-0.0011175799,-0.087440446,-0.11544951,0.11208967,0.019046273,-0.07321382,0.1974178,0.058751713,0.10263765,-0.17947981,-0.027368434,0.088261165,0.0748878,-0.16438928,-0.10535069,-0.07147349,-0.104401276,0.023210835,-0.028300595,-0.27014402,-0.07697195,0.029784413,-0.19581844,0.18506302,0.046882804,-0.042135257,0.054856423,0.122570746,-0.06464909,-0.12768836,0.103163496,0.094334066,-0.19913311,0.008141653,0.08680673,-0.07311258,0.03893943,-0.008329608,-0.01682786,-0.2532828,0.06486685,0.10036222,-0.14158848,-0.015319345,0.018356875,0.1870295,-0.040383168,-0.20131092,0.05023549,-0.022358943,-0.014068037,-0.08827879,0.015915371,0.02177951,-0.01476768,-0.061134152,-0.07026446,-0.14927705,-0.05716565,0.011619076,0.0014797531,0.12070832,0.12309046,-0.08771296,0.0056541506,0.11815626,-0.043324914,0.037274055,0.12261561,-0.12347237,0.119794495,0.0021629597,0.103509985,0.00015979819,0.01978758,0.017860433,-0.019158687,-0.23734856,0.032627475,-0.064421564,0.06630941,-0.037205014,-0.0134200575,-0.017954683,-0.0861709,0.10090202,-0.0188776,0.039383575,-0.016212132,-0.057955403,-0.11845004,-0.038741283,-0.10405645,0.0004965244,0.08424884,-0.09344912,-0.09310977,0.14113525,-0.11691806,-0.06930802,0.07282322,0.0407127,-0.05596549,0.094302416,0.4000836,0.05050397,0.07302853,-0.11712549,0.1143386,-0.042439528,0.08638406,0.15302183,0.027266387,0.024041995,0.15653445,-0.040977173,0.101811685,-0.07421515,-0.08526978,0.048551083,-0.03194209,-0.07486061,0.066307314,0.08724995,-0.026213929,0.025057033,-0.06222052,-0.05235547,0.029080335,0.05382753,0.088053994,0.026695047,0.044002645,0.072280735,-0.06605779,0.119717464,-0.0392845,-0.013680766,0.07765833,-0.05609574,0.041640606,-0.23526745,-0.008082542,0.03613703,0.004363668,-0.06351138,0.089790665,-0.014371967,-0.07805355,0.12216942,-0.03424865,0.2626444,0.0011476681,0.11040005,-0.08762006,-0.049103577,-0.074717686,-0.027546354,-0.029096417,0.081550345,0.12227252,0.019138576,-0.030882632,0.0740093,-0.045219477,-0.092066854,-0.018294033,-0.22109681,-0.086899936,0.09260228,0.043469343,-0.3667744,-0.16192295,0.06183707,-0.09779824,-0.025076957,-0.26838818,-0.007992953,0.1767444,0.10233342,-0.052334774,0.06775777,-0.068884484,0.06066252,0.14044102,0.002446259,0.06836457,0.13857007,0.05820099,0.14815755,0.03417575,-0.053273086,0.20970394,-0.06906249,0.07217282,-0.008940421,0.09354309,0.10048023,0.078304976,-0.040009934,-0.22245027,-0.08444896,0.04367172,0.031937506,-0.04418747,0.038468607,-0.009451892,-0.0038236186,0.075492986,-0.05437875,0.054353725,0.17499243,0.14460409,-0.12783207,-0.1371877,0.12189859,-0.07961287,-0.04190517,0.13846025,-0.117848635,0.033108123,-0.09837029,-0.009898176,-0.004286149,0.17962998,-0.10576661,-0.2064537,-0.06269029,-0.021062866,0.04371214,0.0932296,-0.13211395,0.11212585,-0.11339059,-0.0015489755,0.1336727,0.00342219,-0.26080546,-0.049941625,0.1922049,-0.010629458,0.04069456,-0.073426954,0.116347864,0.057861403,0.19966839,0.08210743,-0.017633855,-0.0031936895,0.086184345,0.042686913,0.0009493306,0.09029032,0.17658049,0.12742774,-0.021676917,-0.16809031,-0.12887904,0.012201725,-0.11576794,-0.1043557,0.0359644,-0.0737243,0.010321942,0.006760737,-0.038110845,-0.10339086,-0.13622075,0.01263253,0.026815677,-0.1291717,-0.15643701,0.10184579,0.04555827,-0.10390313,-0.067379735,0.00022450951,-0.034994863,-0.114105605,0.23697059,0.076663785,-0.14026234,-0.118599705,-0.02058308,0.17850004,0.039096545,0.08851646,0.19361538,-0.005544003,0.06270495,-0.06973555,0.113985956,0.0790599,-0.022558533,-0.005236683,0.101907596,0.058143258,0.11155277,0.085222594,0.010274242,-0.02257898,0.110429294,-0.07262636,0.013076277,0.022998707,0.039454203,-0.08973856,0.092100576,-0.13793847,0.030841034,-0.038469788,-0.04844345,0.035937548,0.037111178,-0.0997122,0.0063861534,-0.047063544,-0.049236383,-0.05360052,0.0777602,-0.0089384755,0.056429353,-0.0897602,0.008420432,0.034642722,0.29087687,-0.03991592,0.050824896,-0.09889622,-0.08188794
Aegithalos_caudatus,0.0033912193,-0.5279752,-0.00794341,0.05153258,0.046456054,0.0048460667,-0.17064258,-0.019593012,-0.1365285,0.24823269,-0.13124458,-0.016157672,0.007946245,-0.069038235,0.024610661,-0.08326734,0.07971717,0.009695928,0.063087076,-0.0073156436,0.09100053,0.010771177,0.041743588,0.09881802,0.04682251,0.021785825,-0.026493201,0.06628427,0.077549286,0.027375672,0.12335321,0.051619396,-0.0884545,0.09862815,0.05926774,0.07006118,0.02140126,0.0059221205,-0.064666934,-0.06667784,0.25373563,0.045035716,0.013339558,0.041706666,-0.03935516,-0.19946593,0.012977689,0.06758523,0.054143738,-0.09550365,0.032627992,0.15104625,-0.2008721,0.082493536,0.46133474,-0.18972664,-0.14648429,-0.16053061,0.34208432,0.015086039,-0.082811214,-0.16129386,-0.09204807,0.05083118,-0.18327484,-0.13015497,-0.10419919,-0.040601127,-0.096750416,0.07351374,-0.06356051,-0.034055516,-0.013647959,0.02505105,-0.13014577,-0.021597032,-0.02203835,-0.12633167,-0.023600442,-0.07066088,-0.020123554,0.061126664,-0.039437216,-0.022193896,-0.027506152,0.07222265,0.06273178,-0.014585649,0.10881027,-0.14831002,0.24726287,0.014139941,0.0019229138,-0.100235365,0.019548876,0.027804196,0.010584183,-0.02776498,0.10906674,0.017554078,0.009519427,-0.0033163836,-0.036573697,0.06719613,0.0023054401,-0.27181008,-0.009998235,-0.032727797,-0.005795515,-0.08540893,0.06066106,-0.057927255,0.08240448,-0.04305534,-0.035187583,-0.12018117,-0.14122249,0.10515935,0.0040007234,-0.044875145,-0.13839535,0.08818017,-0.02421283,0.02496517,0.20794968,0.19251454,-0.11598504,0.060957305,-0.0049382653,0.010088417,-0.048081007,-0.011872788,-0.016400285,-0.009921334,-0.0030924242,0.008582988,-0.05750855,-0.07152334,0.0973093,-0.0008323753,0.003316326,0.046369657,-0.026348893,-0.014105748,0.02852281,0.022312772,-0.010649314,-0.00648583,0.036773708,0.060135026,-0.090425305,0.1889818,-0.08267609,0.061020944,-0.135294,-0.031699736,0.07213886,-0.025714397,0.0054824287,-0.2338795,-0.0074118976,-0.0027988798,-0.055048864,0.10705896,-0.058075484,0.08528314,-0.08604709,-0.091989435,0.073136024,-0.19246686,0.16985127,0.07064116,-0.021906575,0.011818205,0.05349289,0.108026534,-0.016777245,-0.12440926,0.068852484,-0.10279952,-0.26044402,0.23169675,0.051996596,0.005083451,-0.0700497,-0.013605656,0.16863912,-0.04297463,-0.0955652,0.06078935,-0.034504518,-0.024278305,0.01951279,-0.040269833,-0.049602892,-0.00886729,0.045770634,-0.013644516,0.093239106,-0.004193878,0.048722606,-0.18579908,0.04608287,0.29482174,-0.040562484,-0.005343077,0.063373,-0.092557006,0.12160687,0.2068561,0.006582492,-0.0048612044,-0.059058063,0.03275803,0.020182526,0.13312386,0.027173927,0.024461465,-0.091442905,0.04686222,0.03371185,-0.20187558,0.041066602,-0.11282589,0.053010233,0.03294225,0.04082412,-0.0845933,-0.021230329,0.027150828,-0.063244335,0.042020425,0.051335774,0.10256276,0.2904391,0.08823244,0.22952624,0.20453902,0.019494843,0.19129366,-0.15157971,-0.019924745,-0.015902238,-0.031993624,0.08216012,-0.05025675,0.0058150473,-0.02898603,0.0011983726,-0.018946685,0.1312858,0.16309777,-0.06276516,0.0062699826,0.010074162,0.02700049,0.09138958,-0.03288628,-0.054598592,-0.110285014,0.25834444,0.029299308,0.052693486,-0.13122623,0.08300312,-0.054072965,-0.010794473,0.008651903,-0.016446153,0.0133927865,-0.047648553,-0.021287123,-0.086040884,-0.04845134,-0.02923826,0.095697835,-0.01091927,0.16760772,0.008600148,0.093829095,-0.05579795,-0.2937753,-0.011125991,0.07126998,0.013516252,-0.17031004,-0.07449682,-0.16365889,-0.0480507,-0.048075013,-0.0004600543,-0.023406649,0.06399628,-0.00056945026,0.050382096,0.12761958,0.22954217,0.010416517,0.0068631847,-0.04647992,-0.051815227,-0.1882958,0.0026536598,0.063733324,-0.12765147,-0.14197834,0.014493614,-0.14626919,0.100781776,0.21162349,0.07653504,0.08097641,0.00435304,-0.1374877,-0.018736878,0.024545787,0.08109549,-0.051381823,0.056203354,0.10891069,-0.020144476,0.05938074,0.05631286,0.035952333,-0.13688579,0.0035072803,-0.020741254,-0.061948694,0.014175609,-0.1251451,-0.037338644,0.12496376,-0.036930926,-0.039977342,-0.22659835,-0.07214535,-0.014514404,0.22397678,-0.049317047,0.014354359,-0.012338091,-0.025698554,0.12789382,-0.18455319,0.04913985,0.057222776,-0.029025305,0.041947503,0.19201037,0.107944,-0.044122905,-0.15382081,0.01140036,-0.08289561,0.02400691,0.01438084,0.03720625,0.09657048,-0.0003943756,0.036005724,-0.01978081,0.0070696506,0.16095686,-0.032004673,0.026373722,-0.08381809,-0.021993611,0.010256763,-0.02749467,0.08483797,0.027290365,-0.12180928,-0.06854673,-0.027052348,-0.045025796,0.06414025,0.05582891,-0.026162932,0.25871426,-0.016765228,-0.08208994,-0.0714667,-0.06434479,-0.050078183,0.014291228,0.00827353,-0.031131113,-0.0042502433,-0.26205906,0.022067491,0.09480011,0.06261342,0.011862507,0.16067065,0.113342635,0.17467152,0.088110276,0.02208568,-0.044934582,0.044418022,0.070012264,0.004984667,-0.054748513,0.048868094,-0.019574247,0.23339473,-0.09832464,0.017195094,-0.09009606,-0.05826921,-0.030881498,-0.14447296,0.0137218805,0.011114992,-0.2507082,0.03689285,-0.0073010176,-0.012806746,-0.06871878,-0.06677359,-0.0727574,-0.05495954,0.069255196,0.03694401,-0.22127739,-0.089831956,0.2573945,0.22507942,0.0781852,0.010454877,-0.026502935,0.09308042,-0.009926899,-0.0097743105,-0.13320465,-0.17775515,-0.027947752,0.10797567,-0.0808373,-0.0120848,-0.06546276,0.09162832,-0.0041974536,-0.019552356,0.22800097,-0.029493973,0.090131894,-0.124033324,-0.16858979,0.15246458,-0.015825795,0.0030210044,-0.0923087,-0.07054567,0.07632858,0.015769338,0.10599668,-0.23013349,-0.0544396,0.1578214,-0.07969429,0.29815757,-0.0814372,-0.08587582,0.020894857,0.013778955,0.09638964,-0.034438517,0.0456598,0.039535113,0.04801306,-0.06320789,0.114845544,-0.054275747,0.06747281,-0.011422451,-0.14820072,-0.2814134,-0.10429704,0.09101181,-0.013900635,0.00050719257,-0.035583813,0.009713268,0.04598742,-0.13556738,0.11370575,0.08410775,-0.02592884,-0.12209581,-0.005633911,-0.06185245,-0.011335219,0.078634895,0.01383447,-0.008106534,-0.024926009,-0.033224594,-0.03528991,-0.28406093,0.00925925,-0.1104287,0.020280655,0.10908773,-0.023989595,0.049849603,0.1765055,-0.045793902,0.059116907,-0.08674757,0.20730242,0.098578095,-0.03903047,-0.0057324325,0.038079,-0.05844272,0.0058973753,0.07995422,0.12316954,-0.0526026,-0.024831273,-0.0068191495,0.032402385,-0.019404091,-0.006493579,0.039545707,0.0077723423,-0.13497543,-0.0991048,-0.040540446,0.05018872,-0.02414973,0.14337999,-0.0123276245,-0.034818325,0.16536045,-0.09507872,-0.05158729,-0.010827418,0.083938144,-0.13770184,0.0034418488,0.33806676,0.008090984,0.109264515,-0.0901272,0.12241451,0.065899044,-0.036776755,0.118969254,0.039050695,-0.0404882,0.09362564,-0.0038293556,-0.036307015,-0.067126736,-0.10204372,-0.07100246,0.0014366319,-0.17541002,-0.09636042,-0.024846729,-0.04206551,0.04514901,-0.0743239,-0.06321846,0.03751594,0.10159278,0.067632474,-0.0015240388,0.11156756,-0.15818998,0.04776583,0.0411444,0.016441798,-0.030370349,0.1288958,-0.10952423,0.10683259,-0.19479991,-0.0617773,0.06712176,-0.049579017,-0.07731021,0.16525602,-0.08154775,0.0046397727,0.10909581,-0.015397221,0.21100631,0.05300195,0.21756522,-0.05146029,-0.09780712,0.03337805,-0.073900394,0.08617248,0.1914929,0.18250674,0.04856006,-0.07304384,-0.03929423,-0.007790428,-0.038283598,-0.04297599,0.03597713,-0.030812833,0.0804612,0.034934353,-0.22117583,-0.10413208,-0.007088334,-0.0755695,0.03802032,-0.2991122,0.012899653,-0.031199938,0.0860218,0.039092824,-0.00067020697,-0.0707029,0.05707015,0.030228661,0.06967057,-0.009264523,0.1046224,-0.046044227,0.27951494,0.024555637,-0.026758568,0.065143034,-0.02778208,-0.03747588,0.0004336289,0.16840999,0.06567778,0.14965075,-0.05495757,-0.18344747,-0.019718437,0.10496159,0.17473942,-0.016169883,-0.11904444,0.0063371626,0.0071497615,0.01920733,0.06075533,0.06887781,0.07625326,0.042224415,-0.096382275,-0.084408514,0.06972631,-0.07526442,-0.12942687,0.12062125,-0.07690703,-0.029825045,-0.002481116,0.02648496,0.07444453,-0.025762489,-0.11097473,-0.20855267,-0.056893226,0.03340026,0.046966746,0.02152951,-0.057054058,0.1768454,-0.0685136,-0.061361626,-0.16581306,0.11794829,-0.018879706,0.0077234306,0.09710243,-0.14538613,0.056707572,-0.071297385,0.13607025,-0.106411695,0.12268998,-0.0042250184,-0.10863746,0.016035782,0.0104607325,0.036728047,-0.040112507,0.119680494,0.15325175,0.34069067,0.013894115,-0.05278878,-0.08087393,-0.0046980535,-0.03475754,-0.22805357,0.013980501,-0.0243424,0.023851674,0.15951607,-0.17977624,-0.05691374,-0.16327696,0.016837932,-0.002504572,-0.0682718,-0.09745615,0.014202261,0.035073537,-0.058900565,-0.05141615,-0.16577426,0.0035264953,-0.13447504,0.03259849,0.09666012,-0.21593808,-0.10890976,-0.057035025,0.11139066,-0.03892232,0.117484964,0.15414926,-0.050609257,0.023137439,-0.14662008,-0.1117888,0.047219276,-0.027778115,0.03269856,0.13077971,-0.045594532,0.023550339,0.20418432,0.032870755,-0.07330339,0.205231,-0.07655399,-0.017173305,-0.041455653,0.03511624,-0.05005003,0.0048751896,-0.01934331,0.062914364,0.035665408,-0.0021227046,-0.105417885,-0.008090561,-0.13866432,-0.044893306,0.06716511,-0.14232084,-0.119458854,0.06558547,-0.08632772,0.016089302,-0.06422902,-0.034816705,0.11977806,0.1579439,0.07851349,0.11538844,0.057640616,-0.023453142
Alauda_arvensis,-0.040414527,-0.3171384,-0.0074733193,0.06675937,0.067032084,-0.045401998,-0.2219727,-0.08056391,-0.13911629,0.1357727,0.048776142,-0.0131248655,0.046273295,-0.12565747,0.018241217,-0.23485345,-0.0144805135,-0.015208712,0.21585296,0.017513482,0.05183217,0.06458967,-0.011874169,0.16497463,0.0064860955,-0.018902065,-0.066036284,-0.035871796,0.05449629,-0.05207751,0.0718963,0.020852111,-0.030033177,0.07948833,0.06376832,-0.04435578,0.036321253,0.016140472,-0.07434101,-0.017042508,0.21967302,0.024820913,0.07179184,-0.08836543,0.051837362,-0.18184428,0.09943491,-0.041268338,0.062492225,0.047886092,0.0022110876,0.15697742,-0.2361474,0.13100974,0.365289,-0.22140376,-0.059161466,-0.22366838,0.18253632,-0.07761568,-0.094012566,-0.2550494,-0.04365523,0.09644367,-0.1854327,-0.015066544,-0.07040978,-0.05421328,-0.12041813,0.054254945,0.025020078,-0.12638982,0.0037487969,0.06537371,-0.10909283,-0.2531847,0.05748778,0.028749155,-0.042255618,-0.120452665,-0.013241564,0.11413255,-0.08778435,-0.0057010693,-0.06322256,-0.032814935,0.105521634,-0.038583994,0.12960574,-0.035268158,0.12022643,-0.0077405805,-0.03290295,-0.036514465,-0.03335027,0.06113652,-0.083862856,0.067630574,0.0062686545,0.104116604,0.14268053,0.036295947,0.045075834,-0.0063996464,0.020786641,-0.12294123,0.16494107,-0.08127688,-0.011279544,-0.05257825,0.078631155,-0.027208256,0.08804024,-0.05167349,0.0937328,-0.11929635,-0.20233233,-0.011056496,-0.006754397,0.016625129,0.10361126,-0.026232842,-0.08270193,0.039229613,0.14315498,0.20552695,-0.074249275,0.020460004,-0.009140051,0.038498316,-0.039933983,-0.07415417,0.008998484,0.01826339,0.041882347,-0.13551739,0.06744236,0.014883405,-0.021081788,0.02125439,-0.03816252,0.0016823672,-0.1811636,-0.0836145,-0.068025194,-0.0373845,-0.027990744,0.07248883,-0.06769129,0.0370118,-0.111154065,0.13075578,0.013671403,0.11539373,-0.08101127,-0.10803774,-0.0057620145,-0.08328618,-0.012445472,-0.28763166,0.060914088,-0.09643753,0.0047568046,0.09735735,-0.118281394,-0.017772123,-0.07321268,-0.08783662,-0.005252967,-0.1929048,0.2220139,0.16168231,0.052815862,-0.1602921,-0.013000391,0.14009434,-0.06067393,-0.071634084,0.09690955,0.15762064,-0.10055741,0.07068386,0.02930153,0.05641986,-0.12052046,-0.022610283,0.20803842,-0.07824242,-0.07138069,0.0076627815,0.056328896,0.07129958,-0.12296018,-0.023141071,-0.08144548,-0.07944513,-0.09151533,-0.024096541,0.078632765,-0.024935624,0.046137333,-0.042813223,0.06899918,0.25069782,-0.09954187,-0.056603745,0.10853036,-0.04759617,0.06084129,0.07430406,0.023201443,-0.0033254346,0.09394937,0.06464882,-0.03634673,0.05817931,-0.038939975,0.023003174,-0.12369215,0.023622025,-0.03146095,-0.09160015,-0.019359956,-0.14060102,-0.05379777,-0.03364876,0.036983643,-0.077317566,0.022170741,0.046714768,0.068085715,0.1686043,-0.009923426,0.11738992,0.14853564,0.09629822,0.15152375,0.26580915,0.061596304,0.18589208,-0.04681576,-0.12079181,-0.10410038,-0.04822276,0.056417413,-0.02631339,0.13658409,0.025184466,0.029216602,-0.10041818,0.06632424,0.1162411,-0.11980408,-0.016888069,0.11778188,-0.046042345,0.217838,-0.017792089,-0.09821093,-0.19672886,0.3007074,-0.01962994,-0.07764821,-0.03214523,0.03633678,-0.09384315,-0.0023133606,-0.162729,-0.019748254,0.046751436,-0.00333094,0.05666987,-0.18580604,-0.075643614,-0.02102516,0.12073397,-0.26105243,0.123645656,-0.032373134,0.011112501,-0.06744799,-0.3379287,-0.011223344,0.08352072,0.023922369,-0.06519536,-0.13849057,-0.09289998,-0.16689046,-0.0031197136,0.043749407,-0.02656174,0.09112952,-0.03437892,0.021973535,0.10736763,0.2859258,-0.131229,0.039732613,-0.12275897,-0.08957124,-0.19577438,-0.005933918,0.07189919,-0.1543186,-0.060348384,0.05687076,-0.19412509,0.04058201,0.12407075,0.13157466,-0.032241285,0.025641993,0.07153523,-0.027030852,-0.029892335,0.09188597,-0.019694764,0.15558153,-0.0011092265,-0.063858844,0.05476235,0.0100496,-0.005611699,-0.04768973,-0.09722507,0.043437496,-0.011276605,0.03558448,-0.12735373,-0.02952946,-0.123991966,0.0007824248,0.0031156274,-0.18671344,-0.12563403,0.0112906275,0.1325515,-0.032648116,0.067846864,0.08647063,0.09664223,0.043898303,-0.08353962,0.05986668,-0.06498881,-0.09830976,0.004912849,0.21528123,0.09491938,-0.009847127,-0.113088876,-0.04606459,-0.090552405,0.08758197,-0.09464852,0.043473147,0.04176702,0.0066457684,0.029245473,0.18456995,-0.14370786,0.04861138,0.03837856,0.093932256,-0.06149152,-0.080416486,0.024541683,0.06589987,0.18222916,-0.031092087,-0.07964603,-0.12847207,-0.028091589,-0.05167729,-0.023899697,0.06701421,-0.10443287,0.3298096,0.0016288424,0.008453673,0.07172299,0.091157705,-0.11222045,0.050111532,-0.01595963,-0.0017063585,-0.025697295,-0.26709715,0.07671842,0.017248211,-0.10469549,0.050967988,0.024763644,0.12917812,0.13538921,0.097998776,-0.035843313,0.073034495,0.033435125,0.0921252,-0.13747926,0.02339773,0.015705898,-0.05049204,0.101672605,-0.09780186,0.01445431,-0.1002625,-0.1537796,-0.16733909,-0.08766798,-0.07931295,0.08693113,-0.19119073,0.073838085,-0.062352497,0.024551658,0.011014716,-0.08837415,0.04543191,0.06512822,0.073375456,-0.00803189,-0.2206526,0.026221514,0.2286124,0.22891092,0.12865478,-0.08569103,0.019440558,-0.09042867,0.012489646,0.061281733,-0.26325607,-0.074297555,0.040597267,0.044568185,-0.027484085,0.015867434,-0.007521037,0.092136815,0.011899972,0.04298175,0.19263385,0.17207526,0.19426349,-0.10276884,-0.14629366,0.21904327,0.03478709,-0.09916071,-0.210783,0.14015959,0.13886723,0.03764873,-0.0064221416,-0.24444407,-0.030524151,0.22906512,-0.1026429,0.16062953,0.07279052,0.0025594973,0.11716499,0.017434947,-0.12999536,0.016582917,0.031561468,0.0571602,0.098874286,-0.027527768,0.047050864,-0.07239306,0.14025296,0.039336056,0.02499598,-0.04614132,-0.2124671,0.17318994,0.008080811,-0.10370399,0.0034187976,0.005428984,-0.09345355,-0.16774589,0.038819775,0.039013818,-0.037344974,0.114057004,-0.05696565,-0.029815568,-0.020091867,0.02800381,-0.028357944,-0.067006946,-0.019721517,-0.11888815,0.032133423,-0.24077597,-0.006340029,-0.10392317,0.011079003,0.056234337,-0.12974659,0.046285454,0.16795844,-0.1369013,0.119254425,-0.091311194,0.065699644,0.016993519,-0.06872806,0.0020101126,0.0065496727,-0.101498716,0.034184713,0.008549815,0.050772484,0.01759653,-0.04975301,-0.07454108,-0.009771185,0.095012166,0.12414126,0.00048060436,0.031509444,-0.20660672,-0.058189455,-0.12426103,-0.1350354,0.08166759,0.10717365,-0.045018207,-0.057577185,0.043174263,-0.10597396,-0.12616794,-0.0037770513,0.029056229,-0.07205187,0.12000766,0.17824668,0.04477462,-0.0074341986,-0.098491535,0.067652404,0.035629686,0.030797474,0.25821248,0.08148892,-0.0008935144,0.0424389,0.023425777,0.03561466,-0.044061493,-0.035568435,-0.007719545,0.016776744,-0.06413086,-0.06574361,0.038493402,0.04644141,0.06545238,-0.017557416,-0.035697207,0.065530874,0.007417793,0.032914337,0.030092534,0.045612045,-0.033708837,-0.010314571,0.08423856,-0.08221551,0.022344775,0.19478548,-0.025439367,0.087619685,0.056019776,-0.015415878,0.064455256,-0.030211411,-0.038284633,0.10406488,0.015208651,-0.07481637,-0.00068452564,-0.014035983,0.23530762,-0.08772044,0.17578562,-0.0446041,-0.108938664,-0.074870706,-0.121056624,0.058966942,0.1617605,0.16553722,0.0193265,0.027927766,0.111656316,-0.039334707,-0.007837552,-0.036017668,-0.020361599,-0.018231943,0.0606416,0.007936321,-0.188688,-0.12700477,0.00066167116,-0.07592866,0.1619162,-0.23031297,-0.1304124,-0.006128961,0.08254008,0.016456075,0.08607145,-0.070413575,0.054430004,0.12838022,-0.048080318,-0.052834276,0.16124316,0.047643542,0.12907702,-0.007124258,-0.23832867,0.15447187,0.092026204,0.07172971,0.04845266,0.16428147,0.044965357,0.19950034,-0.019727135,-0.069931276,-0.04940963,0.042678468,0.072958015,-0.017831422,0.04892744,0.09601851,-0.06534457,-0.032550555,0.06348776,0.0022661332,0.14513022,0.04602428,0.009210724,-0.12418797,0.02963124,-0.025818001,-0.040571325,0.0055343695,-0.10224381,0.0567547,-0.07263317,-0.046105858,-0.05100493,0.08856066,-0.10038415,-0.13870493,-0.030850548,-0.04951253,0.042362813,0.028677436,0.08890824,0.14166595,-0.048555296,-0.048362758,0.010830179,0.008024526,-0.026512733,-0.048091482,0.27166432,-0.02025001,0.06673872,-0.008076839,0.08321586,-0.05910316,0.11703748,-0.040645733,0.08968587,-0.0016183616,0.104533896,0.017367482,-0.11717926,-0.01203362,0.30237725,0.22273397,-0.023855617,-0.16253456,-0.19397432,-0.019301835,-0.1285618,-0.14344522,0.104033396,-0.077138156,-0.010236221,0.030854871,-0.16888466,-0.15846898,-0.26297122,0.034578323,-0.06432975,-0.054642722,0.020014172,0.11605659,0.1058882,-0.020471694,-0.038863547,0.016705528,0.025361257,-0.16359624,0.1803117,0.07712377,-0.07282439,-0.015260894,0.018965201,0.121997766,-0.007681528,0.17875203,0.16090739,0.053226624,0.08251435,-0.17319562,-0.046446703,0.2022556,0.022655278,-0.0060035875,0.07236679,-0.086630374,-0.047952015,0.10635075,0.029978594,-0.011763714,0.15372087,-0.034118474,-0.019612629,0.039532382,0.094890326,-0.12638308,0.014114501,-0.054856427,0.016497616,-0.11905407,0.023587886,0.012813034,0.00511782,-0.09219456,-0.045159027,0.004337902,-0.019901782,0.015142085,0.05257843,-0.08864643,-0.036838043,-0.13259844,0.00040954794,0.059765406,0.40109673,0.03647084,-0.0638008,-0.07674641,-0.078150645
Anser_anser,0.024931991,-0.29351437,-0.0057773474,-0.007720835,0.012314036,0.020768149,-0.08245276,-0.006837134,-0.036826048,0.089500435,-0.16116425,-0.0020666549,0.17227082,-0.16201511,0.0412781,-0.115698606,-0.028007183,-0.032488026,0.10139052,-0.07541435,0.06780171,0.13091084,-0.023531264,0.22006597,-0.05837066,0.03971014,0.04695818,0.026947515,0.078795336,0.057434894,0.18007113,-0.044238377,-0.12032629,0.033826806,0.021566346,-0.038839016,0.15252748,-0.0024065864,-0.160995,0.07342005,0.21042807,0.102358975,0.0082718665,-0.099385716,0.016567532,-0.19185832,0.08214864,-0.10596999,0.08215466,-0.0769576,0.034938302,-0.0898291,-0.051874906,0.10418087,0.1740018,-0.14255042,-0.16499831,-0.023334725,0.052671522,-0.06610273,-0.06940707,-0.19672383,-0.024202252,0.043277767,-0.25202325,-0.030803291,-0.1352238,-0.04420379,0.025144186,0.063454516,-0.20151363,-0.021308953,-0.021329802,-0.068102196,-0.0192489,-0.13987318,0.036433753,-0.09579615,-0.022075769,-0.010131976,0.12736478,0.00230838,-0.16259193,0.0058687762,-0.22442701,-0.08012661,0.06772342,0.009336499,0.064430095,-0.1257242,0.10870316,-0.08718472,-0.031190302,0.04619409,-0.055664327,0.041202772,0.043694258,-0.089510664,0.19428387,-0.12201096,0.032721985,-0.026510378,-0.19532329,-0.0045441627,-0.007585378,-0.03419239,0.14182188,-0.0023599714,0.023075052,-0.039442945,0.03647983,-0.06490247,0.068003304,-0.10243979,0.03386314,-0.060840055,-0.10587174,-0.09613957,-0.04799957,-0.009932356,-0.010068851,-0.025886651,-0.10445653,-0.0053716516,0.24508768,0.111715466,-0.23770733,0.21810535,0.018705487,-0.15140364,0.06449158,-0.08264663,0.11762625,0.039175402,-0.010023415,-0.0064450186,-0.078142464,0.019660909,0.11192966,-0.016638525,0.038690288,-0.02723286,-0.15083188,-0.0027280948,0.014174847,-0.054907214,0.061554555,0.017252583,-0.07919759,-0.029424788,-0.044746563,0.10218845,-0.06978775,0.0053187897,0.045126718,-0.041961942,-0.108708665,0.11537613,-0.030171253,-0.15688308,0.008205346,0.020641927,-0.17631724,-0.003196186,-0.030137802,-0.087260075,-0.090858385,-0.07316864,-0.01303783,-0.08656002,0.2099608,0.20576066,0.039955307,-0.00315896,0.09506763,0.28679344,0.12984425,-0.1634163,0.2182284,0.08932452,0.016589144,0.17326558,-0.0055468325,-0.08700258,-0.24098344,0.03638005,0.27756095,-0.016327174,-0.024477746,-0.0525373,0.0064543793,0.03651809,-0.1283376,-0.044533323,-0.0803368,-0.0693522,0.07186414,-0.3249013,0.053460307,-0.038542185,0.044317488,-0.04220765,0.041248284,0.12712456,-0.08098398,0.057390604,0.06761582,-0.0036325692,0.007275799,0.15779439,-0.060152967,-0.086494334,-0.01800205,-0.031600166,0.098809406,0.20260955,-0.00917499,-0.011737635,0.027502902,0.19174892,0.049602196,0.0014962454,-0.017633913,-0.08280044,-0.04939077,-0.04632202,-0.0132744415,-0.07076158,-0.010393089,-0.034765724,-0.016836349,0.136858,-0.039901666,0.10573608,0.069232315,0.13087955,0.17957175,0.12341356,0.015825195,0.27073509,-0.017681764,-0.1283749,-0.038312085,-0.06909365,0.030631773,-0.08468813,0.16988759,-0.017740916,-0.07958902,-0.1001482,0.07242661,0.1314879,-0.03666603,0.013725969,-0.011134546,-0.1257511,-0.0561977,-0.15579547,0.032002065,-0.077116534,0.22437672,0.030130852,0.02666769,-0.12685928,0.13965097,-0.020827334,0.03413977,-0.07547277,0.049059246,-0.007412035,-0.03261412,0.03005796,-0.1676266,-0.061820433,0.045280624,-0.014382147,0.0779403,0.111499056,-0.001601305,-0.012985361,-0.04133798,-0.17855984,-0.011712071,-0.036927037,0.07332174,-0.06556628,-0.08496445,-0.07688961,-0.12085088,-0.017735671,-0.048169967,-0.036208812,-0.011295933,-0.036596205,0.08700566,0.01086079,0.047862258,-0.050370477,0.043006733,0.042127665,-0.18007724,-0.14653778,-0.08892432,0.0066163135,-0.08087303,-0.12541775,-0.08213636,-0.12370785,0.021709275,0.20365067,0.075729534,-0.063527,-0.04405964,0.1294292,-0.025474971,-0.05757055,-0.090991475,-0.07317149,0.13350841,0.22855885,-0.020300739,0.07716413,0.011130915,-0.023700219,-0.093430765,-0.037488587,0.14323059,-0.035152502,0.10092683,-0.14530519,-0.009799862,0.11034815,-0.007870295,0.018189767,-0.06497748,0.040973887,-0.03551308,0.21756358,0.07717393,0.02562433,0.0334015,-0.00090966525,0.10855052,0.1727034,-0.061493304,0.072863586,0.039603237,-0.034996156,0.20741965,0.050587304,-0.08798964,-0.16065952,-0.014125771,-0.06634775,0.023166517,0.05395882,-0.012974497,0.18948027,0.024883604,0.18226328,0.13744931,-0.043087453,0.121300645,0.07479915,0.24786635,-0.009350241,-0.012512387,-0.08358671,0.043783665,0.07799636,0.021878578,-0.09683427,-0.037925832,-0.018612612,-0.11224455,0.115202256,0.111945875,-0.1437493,0.2743768,-0.017468719,-0.044305272,0.047331218,-0.014531214,-0.0429816,-0.019312762,-0.08099046,0.022060048,0.05852465,-0.36811548,-0.01768351,0.030424025,-0.13608144,-0.025819965,-0.002425228,0.133532,0.083479114,-0.0029219186,0.0034458204,0.025130402,-0.0021425297,0.06631682,0.043811537,-0.0804934,-0.034208838,0.015796669,0.26555073,-0.21788356,0.007231067,-0.054518968,-0.1913293,0.013446646,-0.079754226,-0.047325615,0.117184795,-0.2238182,0.06990677,-0.010309624,-0.055692367,-0.09956242,-0.0050617047,-0.016528139,-0.009723709,0.0821376,0.060246274,-0.1008656,0.0032102019,0.25432485,0.11611967,0.10443836,0.071657375,-0.02714047,-0.10237478,0.010580965,-0.041926708,-0.009884047,-0.13380632,0.23497973,0.051495958,-0.30923125,-0.18636492,-0.10114886,0.16726014,-0.02932648,0.025650086,0.106993675,0.039014306,0.0038819313,-0.0013860975,-0.12841842,0.17913695,0.121478714,0.044146385,-0.027800249,0.22095908,0.17239551,-0.042280424,0.1266085,-0.15486483,-0.11349993,0.043222707,-0.08876779,0.26290095,0.012616151,-0.047966696,-0.03269588,0.034493286,-0.038355667,-0.0381557,0.07379977,0.10621776,0.0567229,-0.010060873,0.13290158,0.04618645,0.07974445,-0.018602483,0.00020188197,-0.14126216,-0.049669635,0.0656954,-0.032251947,-0.11517842,-0.043530438,0.066303104,-0.058399614,-0.14263362,0.10087735,0.073982775,0.05060468,-0.10160763,-0.04164502,0.029011436,0.05381965,-0.012594078,-0.009426965,0.14286146,0.010319947,0.008035573,0.024440661,-0.023096226,-0.061906107,-0.10702136,-0.09720585,0.15701169,-0.05680596,0.038069516,0.05184976,-0.049457025,0.033644043,-0.025592439,0.20547937,0.048776112,0.12808636,-0.13280958,0.0006382193,-0.077328496,-0.07886471,-0.016753867,0.04071304,0.05448763,-0.016359285,0.035525717,-0.02361532,-0.020094963,-0.0026269897,-0.056858603,-0.009695999,-0.07865905,-0.10989544,-0.026990863,0.02870163,0.07572152,-0.031204833,0.052697852,-0.012827808,-0.10724173,-0.06337556,0.10032975,0.04962949,0.144994,-0.12602952,-0.014266326,0.14796643,0.0020378167,0.048479088,-0.020726806,0.0974053,0.06024441,0.06401532,0.08974407,0.09715356,-0.024848059,-0.006400445,-0.0443611,0.034948345,-0.03236456,-0.094212666,0.021634417,-0.04693222,-0.18586302,0.0556226,-0.026337374,0.032502074,0.093867965,-0.11922129,-0.019282926,0.07235836,-0.012482887,0.034524605,-0.03754037,0.0402038,0.036487017,-0.033253837,0.06706903,0.024734389,-0.005823797,0.09420287,-0.04416612,0.09910319,-0.1117019,-0.027956152,-0.010790173,-0.037581272,-0.1565093,0.04419646,-0.080186576,0.014795188,0.11185162,0.02454207,0.17055713,0.020325119,-0.09926318,-0.08419169,-0.10624319,0.024508104,-0.18170536,0.099568546,0.112479225,0.17782858,0.038131792,-0.008047209,-0.054456703,-0.03313165,-0.061338544,0.02182116,-0.10471077,-0.13328806,0.004174075,0.053459033,-0.027048199,-0.14334808,0.023302658,-0.11226876,-0.040864453,-0.110234365,-0.010898205,0.2777975,0.12323961,-0.002143469,0.12647788,-0.13699497,0.027801815,0.23937489,-0.070901796,-0.071979515,0.10712681,-0.0012363889,0.23712058,0.05880655,-0.0040480443,0.14567341,-0.10499765,0.070285484,0.04618225,0.079943515,0.07215069,0.004108443,-0.01795118,-0.08426399,-0.06319667,-0.027123379,-0.042004373,-0.029482711,0.023766343,0.02738262,-0.026086807,0.03946046,0.06635258,0.0578563,0.10657699,0.16766396,-0.06173297,-0.046183296,0.1707274,-0.04381827,-0.0017172245,0.1323245,-0.11281374,0.064045176,0.02220453,0.011751155,-0.026847197,0.11225724,-0.16986787,-0.2251352,-0.03518326,-0.021776762,0.02082436,0.036406185,-0.109475866,0.20311919,-0.09897886,-0.0010191968,-0.1868045,0.045101408,-0.15791635,-0.079871245,0.18930477,-0.18198782,-0.028401477,-0.13562132,0.075972155,0.030641254,0.04230798,0.039276563,-0.025739098,0.008096842,0.04257446,0.020091137,-0.073456585,-0.0070260456,0.22339173,0.17594224,0.06127342,-0.09276316,0.008042005,-0.088916175,-0.1916556,-0.23678467,-0.015950428,-0.038327083,0.03284333,0.13996619,-0.13744758,-0.11399202,-0.26143458,-0.05805532,-0.09476783,-0.03268643,-0.080469675,0.028269,-0.123505995,-0.05436121,0.0535732,-0.048574522,-0.06135714,-0.08402347,0.19073361,0.07843279,-0.054057885,-0.22371477,0.069535606,0.1606483,-0.0043527177,0.08342849,0.19105469,0.0095025,0.016574863,0.014031908,-0.008789402,0.08097801,-0.012994714,-0.13954371,0.16621128,0.10793726,-0.029296236,0.07624947,0.0442662,-0.04723411,0.118333116,-0.15650067,0.043703746,0.0971345,0.039444245,-0.0024402773,0.106052116,-0.13603781,-0.04169174,0.05056491,-0.1355645,-0.08907115,-0.034702834,-0.0059814197,0.037593417,0.06391853,-0.11365207,0.028667562,0.038696192,-0.011242909,0.07886855,0.012440471,-0.08107162,0.06026245,0.027893499,-0.008282003,0.120650426,0.0013429788,-0.04219245
Anthus_pratensis,-0.12744576,-0.4282217,-0.0069667106,0.0146853095,-0.06155767,-0.002189748,-0.12083073,-0.003311215,0.012312769,0.13258964,-0.09245801,0.07356095,0.11962618,-0.14897865,-0.0445962,-0.08824383,-0.044534974,0.06457056,0.015643928,0.000560259,0.01971886,0.09422952,0.0017344181,0.15744196,0.18193954,-0.075314075,-0.052986685,0.055951856,0.084342,-0.0057608825,0.019318983,0.07751314,-0.05012506,0.05353045,0.023933068,-0.06166625,-0.00041965884,-0.019281778,-0.02286509,-0.112053394,0.1553737,0.031112215,-0.07695616,-0.042196237,-0.015631588,-0.20909174,-0.14419763,0.048790503,0.03826985,-0.05897846,0.006288656,0.10913605,-0.05981447,0.0941611,0.19623542,-0.24390996,-0.05594079,0.026768696,0.27789825,-0.08429082,-0.10908877,-0.0743767,-0.072082974,-0.063126646,-0.28928602,-0.017468475,0.27994895,-0.029978067,-0.13764378,0.051304765,0.1067985,-0.00718808,-0.14617637,0.016585272,0.0039838008,-0.09336569,-0.010742571,-0.056298684,-0.05760374,0.030570932,0.10541993,0.118561395,-0.039062157,-0.025164958,-0.10854933,0.16436942,0.0648997,-0.036048993,0.053687863,-0.11447613,0.2233294,-0.02492208,-0.052527644,0.034095783,-0.03429661,-0.0039288704,-0.041193,-0.13078365,0.112900965,0.28299245,0.20707445,0.032461964,0.036087714,0.037365098,0.054370694,-0.16056672,0.13677785,-0.21119758,-0.032263234,-0.019082624,0.09026888,-0.17590877,0.0235754,-0.093566194,0.27813312,-0.10643914,0.030879304,0.03286074,-0.034021586,0.011406797,-0.10264461,0.07253965,-0.032854058,0.006953898,0.13823986,0.15280603,-0.08241879,0.11790011,0.028180296,0.004068955,0.0017342477,-0.047574304,0.15965508,0.059744094,0.0012980329,-0.14051391,0.05561728,-0.008970821,0.13070002,-0.066259615,0.029587533,0.051287305,-0.047170106,-0.0027157571,-0.01345823,0.05748471,0.023166513,0.02680807,-0.043406367,0.07617287,-0.042249147,0.08652914,-0.10605756,0.037406817,-0.040481124,0.0397675,0.32280254,-0.07573615,0.004453507,-0.28003663,-0.018176286,0.042530727,-0.042052556,0.0993352,-0.028205816,0.08516378,-0.089217715,-0.033300433,-0.031290807,-0.11285789,0.07013749,0.10595056,0.07462793,-0.0478984,0.005885206,0.24465741,0.12771928,-0.15297797,0.015243431,0.10978495,-0.11380067,0.11557014,0.10882126,0.06214866,-0.14881627,-0.042726822,0.1666403,-0.12511107,-0.09772776,0.00841531,0.005511253,0.03014594,0.030038515,-0.06355684,-0.035534374,-0.087240145,0.05576104,-0.15368451,0.09191811,0.0876445,0.022702565,-0.13520208,0.13964391,0.14109497,-0.0720792,-0.06527618,0.14166954,-0.02010501,0.089154065,0.12738308,0.087707505,-0.05614702,0.00020747981,0.08056582,0.0069095097,0.14018747,-0.0086402465,-0.023558784,-0.10811114,-0.016024254,0.01574345,-0.036358684,-0.25203848,-0.06452748,0.13785726,-0.07446198,-0.021141654,-0.043501005,0.025036551,-0.0187617,-0.02431831,0.17025489,-0.006121893,0.18572713,-0.04606551,0.00842336,0.12607789,0.087635525,0.0645827,0.09290469,-0.0043539386,-0.08195752,0.03234344,-0.12151001,0.1568529,-0.07422653,-0.053106796,0.021248303,0.010118835,-0.03917037,0.085113004,0.10133453,-0.21286486,0.04021465,0.00020620425,-0.11110698,-0.033343107,-0.05745082,-0.009833753,-0.058756083,0.28410962,-0.06436319,0.051241137,-0.20429637,0.148792,0.0114374375,0.11502573,-0.2271112,0.03678776,0.0009104258,0.013493315,0.0386215,-0.1364913,-0.041807827,0.051525656,0.010703628,-0.11102323,0.16232719,-0.11343824,0.04638542,-0.093048684,-0.24830307,-0.017639013,0.017506553,-0.013974033,-0.096035175,0.014234222,-0.033871282,-0.10743202,-0.19420545,-0.13921364,-0.025520854,-0.040440183,0.16089362,0.17249765,0.09852634,0.16798303,-0.108585134,0.08080132,-0.18443073,-0.06658076,-0.18244293,-0.06647681,0.015660148,-0.1410334,-0.110619344,0.08444289,-0.16367257,0.09177766,0.13665296,0.16046152,-0.00510201,0.029064754,0.003643536,-0.08212684,0.11834039,0.21226613,-0.04165784,0.14258394,0.018623326,-0.06285322,0.036695298,-0.033847637,-0.0342039,-0.11200165,0.022429908,0.05381327,-0.105114445,0.100223385,-0.1181611,-0.04558428,0.1848314,0.04258723,-0.01637253,-0.062015507,-0.0573555,-0.054821342,-0.053096794,-0.019988183,0.0874781,-0.007879192,0.009079783,0.107113376,0.06696221,-0.023984494,0.10350994,-0.0122214,0.020083522,0.32382992,0.037088644,0.1044907,-0.098976895,-0.04271105,-0.056821223,0.012142131,-0.04580576,-0.014723502,0.1520739,0.027298152,0.101339646,0.092361,-0.10663125,-0.17673421,0.082329035,0.18474591,0.002109867,-0.028970383,0.01893535,-0.012829773,0.044310097,-0.051493786,-0.09013368,0.020733966,-0.027051836,-0.07388773,0.0074202097,0.0026222458,-0.1987623,0.11250842,-0.026620902,-0.029421283,-0.026219822,-0.13782722,-0.06771143,0.031781152,-0.10382123,0.038386006,-0.00504343,-0.15885171,0.06826105,0.039807394,-0.122221045,0.019357327,0.05744945,0.044092022,0.232081,-0.043101408,0.058965202,-0.060561072,0.045855366,0.05901474,0.14393632,0.02184691,0.044757932,0.0534606,-0.021044267,-0.17834444,-0.054182358,-0.045874603,-0.079372995,-0.18181297,-0.19956903,0.038143687,0.024761172,-0.11860102,0.016415518,-0.035185378,-0.07202114,0.0037240093,-0.12002132,-0.08997134,0.006391608,0.05447146,0.027929474,-0.20977545,-0.040924393,0.20954776,0.114898995,0.13057639,0.07988848,-0.029279456,-0.0037696688,-0.04999513,0.0836384,-0.42266423,-0.19327833,0.03744645,0.17306755,-0.15433018,-0.09842419,-0.12796338,0.0746364,0.061467964,0.07092905,0.031587254,0.05862548,0.077926904,-0.20488258,-0.21076219,0.024861913,0.059073627,-0.1519511,-0.06510161,0.1195074,0.05439196,-0.01087176,0.23985274,-0.321508,-0.06923028,0.021092493,-0.045196448,0.32221317,-0.027173717,-0.08945744,0.04463813,0.20079245,0.076479174,0.07063624,0.047384698,0.044593494,-0.18507087,0.001079701,0.14727187,-0.01880634,0.12606426,0.049054682,-0.061047044,-0.27347788,0.05161171,0.13299777,-0.054691605,-0.20842482,-0.034127288,-0.061891068,-0.040595762,-0.13112652,0.120184705,-0.025024205,0.025470408,-0.058386438,0.007659338,-0.01736239,0.017004622,0.08382951,-0.014493917,-0.21961379,0.068088986,-0.11441037,-0.05546355,-0.12853552,-0.085157596,-0.060824677,-0.04400605,0.17387545,-0.07148733,0.002825266,0.2525321,-0.13725905,0.06335632,-0.104759276,0.055596467,0.063164346,0.033547863,-0.11696653,-0.032670572,-0.06383157,0.032867815,0.09099624,0.04709162,0.09326566,0.059989188,-0.051478107,-0.08361979,-0.031560272,0.034127694,0.050374832,0.06636936,-0.093526855,-0.04867258,-0.038575836,0.15252887,0.034909688,-0.04900875,0.037092395,-0.043030664,-0.02718607,0.023139726,0.012510955,-0.015872223,0.08198395,-0.1954686,0.039317984,0.3191477,0.10798747,0.016810331,-0.03234461,-0.0049148006,0.0053414954,-0.026119009,0.19356059,0.06264202,-0.06619787,0.004295245,-0.005553373,0.0019414108,-0.07815381,-0.14307757,-0.015660372,-0.003278324,0.047883112,0.0552232,-0.014606152,0.030781735,0.007391331,-0.0854464,-0.035999898,0.014163204,0.05005582,-0.007876752,-0.015319132,0.050779223,-0.0036235321,-0.035677418,0.10702536,-0.116509154,-0.07193997,0.15298691,-0.0067717186,0.12957807,-0.07706711,0.021257918,-0.08506293,0.05109019,-0.10837583,-0.06095721,-0.09982714,-0.04932145,0.008621007,0.017366033,0.100386366,-0.030052353,0.013479478,-0.12787658,-0.10870234,0.02323543,0.016124366,0.16429536,0.18382274,0.16172424,0.11239348,-0.009359885,-0.051397815,0.025918782,-0.030793494,-0.12890552,0.08478929,-0.12671733,-0.008854434,0.09581984,-0.24850172,-0.17613587,-0.07734529,-0.1778915,0.30341122,-0.08702975,-0.027214214,0.28703848,0.07639654,-0.0055139614,0.045190018,-0.036396507,0.046162724,0.17229238,-0.08028147,0.026376305,0.07421866,0.06885174,0.09963498,0.030422132,-0.09563896,0.09070704,-0.0033548698,-0.09052725,0.016841443,0.102351025,0.11936829,0.031596564,-0.020872908,0.024397042,-0.049482398,0.08797324,-0.28873694,0.013725098,0.1568785,-0.030948713,0.027357042,-0.046058208,0.13840312,0.040379275,0.17714466,-0.0016862294,-0.26561373,-0.11108446,0.091282696,-0.1323666,-0.15244453,0.20224519,-0.120683335,0.024705,-0.060591727,0.06749314,0.029189836,0.09991842,-0.023380727,-0.12707885,-0.112723164,-0.021950014,-0.09673616,0.07676968,-0.0246403,0.122940406,-0.025415635,-0.026305322,-0.043514784,0.10552195,-0.13991413,-0.016805189,-0.081695855,-0.081563815,0.040472124,-0.05133959,0.07138055,0.10868374,0.0828924,-0.042146478,0.02290047,0.044424247,0.16833863,0.04457558,-0.0055909967,-0.039307654,0.071143314,0.14435677,0.07746964,-0.015257471,-0.190943,-0.07830325,0.05236966,0.06293818,0.14139302,-0.031794406,-0.06033459,0.06523906,-0.19723564,-0.1254568,-0.07040933,-0.0021580234,-0.05081632,-0.047058903,-0.046949327,0.06192688,0.05285707,-0.023133691,0.0037191007,-0.37710914,0.052132696,-0.07038851,0.21265598,0.047822006,-0.0034782887,0.024382554,0.0033998732,0.12749067,0.085156105,0.13932395,0.17211153,0.07791048,0.022910945,0.12687322,-0.030313095,0.047075156,0.037519198,-0.012930456,0.109367825,-0.041509874,0.049791522,0.103150256,-0.060071323,-0.016333686,0.149132,-0.119739436,0.020348806,-0.014367791,-0.0027300874,-0.048741627,0.023054797,-0.05311997,0.034844454,0.0059185727,-0.06350644,0.016425269,-0.0019399158,-0.23876232,-0.0047309063,0.20603743,-0.06646712,0.012460773,-0.002705279,-0.028604668,-0.010346179,-0.013622159,-0.095768765,0.08420442,0.061838835,0.024815263,0.030792914,0.0075106616,-0.06397506
Anthus_trivialis,-0.028170096,-0.29532444,-0.010335251,-0.008500274,0.08111284,-0.022713825,-0.10825696,-0.05492137,0.07639343,0.15755284,-0.07148132,0.01334952,0.083467,0.019408822,-0.0020047182,-0.11801804,0.02095368,0.036645815,0.1947702,-0.017478565,0.026588053,0.05025467,0.051195133,0.10255186,0.09021465,-0.06793384,0.032631435,0.018662862,0.021850739,-0.03551107,0.10148418,0.01615182,-0.020442868,0.07092813,0.035363737,-0.026162412,0.09347316,-0.018099776,-0.13654119,0.05056944,0.04858917,0.03898344,-0.03924776,-0.08515428,-0.008953212,0.14523232,-0.027520873,-0.045943774,0.057776503,-0.080417655,0.03470664,0.09528302,-0.051143818,0.08495305,0.23065837,-0.13736445,-0.11641279,-0.028424937,0.20031416,-0.087637566,-0.09173918,-0.039381407,-0.08490691,-0.009436205,-0.17670448,-0.047636125,-0.12830572,-0.012539248,-0.100979276,0.014806031,-0.1071311,-0.060106803,-0.08812693,0.07657647,-0.106144935,-0.12852472,-0.039310038,-0.09059882,0.0111390855,-0.062082507,0.14280501,0.10129593,-0.082167044,-0.10361757,-0.08696038,0.05059392,0.02411038,-0.011640973,0.026793003,-0.115081966,0.10552883,-0.0071836105,0.04097022,0.036661454,-0.10869137,-0.01469742,0.04415594,-0.13945588,0.08293522,0.003341895,0.062108926,0.049093112,-0.054971732,-0.0035520196,-0.020312188,-0.21066709,0.20376933,-0.09585888,-0.05623174,0.035022885,0.07823682,-0.110404275,0.07208252,-0.044901192,0.092755325,-0.12216966,0.0066841384,0.036732234,-0.022081768,-0.013974915,-0.17477974,0.0045878505,-0.060396567,0.011064557,0.21054554,0.11337369,-0.0902647,0.03697583,-0.023450218,-0.100093886,-0.07842712,-0.038901497,0.0013100654,0.018864121,0.03662446,-0.23025548,-0.006568677,-0.09660527,-0.06434524,-0.025026329,-0.024870839,0.0070505687,-0.14525032,-0.0058086487,-0.008750837,-0.014769647,0.038119316,0.031418182,-0.041685697,0.049144484,-0.107715644,0.09782616,0.01449752,0.02168718,-0.03766916,-0.0007451516,0.13633755,-0.05180833,-0.07759348,-0.17001048,0.020156918,0.039747298,-0.09858813,0.060460567,-0.031435344,0.19367719,-0.17887257,-0.023038514,-0.05258336,-0.17858908,0.10607746,0.11212372,0.069177724,0.015853863,-0.010485388,0.3095396,0.16643634,-0.1104647,0.05078154,0.09231503,-0.1137377,0.15385136,-0.0050716735,0.023500223,-0.101793736,0.04662601,0.12145481,-0.08282406,-0.07832503,0.031832427,0.04720237,0.08697374,-0.033867244,-0.098163724,-0.0029888202,0.002029958,0.16903642,0.08023361,0.092498675,0.0759695,0.029037561,-0.14719059,0.17877182,0.18289717,0.009202908,0.0012634968,0.17602874,-0.073161215,0.14235176,0.09604285,-0.10218243,-0.0016676307,-0.06995398,0.07803881,0.054817855,0.07485692,0.012550658,-0.03229874,-0.14700037,0.057522997,0.047323655,-0.08779726,-0.14745341,-0.038507946,0.083082795,-0.04298426,-0.019887187,-0.124340355,0.09002304,0.011456164,0.0062032584,0.148417,-0.00044798432,0.17542902,0.12011963,0.076247506,0.015687253,0.11886026,0.052458316,0.05799558,-0.014069815,-0.062246654,0.033220027,-0.084019326,0.11270732,-0.105214685,-0.14420524,-0.013130544,0.028964156,-0.008615484,0.13852827,0.15617533,-0.16999376,-0.0122565385,-0.018389096,0.0055660717,0.10370798,0.019638598,-0.054160237,-0.13743694,0.3310826,-0.041371223,0.006983474,-0.16692819,0.11094609,-0.017339453,0.10695279,-0.23903805,-0.034232493,0.013435082,-0.013251939,0.023530684,-0.052714143,-0.021891966,0.014169313,0.022374045,-0.12517408,0.13261311,-0.07360566,0.020071914,-0.090760484,-0.19081949,-0.045064174,0.034663126,-0.039860073,-0.09107119,-0.023721334,-0.04493554,-0.13486105,-0.0745689,-0.06408815,0.02173921,-0.08790769,0.105618626,0.09686988,0.05921002,0.059833396,-0.012185856,0.11904762,-0.1172472,-0.04388555,-0.1615015,0.0582323,0.029854344,-0.13046445,-0.0041726995,0.07187143,-0.11033959,0.10186684,0.1679207,0.0964302,-0.03550404,0.037675247,-0.0010663939,-0.027304342,0.0715571,0.11405029,-0.09784361,0.1088877,0.055704594,-0.074574165,0.029431142,-0.0047964468,0.025155282,-0.1528734,-0.025962945,0.070504904,-0.08738415,0.22026521,-0.17624862,-0.062531516,-0.0050920947,-0.0029691267,0.0010559615,-0.08726748,-0.08544275,-0.033389084,0.105069585,-0.056751184,0.07043948,0.04386461,0.0977246,0.07254823,0.042995084,-0.06998657,0.047670677,0.12327158,0.056847665,0.1202356,0.019236658,-0.024089508,-0.056528665,-0.028777985,-0.061975695,-0.0053409007,-0.06382405,0.062959395,0.015214587,0.053672776,0.11206213,0.20057838,-0.05024205,-0.065200895,0.0042199274,0.13912863,-0.04933194,0.031931855,0.07154337,0.059611727,0.055629253,0.090010844,-0.027989702,-0.039292853,0.022700692,-0.09679245,0.098432034,0.08947052,-0.2616986,0.14887343,-0.05604519,-0.08289353,0.017482033,-0.0013160271,-0.01638871,0.01704266,0.008872429,0.016799372,-0.006209382,-0.18663691,0.07328901,0.06662612,-0.14059368,0.01271149,0.07812458,0.049305398,0.068910874,0.08801217,0.07038268,-0.0054412894,0.015433995,0.035091735,0.08097265,0.1033493,0.15667501,0.03274633,0.15849704,-0.081764534,0.020921648,-0.012200781,-0.14010705,-0.10799945,-0.19413795,0.025599593,0.08497886,-0.167015,-0.027438497,-0.05001483,-0.011190048,0.043775626,-0.0539921,0.015734442,0.09979134,0.034225192,0.038832545,-0.1526592,-0.014628482,0.236113,0.045043923,0.091803804,0.0056872927,0.005042497,0.03223192,-0.041765064,0.0789435,-0.1890258,-0.28780508,0.035129163,-0.021852227,-0.19638759,-0.044268936,-0.105209686,0.058590155,0.037020776,0.03954599,0.12247116,0.12818238,-0.0398487,-0.20131585,-0.12915279,0.07557247,0.075818144,-0.022194035,-0.10110883,0.04052347,0.038877677,-0.003928737,0.08028477,-0.22570555,-0.06464847,0.13248865,-0.067679994,0.3025283,-0.021737335,-0.10851224,0.07943059,0.19950676,0.047875848,-0.042213514,-0.02104531,0.08998268,-0.058647543,0.04208322,0.0854554,-0.019356815,0.06640459,0.048175726,-0.014468159,-0.1985307,-0.0067757824,0.16230112,-0.020163434,-0.06244102,0.004234443,0.0328051,-0.029500278,-0.19759098,0.09699122,0.039813302,-0.008272132,0.12115362,-0.062059868,0.027230017,0.035694923,-0.04044271,-0.09322748,-0.09436688,0.0935272,-0.13704701,-0.07939211,-0.0933484,0.010791528,-0.119902104,0.0088805575,0.1646026,-0.08673402,-0.006275012,0.26639113,-0.13265012,0.07414107,-0.045693398,0.07328726,0.06673308,-0.017535843,-0.10284605,-0.008335918,-0.15366194,-0.07771753,0.017710447,0.09057279,0.05005376,0.015447997,-0.0041828663,-0.02818771,0.05668185,0.080092415,-0.06486659,0.044226017,-0.09852786,-0.06359984,-0.08473573,-0.06454304,0.030750237,0.078693405,-0.046140738,-0.058493216,-0.13753277,-0.19077411,0.09118755,0.020518176,0.016950488,-0.12192319,0.0460013,0.30771604,0.049071223,0.08631614,-0.024694033,0.04714727,0.07640088,0.03515638,0.13317251,0.051391732,-0.10340385,0.17824893,-0.04081174,0.0023530815,-0.0572333,-0.062356394,-0.010618588,-0.0052836384,0.04034569,-0.005467805,0.009036172,-0.034137383,0.05290524,0.004893874,-0.056919973,0.01370332,0.04369843,0.03306573,0.010425014,0.13324451,0.023152668,-0.04605969,0.16986983,-0.054828413,-0.059596855,0.2334273,-0.023356829,0.10598476,-0.10946385,0.0064634043,0.059119545,0.02099802,-0.16380833,0.06295881,-0.07978642,-0.07743519,0.052943133,0.016929647,0.2537398,-0.074604325,0.106443495,-0.011835555,-0.052106958,-0.0007945704,-0.11776143,0.05818675,0.17504776,0.04967691,0.06960866,-0.065392815,-0.015781801,0.005878932,-0.06570499,-0.025572263,-0.08148225,-0.06534423,0.025805075,-0.0038410807,-0.3519621,-0.1621175,-0.029054467,-0.057902742,0.17007202,-0.18668552,0.033938125,0.18640894,0.08862187,-0.051311642,-0.005421763,-0.059518315,0.046076175,0.27207994,-0.19130558,0.003944585,0.049084987,0.07234551,0.16391483,0.07542662,-0.15372115,0.1792954,-0.17938729,0.06773048,-0.030270416,0.16836447,0.080265455,0.119925454,0.013920315,-0.053369842,-0.07021465,0.09599825,-0.12127516,0.0005306341,0.09267745,-0.0146330735,0.030245408,0.0010190243,0.140705,-0.01571883,0.17748639,0.115100846,-0.2090961,-0.110264555,0.048841786,-0.060648955,-0.14560954,0.063646406,-0.17383789,0.07519804,0.01831695,-0.033466443,-0.04450748,0.1808914,-0.041437224,-0.058075577,-0.061227802,-0.062769294,-0.07422271,0.02245204,-0.12329688,0.12839939,-0.073261276,-0.026097722,0.0356441,0.036693107,-0.118107796,-0.04416981,0.051531594,-0.048067503,0.06890289,-0.09649036,0.08630793,-0.009617819,0.011928543,0.014753576,0.0025461074,0.018572746,0.02023773,0.027929418,-0.06153668,-0.064577185,0.08130927,0.1908763,0.073900685,0.00072106835,-0.14918903,-0.08116669,-0.026811946,-0.102642775,0.054996423,-0.023004971,-0.012757193,-0.0034683556,-0.2149442,-0.11700021,-0.22960459,-0.12267172,0.016317558,-0.0836843,-0.1707549,0.054841027,0.013785651,-0.02847616,0.07470527,-0.19444357,0.0074675726,-0.09621345,0.12396877,0.09238857,0.12182056,-0.01528917,-0.040603638,0.101734124,-0.042645056,0.106762305,0.17191443,0.022729231,0.049346194,-0.039326265,-0.054477625,0.050686512,-0.008496741,-0.03751892,0.06935029,0.005058709,-0.04617845,0.12868914,-0.056193408,0.0038062315,0.14092235,-0.105748214,-0.059803173,0.02347238,0.03334422,-0.09641992,0.0012182957,-0.042195916,0.025372436,-0.06911829,-0.0045123063,-0.0288781,-0.0023906222,-0.15137684,-0.016890595,0.08180732,-0.08133396,0.0108259795,0.1028212,-0.031445816,-0.018270696,0.05827549,-0.052270483,0.06586781,0.16962051,0.065224625,0.048365958,0.0570738,-0.13854045
Buteo_buteo,-0.053706802,-0.090954594,-0.008198439,-0.03443749,0.016130874,-0.059325956,-0.236143,-0.046948545,-0.18470004,0.06341564,-0.09398389,0.018935755,0.09724187,-0.13089837,0.12263397,-0.12696978,-0.049474552,-0.042820502,0.22047114,-0.12268332,0.0031703904,0.07043474,-0.011012905,0.30965024,0.04105507,-0.0192434,-0.034306582,0.042864364,0.080959596,-0.049516276,0.15796788,-0.017020127,-0.026889052,0.05333441,-0.014775352,-0.034889642,0.12777156,-0.009647919,-0.07667803,-0.05159326,0.15986018,-0.047583614,0.023354856,-0.06843396,-0.008119187,-0.2720113,0.10463379,-0.122602515,0.15238023,-0.025650404,0.072163664,0.047333866,-0.033805322,0.13859151,0.10769483,-0.11178767,-0.1526597,-0.20825611,0.12541525,-0.017603805,-0.08330598,-0.23393208,-0.055830926,0.032479696,-0.19447947,0.013895527,0.099564664,0.022707747,-0.0072120945,-0.042005967,-0.105732456,-0.029541567,-0.05634254,-0.0037691002,-0.043221097,-0.08402948,0.09196363,0.009101366,0.11789114,0.018525857,0.15703171,0.045223724,-0.1515445,-0.02508785,-0.046801817,-0.084267415,0.023819506,-0.03440223,0.096286006,-0.12897982,0.08756999,-0.06333456,-0.06544278,0.026547821,-0.08135645,-0.07104979,0.059102304,-0.15843268,0.06173648,-0.20372976,0.19695042,-0.024263233,-0.16666576,-0.073074,0.056103695,-0.11870029,0.13544022,-0.155511,0.018586209,0.04816419,0.114016175,-0.09834853,0.1667861,0.025239352,0.05812225,-0.08396631,-0.016627144,-0.07422552,-0.12945275,-0.008308665,-0.13975304,0.061908845,-0.06498245,0.0038527425,0.2523461,-0.009505967,-0.11040051,0.14836791,0.10384572,-0.16048782,0.003617378,0.02616438,0.09133154,0.02395323,-0.028297694,0.019607577,-0.05030616,0.007965458,0.07559767,-0.026631001,-0.03475582,0.031289972,-0.27641144,-0.08451443,-0.104346834,0.00014900387,0.032934997,0.07527863,-0.03438934,0.019831432,0.09403253,0.098493,0.010803105,0.04033568,-0.06707208,-0.07658571,-0.0983138,0.17347002,-0.076119974,-0.07490493,0.044570126,0.010418787,-0.049618553,-0.00093539275,-0.05714336,0.022844668,-0.08367159,-0.037780855,-0.072672755,-0.1473372,0.218949,0.110650815,-0.013211225,0.0011443376,0.17405607,0.25898555,-0.040435303,-0.1023958,0.08417753,0.078458734,-0.1547637,0.09862071,0.022857029,-0.08220104,-0.20742798,-0.047459856,0.15673758,0.05517979,0.014432208,0.025870163,0.022690153,0.03223737,-0.22303586,-0.056299705,-0.110188335,-0.08387116,0.11546247,0.09106055,0.018094866,-0.055424474,0.0017567563,-0.06335865,0.0073097874,0.004057436,-0.09314685,0.102197625,0.3200482,-0.04945554,-0.037726887,0.12245178,-0.018433314,-0.0132823065,0.029688226,0.040869597,0.01688136,0.103702374,0.05609041,-0.044489317,-0.06343228,0.1002533,-0.031581692,-0.046960715,-0.14882989,-0.10897397,0.04294145,-0.106334426,-0.032684352,-0.12636293,0.16956767,-0.070964165,0.06698925,0.061415426,0.01758673,0.20907061,0.022907307,0.14126857,0.0050018076,-0.02684417,0.09365198,-0.027161103,0.050442133,0.02647138,-0.055731066,-0.105248824,0.10139636,-0.11284802,0.17552856,0.013724508,-0.01978394,-0.120471485,0.03667576,0.115403265,-0.062041517,0.047615707,-0.0022877846,-0.18703423,0.0124154305,-0.23953158,-0.0022492106,-0.114839494,0.22296903,0.0997971,0.07216337,-0.10710185,0.15471286,-0.07433192,0.101064965,-0.23984969,0.02450421,0.037482217,-0.030376496,0.054912016,-0.17759554,-0.07916905,0.109960236,0.05932921,-0.1326969,-0.10063604,-0.061961547,-0.026876217,-0.1068242,-0.23263894,-0.0042863744,0.043689057,0.041203365,-0.085097045,-0.039702352,-0.045115825,-0.06297314,0.032381993,0.02733774,0.056479454,-0.008095941,0.037009764,0.14599349,0.03808368,0.100610755,-0.23256156,0.072828814,-0.0065128626,-0.09648763,-0.07312183,-0.057984784,-0.011033131,-0.103476726,-0.14957692,-0.073998235,0.045410518,0.04206231,0.081370465,0.093638666,0.009575624,-0.04675793,0.024347601,0.016966695,-0.010557782,0.027367461,-0.04215104,0.102986634,0.13086641,-0.10405032,-0.008850659,-0.039798785,-0.057830624,-0.13688445,0.095178545,0.17429106,-0.07012077,0.17282362,-0.14305499,-0.06064774,0.10124598,-0.027969949,0.07027696,-0.12442136,-0.012026495,-0.03875717,0.22032604,-0.03785659,0.15226701,0.0026705281,0.018627806,0.07477898,-0.06166231,-0.09903253,0.12237222,-0.0038154454,-0.051383264,0.045360684,0.06270495,0.0013703882,-0.06020962,-0.023735594,-0.14073592,-0.05253272,-0.0773331,0.02576711,0.31526288,0.052626938,0.075204715,0.08140569,-0.04086244,-0.044860996,0.07083635,0.10339045,0.094229296,0.0821527,-0.08364617,0.13244008,0.044393804,0.032430787,-0.099077106,-0.032510553,-0.013667292,-0.07709853,-0.005905766,0.120105065,-0.25381628,0.32449895,-0.023613183,-0.031521082,0.18084924,-0.062658004,-0.06016648,0.14705896,0.0066521354,0.06957179,-0.007315823,-0.36184806,0.046149526,0.054584738,-0.011439607,0.0036123723,-0.10945647,0.20801589,-0.043170065,0.05544872,0.03634611,0.1123234,-0.018245162,0.06205309,-0.06478785,-0.085823596,-0.0012922725,-0.04760776,0.18052462,-0.08990613,0.020774951,-0.050151613,-0.03229643,-0.03381834,0.044867177,-0.089778915,0.11701861,-0.15833257,-0.047621407,0.032399386,-0.13302249,-0.0322752,-0.1964984,-0.09932967,0.06388036,0.062094547,0.036419615,-0.06168717,0.015399409,0.22665533,0.124758475,0.20796818,0.008368338,-0.026563242,-0.061562315,0.002347744,0.041062538,-0.18489897,-0.18551342,-0.015439732,0.30823585,-0.20435455,-0.12691647,0.120932706,0.24017558,0.06069017,0.051434107,0.17469874,-0.05397908,-0.10337014,0.059215408,-0.04679448,0.08263932,0.025755323,-0.108893044,-0.098576374,0.22142582,0.056658406,-0.0085291,-0.018104631,-0.06975596,-0.053123444,0.009468967,-0.063974366,0.24129392,0.06397728,-0.024941774,-0.018284474,0.15354486,0.1251267,-0.01788269,0.05441289,0.14695047,-0.032819927,0.002920816,0.033411235,0.001346511,0.060824133,-0.028790725,-0.01682716,-0.15536503,-0.0614307,0.13556528,0.011975986,-0.0800868,-0.10783729,-0.19426984,-0.05707038,-0.106978215,0.1828882,0.080347545,0.045460906,0.12460061,-0.06695254,0.07156696,0.09742792,-0.075066455,-0.021568732,-0.09858891,-0.042826783,0.18058372,-0.02685013,-0.09132952,-0.059617013,-0.072112,-0.18264061,0.0699064,-0.09870303,-0.054767422,0.17580032,-0.18218918,0.06646514,-0.01725279,0.15620908,0.033017557,0.023722947,-0.12822425,0.006755346,-0.13034926,-0.0019057493,-0.058117688,0.0819198,-0.053920418,-0.015613847,-0.07705919,-0.067842856,-0.051118303,0.0041295323,0.009183122,-0.05006589,-0.091861255,-0.07527261,-0.10648656,-0.01333877,0.09946134,-0.06863435,0.14833333,0.051547654,-0.067995384,-0.07564073,0.14666767,0.09792122,0.031656884,-0.027535228,-0.020798309,0.08398551,0.07109124,-0.03581602,-0.111495316,0.13056585,0.036169786,-0.00012033113,0.0843972,0.022561599,-0.043626852,0.28413966,0.000501337,-0.0680087,0.006732264,-0.11243179,0.033998866,-0.057844263,0.04680284,9.232915e-06,-0.01482879,0.014017392,0.008860775,-0.005490698,-0.048096634,0.049114164,-0.051870685,-0.0066076317,-0.008395076,0.06800459,-0.051107142,-0.019295441,0.058218163,-0.030551186,-0.087885246,0.1366533,0.020793682,-0.009922316,-0.15403737,-0.078784496,0.005993702,-0.12760648,-0.122650765,0.025854418,-0.029060286,0.036296066,0.078015715,-0.039929762,0.120179996,0.0063967095,0.07311834,0.09106563,-0.08736605,0.09075097,-0.23525593,0.060483426,0.12061291,0.17615195,0.14523995,-0.0416707,-0.15671161,-0.08087434,-0.07601325,0.009841026,-0.12754124,-0.1029978,0.08613416,0.044902,-0.22250465,-0.1309907,-0.015980475,-0.09288221,0.18972223,0.03989924,0.007320839,0.21392275,0.030205265,0.025022712,0.3371976,-0.12178557,0.07981988,0.30929157,-0.090823844,0.08533093,0.15697947,0.003623453,0.22477037,0.088828966,-0.23561448,0.19363624,0.1309867,0.059886474,0.041526847,0.22836322,-0.005556525,0.06749573,-0.04097546,-0.05272151,-0.0662619,0.037822973,-0.004423317,0.023257438,0.18237837,0.012182295,-0.03821917,-0.014193103,0.021956932,-0.01793001,0.15396328,0.00577604,-0.059244025,0.013572219,0.13692988,-0.09923786,0.015584364,0.101260014,-0.14587998,0.102876276,0.024295516,0.013914917,0.07826162,0.11685227,-0.0854135,-0.19175054,-0.1207047,-0.038079347,-0.006210972,0.039009087,-0.024379103,0.17250371,-0.15214369,0.017798273,-0.12195741,0.053240094,-0.056543723,-0.06580853,0.23040722,-0.2594719,0.059966974,-0.092162855,0.15810896,0.085362844,0.020715592,-0.029384067,-0.04905584,0.013001979,0.021617893,-0.007382039,-0.008567372,-0.054110948,0.16587551,0.022708055,0.029563408,0.103771485,-0.18655275,-0.13474989,-0.06787339,-0.13393864,0.077763714,-0.0015890289,0.08938934,0.19771248,-0.06997565,-0.04710817,-0.3642001,-0.10392899,-0.016609877,0.02360143,0.027554853,0.033683445,-0.0947038,-0.024801599,0.026537063,-0.1675849,-0.01958467,-0.21267793,0.14876775,0.05235293,-0.15649574,-0.04652306,0.010670067,0.10286533,0.08161406,0.044989098,0.09478085,0.007078386,0.011581497,-0.10298108,0.013560999,0.16696551,-0.021114966,0.049474433,0.13051525,0.14946817,0.051031794,-0.07001735,-0.04957796,0.0037250798,0.16472483,-0.11075302,-0.045133974,0.10096005,-0.010730405,-0.030959886,0.04986487,-0.15860209,-0.0066410815,-0.09940682,-0.20360209,-0.011233052,-0.04757134,-0.029368391,0.046213966,0.18355405,-0.06291905,0.011528622,-0.009845566,0.06935017,-0.017093012,-0.060175408,-0.11763518,0.02810661,0.25423512,0.086440645,0.09462013,0.08764029,-0.093494564
Carduelis_cannabina,0.043092765,-0.42033836,-0.006001631,0.09562731,-0.053439137,0.08516006,-0.123476036,-0.037254814,-0.13308895,0.085498005,-0.07220847,-0.14531086,0.11005047,0.08365059,0.02723019,-0.20559399,-0.12050198,-0.02802852,0.15350167,0.0152065195,-0.03079665,0.10990885,0.076979876,0.04589639,0.09352476,-0.010230956,-0.0010071294,-0.041583348,0.07295691,0.018893486,0.24502727,-0.10687075,-0.06338931,0.083358265,0.04739752,0.0664913,0.004405829,-0.0007595869,-0.08612901,0.024395633,0.42306513,0.22877704,-0.0073064007,-0.057883553,-0.110732816,0.20509419,-0.036427584,-0.032390766,0.06014398,-0.029949473,0.0060669663,0.09493589,-0.15953398,0.11253293,0.19991311,-0.17541206,-0.14668986,-0.014896189,0.07887296,-0.045322865,-0.21035095,-0.1756482,0.0135586625,0.08084393,-0.2240002,0.0060359123,-0.124559246,0.017020026,-0.113991134,0.03007972,0.019454822,-0.041676883,-0.14057177,0.17357239,-0.1168298,-0.16149591,0.03185018,-0.20274068,0.031769976,0.03679245,0.110278465,0.04176178,-0.10605485,-0.04476207,-0.22867726,0.120529436,0.014751715,-0.009129683,0.045830004,-0.11445752,0.3054103,0.03221672,-0.027998472,-0.019509612,0.046040304,-0.04914203,0.04316525,-0.119051106,-0.012496739,-0.07469777,0.17222914,-0.07811271,0.01495584,0.038741283,-0.05132721,-0.06631457,0.17240897,-0.22560224,-0.036157046,-0.036485776,0.09126286,-0.11720587,-0.01767434,0.0040283166,-0.08758385,-0.14359847,-0.053244915,-0.02169482,-0.12084855,-0.07053436,0.09380156,0.00010710426,0.010329518,-0.01753312,0.20315303,0.07432972,-0.05066152,0.057472583,0.10466894,-0.06607409,-0.06496102,0.020796169,0.07420506,-0.0736557,-0.03991301,-0.03333541,-0.033040937,-0.13659734,0.098115265,0.035497356,0.087483704,-0.043124005,0.024128076,-0.052058663,-0.11184579,0.033585325,0.041323885,-0.1455236,-0.040160548,0.0024275975,-0.13423882,0.16919646,-0.073473416,-0.012076081,-0.120645374,-0.07893664,-0.0016770996,-0.04243063,0.046208136,-0.13389517,0.037209604,0.061277535,-0.16774993,0.025585528,0.003861958,0.11094589,-0.1758515,-0.09017484,-0.1726827,-0.17669024,0.12814108,0.09561588,0.067339346,0.17004792,0.045431368,0.23523933,-0.023033563,-0.14039464,0.06517258,0.1570805,-0.22777732,0.2568027,0.030167984,0.01936706,-0.32897574,-0.08468229,0.26730052,0.0991248,-0.043496143,-0.03802026,0.039075598,0.06834235,0.18904029,-0.08673324,-0.041158583,-0.03461603,0.06341182,-0.040618613,0.084424704,0.17187738,0.018962849,-0.03437715,-0.04339901,0.12227351,-0.09678751,0.11831044,0.09633888,0.020258304,0.23462927,0.047080472,0.073259585,0.03792114,-0.025163114,0.02361044,0.031261355,-0.014088071,-0.005247244,0.00075850013,-0.07718568,0.04661646,0.027496327,-0.15295611,-0.2605943,-0.1582421,-0.08815598,-0.05618966,0.07603836,-0.039011344,0.08027617,0.008205425,-0.024733908,-0.00016591614,-0.061374493,0.18693848,0.010737358,-3.4571174e-05,0.22312748,0.16371319,0.0651866,0.22518104,-0.1581182,0.07505316,0.01751527,-0.075322725,0.17273274,0.067635916,-0.06076981,-0.03365302,-0.040693134,-0.06601189,0.096807376,0.07418738,-0.093271516,0.00726292,-0.031594016,-0.15322648,-0.008338166,-0.06727255,0.18634078,-0.16150291,0.37025505,0.081126526,0.010899698,-0.1485986,0.07715549,-0.03357449,0.12112763,-0.07610811,0.05518904,-0.04388327,-0.026378158,-0.071815036,-0.09090642,-0.071538664,-0.019646693,0.0150607,-0.093823306,0.06705615,-0.11604271,0.014938105,-0.03235679,-0.23314837,-0.029223504,0.07978229,0.0497435,-0.087189816,-0.08962731,-0.07383321,-0.021320892,0.004840899,-0.062376287,0.003582472,0.026043627,-0.032179166,0.05260286,0.050682425,0.30878684,-0.14142288,0.08660513,-0.114651985,-0.107116565,-0.14159448,-0.00235598,0.07094607,-0.114680484,-0.13969442,0.15255855,-0.21231994,0.057036653,0.15239872,0.11843911,-0.021938523,-0.08459147,0.09310021,-0.07532312,0.19047552,-0.045979414,0.026390541,0.043938108,0.099521466,-0.040872224,0.033749875,0.07913537,-0.04603668,-0.033756763,-0.112647735,0.13982551,-0.09769342,0.110862605,-0.09783381,0.042429734,-0.009564739,0.035943586,0.07919808,0.043162905,-0.15044612,-0.07277082,0.0017907398,-0.028691538,-0.027117942,-0.04099314,0.048194762,0.23382768,0.013757047,-0.002149695,0.08746186,-0.16639894,0.048094835,0.18121906,0.0311089,-0.016523954,-0.12161154,-0.053441435,-0.09925825,0.023189642,-0.027822101,0.043015648,0.025158351,0.064952955,0.22827931,0.15585518,-0.024211625,-0.13713253,0.08852657,0.15952533,-0.09840682,-0.09581924,-0.026346669,0.015537343,0.05613224,0.13353541,-0.026770096,-0.012113311,0.010264473,-0.074230745,0.1820579,-0.055588502,-0.08442722,0.26951277,-0.036918573,-0.11269034,-0.044297855,-0.024880815,-0.080045,0.054054484,0.13907482,-0.006378571,0.08544733,-0.07686251,-0.03279469,0.13349202,-0.010689555,-0.03722113,0.06634145,0.062950544,0.124913104,0.097498216,-0.0058605936,-0.020564795,0.08925269,0.080251485,0.18771401,-0.13633841,0.106256135,-0.06962789,0.06534068,-0.032576106,0.033024717,-0.11248211,0.07138084,-0.16769175,-0.08252971,0.11157526,0.041521672,-0.18370378,0.01418476,-0.023968682,0.00093480846,-0.0467023,-0.17792405,-0.05697944,-0.0604675,0.113364056,-0.00715668,-0.0686168,-0.0028208152,0.04736444,0.14596692,0.17427988,-0.00077146495,-0.046869155,-0.047225956,-0.04757326,0.09095366,-0.08394977,-0.21683124,0.00076782366,0.049287025,0.11341756,-0.040675994,-0.077172756,0.06339166,0.021516223,-0.060158018,0.22858106,-0.05369464,-0.032778688,-0.15364966,-0.13384727,0.0914767,0.028381877,-0.09424672,-0.13904457,0.069554284,0.027781198,0.036484532,0.12811679,-0.08662673,-0.031992856,0.087589666,-0.12262183,0.23709692,0.04626009,-0.0048612147,0.121112674,0.101204716,-0.06270001,0.08462213,0.06858193,0.0048347767,-0.04362206,-0.067148075,0.18866023,-0.08325557,0.038720142,0.03546147,-0.012548147,-0.16267903,0.019583767,0.050563026,0.013786482,-0.0076243514,-0.028431518,0.02723699,-0.0146095315,-0.079778664,0.109885775,0.05157475,-0.014333724,-0.049156062,0.02141035,-0.04622267,-0.0010006401,0.06631357,0.09990395,-0.025763081,-0.2257758,-0.14038618,-0.17033795,-0.02322195,0.022429595,-0.12105985,0.040731546,0.02229429,-0.15273634,-0.03794314,0.14128774,-0.04846512,0.109707125,0.043768235,0.05563413,0.052886475,0.03125368,-0.0021574679,-0.042674463,-0.206499,-0.05091397,-0.018710546,0.040047117,-0.031513564,0.013066884,-0.0150438845,-0.067983665,-0.019812718,-0.11837646,0.061715126,-0.042289652,-0.047354627,0.0008049291,-0.04041456,-0.033776406,0.09459264,0.028356053,0.027298069,-0.018194243,0.09828745,0.1103552,-0.010279921,0.06993684,0.14194433,-0.057745785,0.06614126,0.1677404,0.081298724,0.09013754,-0.1288065,0.15861537,0.13289368,0.026292093,0.08397044,0.104687504,-0.15890498,0.05729633,0.046617825,-0.02396477,-0.08782521,-0.12531868,-0.03734709,-0.03340802,0.28493792,0.11558751,-0.046152376,0.066440955,0.045424934,-0.09724584,-0.13368309,0.06671198,0.046007764,-0.015336023,0.009826147,0.09597496,0.07040721,-0.0068203597,0.05506772,-0.04362619,-0.07531343,0.111708604,-0.020725504,0.11214277,-0.11393069,0.0209318,0.05922324,-0.017108615,-0.034736548,0.07102245,-0.08717924,-0.06598634,0.0055280905,0.037034992,0.25061736,-0.005779168,-0.01268782,-0.016394077,-0.15684332,0.0062766406,-0.05283128,0.08873621,0.00044860874,0.16858175,0.014852357,-0.04710065,-0.08076245,-0.11209392,-0.05784191,-0.03919477,-0.17904007,-0.13873123,0.06051864,0.08398929,-0.21350688,0.020250456,-0.044042364,-0.094234034,0.13496584,-0.15751077,-0.09192635,0.13526073,0.06345641,-0.072353035,-0.05190649,-0.11077696,0.08721844,0.14030774,-0.07021017,-0.039638475,0.023957811,0.088925585,0.015179618,0.11453177,-0.21140626,0.053601403,-0.05194765,0.06080987,0.02995542,-0.044182997,0.063483015,0.0621038,-0.016819378,-0.10028073,-0.03922211,0.030529609,-0.065151535,0.008116645,-0.20648582,-0.0073004733,0.03563004,0.04727038,0.061543074,0.0049994937,0.18167013,0.17219801,-0.13044582,-0.08868642,0.021382844,-0.120933585,-0.067024775,0.016133565,-0.064928755,-0.035359483,-0.07288934,0.03161648,-0.033836614,0.115172416,-0.048138954,-0.0981014,-0.017015534,-0.0001285248,-0.04246556,-0.038033985,-0.08822344,0.18234545,-0.06293379,0.06367116,0.018460631,0.06516869,-0.16951443,-0.1461271,0.11264185,-0.14498143,0.06748752,-0.14037357,0.060513623,-0.014040774,0.031408325,-0.06866881,-0.024402164,-0.011717954,0.17392229,0.035284173,-0.005831835,0.077170216,0.11309186,0.1644351,0.03699236,-0.1628753,-0.2416595,-0.07838529,0.017372904,-0.018243454,0.11571127,-0.013019714,-0.13965927,0.06217456,-0.035097715,-0.14654508,-0.12610008,-0.07763213,0.033744898,-0.111337915,0.10780397,0.10001144,-0.0024170717,-0.013600884,-0.07969066,-0.12969606,0.027222568,-0.16247305,0.11023491,0.07961267,-0.21533254,-0.059006,0.051669106,-0.056104038,-0.032110587,0.20334257,0.14546049,0.06239093,-0.025680996,0.09670254,-0.0610232,-0.020131245,0.010643258,-0.05198197,0.105719276,0.029631078,-0.008062177,0.19308482,-0.08288472,0.0022947367,0.13769579,-0.06332118,-0.03691289,0.11544687,0.08040791,0.0030602843,-0.00933709,-0.119532,-0.006976319,0.05606036,-0.030142328,0.1806487,-0.030527566,-0.10944561,0.027385188,0.08229612,-0.079134464,-0.023633737,0.113563664,-0.087810084,-0.029408189,-0.055551786,0.002871038,0.07608654,0.18733431,0.04187144,-0.03491443,0.028609758,0.0041471533
