species,0,1,2,3,4,5,6,7,8,9,10,11,12,13,14,15,16,17,18,19,20,21,22,23,24,25,26,27,28,29,30,31,32,33,34,35,36,37,38,39,40,41,42,43,44,45,46,47,48,49,50,51,52,53,54,55,56,57,58,59,60,61,62,63,64,65,66,67,68,69,70,71,72,73,74,75,76,77,78,79,80,81,82,83,84,85,86,87,88,89,90,91,92,93,94,95,96,97,98,99,100,101,102,103,104,105,106,107,108,109,110,111,112,113,114,115,116,117,118,119,120,121,122,123,124,125,126,127,128,129,130,131,132,133,134,135,136,137,138,139,140,141,142,143,144,145,146,147,148,149,150,151,152,153,154,155,156,157,158,159,160,161,162,163,164,165,166,167,168,169,170,171,172,173,174,175,176,177,178,179,180,181,182,183,184,185,186,187,188,189,190,191,192,193,194,195,196,197,198,199,200,201,202,203,204,205,206,207,208,209,210,211,212,213,214,215,216,217,218,219,220,221,222,223,224,225,226,227,228,229,230,231,232,233,234,235,236,237,238,239,240,241,242,243,244,245,246,247,248,249,250,251,252,253,254,255,256,257,258,259,260,261,262,263,264,265,266,267,268,269,270,271,272,273,274,275,276,277,278,279,280,281,282,283,284,285,286,287,288,289,290,291,292,293,294,295,296,297,298,299,300,301,302,303,304,305,306,307,308,309,310,311,312,313,314,315,316,317,318,319,320,321,322,323,324,325,326,327,328,329,330,331,332,333,334,335,336,337,338,339,340,341,342,343,344,345,346,347,348,349,350,351,352,353,354,355,356,357,358,359,360,361,362,363,364,365,366,367,368,369,370,371,372,373,374,375,376,377,378,379,380,381,382,383
Accipiter_gentilis,-0.034280706,-0.03170528,0.03743836,-0.009229279,-0.066327,-0.013689704,0.07350652,-0.12675022,0.04613009,-0.014431377,0.026181651,-0.08257571,-0.03325132,-0.0829327,0.0040456257,0.023207076,0.0960436,-0.029215638,0.01202925,-0.055766676,0.0063913204,0.10021344,0.067094386,0.005544956,-0.05756371,-0.022999302,-0.00039567798,0.05351545,0.052710976,-0.038866837,0.0042758924,0.15911289,0.052294295,-0.0009412516,-0.045258015,0.026128849,0.030969465,0.028058022,0.0050564473,0.018574644,0.057478018,-0.04837628,0.037534073,-0.030382691,-0.08858922,-0.01859175,-0.08201837,-0.07437079,0.037663504,-0.005711535,0.04477097,-0.07128553,-0.0271048,0.025967345,0.014439614,0.023329388,0.009834414,0.06050481,0.06498648,0.05966374,-0.08311435,0.08504557,-0.07416103,0.057994656,-0.008380685,-0.0077856197,-0.0289855,-0.023664221,0.028549626,0.0138276415,0.051004905,0.02463594,-0.015175583,-0.03682988,-0.11107419,0.047124665,0.026691891,-0.10478572,-0.017595228,-0.049729105,-0.07251357,-0.028397724,-0.01443458,-0.010650845,-0.049128823,-0.021418462,0.0025184394,-0.016866958,-0.031461507,0.011922665,-0.03090445,-0.03327042,-0.1069568,0.020797899,-0.06531713,0.03195782,0.020958873,-0.099303864,-0.07989692,0.051546767,-0.013963413,-0.01402861,0.03283312,-0.03982061,-0.06824215,-0.022001656,-0.098664835,-0.06785941,-0.0642353,0.057733793,-0.04401904,-0.014322295,0.00016911219,0.0103747165,0.006065275,-0.058411002,0.019503912,-0.055196457,0.05130102,0.024522934,0.08300485,0.087695286,-0.04483105,0.03501216,0.029951172,0.043816566,-0.07006054,-1.80016e-33,0.07577017,-0.015735403,0.015668608,0.004088639,0.023178782,-0.07406082,-0.004708777,-0.08346129,-0.07979138,0.017900692,0.011206497,0.004436603,-0.014599108,-0.10910085,0.09034883,0.015898205,-0.02670362,-0.012683022,-0.009274185,0.032242328,-0.043982495,0.13869378,0.031984907,-0.016611522,0.08768742,-0.08999614,0.028013004,-0.12495838,-0.021236246,0.030028438,0.047850244,-0.026567627,0.027499842,0.0053067305,-0.029499492,-0.030585479,0.011629404,-0.05977161,-0.08837816,-0.052733924,-0.011526725,-0.060969237,-0.054773092,0.039187007,-0.02847771,-0.033301335,-0.076753445,-0.050333653,-0.017970478,0.08233768,0.082184136,-0.045885235,0.031881917,0.027275773,-0.043909688,0.06254056,0.11301508,-0.1255723,-0.05051835,-0.011791232,0.07045147,-0.019156132,0.04400033,-0.09839432,0.07209079,-0.09655373,-0.07285455,-0.004994921,-0.034302205,-0.019084059,0.045712996,-0.02046718,0.05528158,-0.029221736,0.049139977,-0.0017985443,0.023701014,0.007553509,0.07248499,0.014794032,0.06833043,0.011450407,-0.05161405,0.02843553,-0.02327956,-0.006631783,0.0013340625,-0.048813686,-0.027526347,0.014913736,-0.001676286,0.009286436,-0.014630498,-0.06356684,-0.07701245,-1.1941752e-33,-0.0050104726,0.05142104,-0.0144599285,0.072289035,0.01253158,-0.0011852493,0.053199075,0.068670705,0.019407742,0.018152691,-0.07649215,0.00270643,0.059357222,-0.025182303,0.07839705,-0.055034023,0.04410956,0.10357475,0.113626875,0.0512004,-0.0019262519,0.003617125,-0.043268114,-0.008859569,-0.0049536247,-0.077713355,-0.031094113,0.08666334,-0.016739538,-0.0535537,0.012070247,0.038355213,0.0143780485,-0.0076160575,-0.00935504,0.07697858,-0.010066412,0.03498152,0.030624293,-0.015686436,-0.028305158,-0.019693436,0.080494255,-0.018024648,-0.011034876,0.0226592,0.04190931,0.08008936,-0.087503426,-0.032022066,0.046205223,0.05198991,-0.01041666,0.12987503,-0.029146712,-0.02232097,0.032579403,-0.07161828,-0.020599458,-0.01754814,0.014572462,-0.038324755,-0.0053451667,-0.008972297,-0.009374228,0.030039731,0.018802159,-0.10275923,0.079270646,-0.045943543,0.016523158,0.017032687,-0.05257418,0.0044403686,0.015804145,-0.024031863,-0.10585316,-0.08742738,-0.017452566,0.042526636,-0.03304718,0.028735315,-0.033844218,0.05965548,0.005400985,0.031316448,0.029053967,0.07914847,0.020540655,-0.00666489,0.06551919,0.0551839,-0.0450717,0.003890406,-0.052595742,-3.5458612e-08,-0.044538625,-0.012833232,-0.018240945,-0.101990335,0.0482784,-0.019174436,0.076287985,-0.03440324,0.046866078,-0.003977727,0.0057220445,-0.051536165,0.035436608,0.021895416,0.07871252,0.12266489,0.035601765,0.02328943,-0.0037815382,-0.05606302,-0.027318522,0.04205802,0.013355802,-0.012153239,-0.112664305,0.013097003,-0.045311414,0.02121311,0.0008990542,0.026465481,0.0065453607,0.12250736,-0.07183441,-0.06987466,-0.030452317,0.026561935,0.00223649,0.0069099176,0.07480146,0.046737153,-0.006490992,0.02532204,-0.03174565,0.016558949,0.044196498,0.04388238,0.080733106,-0.091516405,-0.0076856837,-0.06953913,0.007538598,0.06986227,0.027756995,-0.008093489,-0.010332043,0.0413202,-0.026927078,-0.05495637,0.029943768,0.018387027,0.069438465,0.035498843,-0.011249403,0.0402356
Acrocephalus_palustris,-0.06010043,-0.11336841,0.0010455359,-0.023169147,-0.09372483,0.029001923,0.093187,-0.14389752,0.04158072,-0.034118153,0.018543087,-0.08450555,0.011921603,-0.05477423,-0.002022305,-0.019877514,0.07076559,0.046653748,0.011988895,-0.10523197,-0.029208781,0.08201969,0.021299448,0.018860606,-0.014861256,0.06080175,-0.1115526,0.04060818,0.05432937,-0.076238126,-0.02526533,0.073122814,-0.012111329,-0.0032256031,-0.059688948,0.054399133,-0.059816908,0.03442765,0.048803385,0.028317526,-0.0059052366,0.046493456,-0.033322293,-0.013323915,-0.053725965,0.052168053,-0.05651836,0.008524721,-0.011386078,0.011542156,-0.08123325,-0.09129974,0.01429422,0.060903896,-0.004716908,0.046754155,0.035114232,0.05950912,0.01804424,-0.0054920334,-0.10711685,0.028553357,-0.053407304,-0.018429175,0.0026000405,0.046824105,-0.04520608,0.038464587,0.03343571,0.076477185,0.019796306,0.0043533193,0.00875855,0.049860235,-0.022597957,-0.0367685,0.047429398,-0.11746961,-0.020804847,-0.040331054,-0.059344478,-0.044550225,0.032589585,-0.06858662,0.008801401,-0.047987357,0.013450996,0.02431714,-0.041650955,-0.04805139,-0.017910749,-0.045366425,-0.035277367,-0.019583814,0.106439,0.07925774,0.023611128,-0.024610624,-0.021342346,0.027899224,-0.01874726,-0.009102783,-0.024356488,0.07408761,-0.022480927,-0.10037525,-0.0071109626,0.022811087,0.02504112,-0.004941589,-0.020685893,0.051393684,0.014642529,-0.0018170432,-0.01619761,-0.02897738,-0.13862473,0.00582529,-0.049280405,0.098427996,0.060495563,-0.010320753,-0.11359262,0.003193896,0.0751378,0.01818653,-0.03747843,1.6950092e-33,0.08418943,0.07247845,0.03607468,-0.0062184194,0.040813122,-0.02776305,-0.069534846,-0.022243727,0.062094796,-0.009589241,-0.0115770595,-0.036592178,-0.07452981,0.053350046,0.036789782,-0.06328096,-0.035817083,0.057837095,-0.04076589,-0.03335558,-0.0037080413,0.10158951,0.010146074,-0.11184832,0.04435049,-0.020289242,0.021956937,-0.05405238,0.030140944,0.062785394,0.03307655,-0.062214527,-0.013295531,0.04217197,0.000216322,0.0055217855,-0.008477121,-0.017848814,-0.013675806,0.00601776,-0.010623239,0.0052817175,-0.029713936,0.02616897,-0.0747563,-0.06758941,-0.0143496785,0.04060349,-0.029195832,0.023064854,0.08997308,0.018932931,0.022508321,-0.0211126,0.025698207,0.034696177,0.08201157,0.012334794,-0.042986855,0.113439,0.026201386,0.014565097,0.0920919,-0.06795829,0.08757746,0.011894529,-0.10631682,-0.07417582,0.06320949,-0.05331632,-0.026493259,-0.038899507,-0.0019231118,-0.064116605,-0.003781355,-0.037531022,0.10084196,-0.00469217,0.03925584,-0.07626223,-0.06538508,-0.042357214,-0.023075089,0.029659152,-0.060753163,-0.06640733,0.031078018,-0.10327785,-0.026303453,-0.05293246,-0.005033382,0.031775527,-0.002928524,-0.063248105,-0.06357915,-2.9863333e-33,-0.0016989456,-0.0023508887,0.0063541993,0.124248646,0.015636612,0.035964146,0.015548224,0.06557693,0.02496993,-0.002893078,-0.023560908,0.021921454,-0.025229713,-0.066545054,-0.03682173,-0.024772309,0.11653121,0.10995874,0.09034116,-0.033932947,0.020589571,-0.04319005,0.03839328,-0.020303586,0.0061763674,0.019125244,0.0032105264,0.011757401,-0.0044041183,-0.03611347,0.071129136,0.004736924,0.0075656595,-0.09685955,0.027644921,0.070355214,0.001850786,0.07307142,-0.07020271,0.016461438,0.026203485,0.0032152275,0.062436707,-0.051457368,-0.016208533,0.006979581,-0.061370306,0.053783465,-0.04849976,0.031628765,0.10997951,-0.03718026,0.0045307754,0.041236635,-0.026829684,-0.04824106,-0.017573908,-0.07413315,-0.071238935,-0.015056585,-0.007967937,0.027065178,-0.004020853,-0.0046490966,0.056069605,-0.030612564,0.013445571,-0.08840223,0.10701631,-0.03501216,0.033447642,0.013107613,-0.12553959,-0.010882233,-0.07791765,0.0062428387,-0.053814087,-0.078309,-0.07215448,-0.014122166,-0.032105133,0.02669607,-0.004452628,0.022301348,-0.044697173,0.052526478,0.0009702884,0.03619528,0.061115913,0.029539062,0.064265035,0.073998354,0.03842128,0.0787321,-0.0059501124,-5.2173966e-08,-0.045039274,-0.016786642,0.024877606,-0.008192993,0.07445863,-0.042483978,0.08049795,-0.06905905,-0.02109353,-0.06788267,0.07378131,-0.058590334,0.07973783,-0.05701858,0.060679942,0.027499855,0.011431069,0.03308809,-0.054123092,-0.032026254,-0.028905077,0.042007565,0.011511214,-0.05368235,-0.06108448,0.04806157,0.013458,0.009377453,0.03048267,0.026375838,0.0026064003,0.09293968,-0.012144944,-0.07825196,-0.0482251,-0.018488709,0.0012679324,0.038499095,-0.017121632,0.04559659,-0.019928169,0.01959315,0.034630556,0.0740121,0.015352285,-0.07876545,0.036043897,-0.09755751,0.05437803,-0.03695993,0.052216165,0.077022575,0.041957956,0.035145566,-0.032971967,0.10705008,-0.06395468,0.0051319036,-0.009093738,0.0016797717,0.052193765,0.003572372,-0.0011349049,0.071956396
Acrocephalus_scirpaceus,-0.0366138,-0.049323604,0.00920697,-0.04441103,-0.12445646,-0.0065477346,0.11304524,-0.045185506,0.090722784,-0.05007039,0.024608774,-0.08867341,-0.028995518,-0.08881844,-0.008499977,-0.037544727,0.021898203,0.013463849,0.02156125,-0.093643084,-0.066655695,0.039121248,-0.008192392,-0.021380385,0.02128908,0.029932162,-0.08642708,0.06190762,0.04446913,-0.026153035,-0.030260839,0.13205765,0.033672303,0.025332538,-0.020884927,0.044203587,-0.09243933,0.009186453,0.04070953,0.1029743,-0.017286556,-0.020990796,-0.028001038,-0.05733893,-0.05471935,-0.020295354,-0.036595516,0.011199752,-0.051633254,0.02429845,0.0027873558,-0.001769317,0.009559279,0.09917719,-0.039595447,0.061968535,0.066085234,0.08742714,0.013126323,0.013614469,-0.01930182,-0.0079993615,-0.041545335,-0.047331285,0.022994263,0.030875107,-0.09919151,0.02748188,0.020086436,0.13902684,-0.01479984,0.035280745,0.007708356,0.09763684,-0.066979945,0.014844758,0.0541901,-0.1166631,0.013655248,-0.011498219,-0.031434983,0.0009565489,-0.0055985814,-0.07036411,-0.017768266,-0.04046975,0.040412176,0.00086707127,-0.049173407,-0.041740872,0.037945453,-0.020894075,-0.02916031,0.04805008,-0.007437137,0.03034608,0.048669323,-0.023392508,-0.06866734,0.03622495,0.020170748,-0.006882543,-0.051445697,0.06858238,-0.035253793,-0.014018893,-0.011642883,0.060977448,-0.033228032,-0.057901878,-0.05873361,0.025419872,0.029939039,0.0035532443,-0.024699211,-0.021343125,-0.094225295,-0.010677882,-0.00042676617,0.08917169,0.06503754,-0.014414405,-0.1386824,0.0033668345,0.048321523,0.0025455072,0.014630141,6.396888e-33,0.08796402,0.09492192,0.018253403,-0.04024366,0.107307106,-0.025845718,-0.1280364,-0.025532015,-0.06803287,0.019474678,-0.0087299,-0.058855392,-0.050681785,-0.0009186354,0.101549834,-0.045919284,-0.055107787,0.02377957,-0.004454789,-0.028392913,-0.044535078,0.09711474,0.032309618,-0.051064424,0.016640015,-0.050643254,-0.035312086,-0.056126557,0.017886247,0.04173184,0.007246731,-0.009766142,0.024959369,-0.011334008,0.0055794944,0.009901294,0.008314477,-0.001261792,-0.120092,0.019755503,0.022453008,0.027552193,-0.027577356,0.0064481082,-0.02114812,-0.07106981,-0.024254283,0.051893536,-0.016826872,0.035396174,0.070606716,0.011185825,-0.003503136,-0.032469608,0.06947985,-0.021624759,0.10890634,-0.010594342,-0.018079223,0.06104067,0.04285116,-0.07462316,0.08902702,-0.09023807,0.012664044,-0.01658436,-0.04939227,-0.052398205,0.008520407,-0.07449228,-0.06975666,0.0199443,0.044615217,-0.03234609,0.022026911,0.005918296,0.06231608,-0.059802916,0.032810453,-0.068324216,-0.01592621,-0.039298978,-0.0058748154,-0.050661832,-0.009000187,-0.07153578,0.006966525,-0.1267061,-0.071279176,0.034144375,-0.07803907,0.052365735,-0.016519794,-0.030826364,-0.042711753,-6.056982e-33,0.045657642,-0.011466012,-0.011204024,0.089060836,0.0003777764,0.046123497,-0.03347444,0.028907808,0.0070209275,-0.0035328248,0.04572965,-0.005071049,-0.013190289,-0.029803712,0.06316295,-0.07398044,0.0990249,0.11652984,0.016673125,-0.0006113105,0.073629186,-0.07497528,-0.039077085,0.016642723,0.0261041,-0.010860093,0.037259076,0.030164206,-0.013982912,0.0016584961,0.08566396,-0.034981847,-0.025816517,-0.027115654,0.017821502,0.0995729,0.054498676,-0.031997696,-0.015481232,0.0385951,0.015920274,-0.034053277,0.04212619,-0.052473575,-0.05103194,-0.048766028,-0.07398551,0.09437561,-0.06256839,0.02229817,0.15363745,-0.06550822,-0.0023115333,0.082247786,0.005891119,0.0034758202,-0.040971495,-0.05048416,-0.07460035,0.009900298,0.014640182,0.0108059365,-0.056491204,-0.044600613,0.06541602,-0.020377759,-0.015951721,-0.029568428,0.07800483,-0.016197402,0.0023221383,0.03364603,-0.1277044,-0.032798383,-0.032433182,-0.016940514,-0.06020929,-0.0359336,-0.038807742,-0.038207132,-0.092324205,-0.046739582,0.026982673,0.016777903,-0.085156664,0.059265926,-0.036793496,0.056010693,0.041914016,0.071890295,0.041612208,0.032164045,0.04798105,0.052475385,-0.0076522534,-5.6504277e-08,-0.017422555,-0.013671861,-0.06409979,0.012259875,0.10439873,0.0061320374,0.07807316,-0.11117131,0.021168904,-0.007261917,0.078486234,-0.06592923,0.03621673,-0.0048371945,0.032866824,0.0613035,-0.016795114,0.0017668962,-0.020251775,-0.015316881,-0.042494293,0.04749763,0.02641956,-0.019031875,-0.03349345,0.035356257,-0.025347937,0.058299772,0.04267358,0.020784328,0.056615207,0.06574388,-0.014496116,-0.045936868,-0.0582095,0.018775508,-0.013155992,-0.021614876,-0.043372776,0.08237572,0.061409086,0.053075995,-0.047237217,0.058752425,-0.042771608,-0.029044604,0.076023325,-0.058323756,-0.02450456,-0.05629064,0.0057427366,0.057057746,0.03294277,0.041530844,0.010345424,0.12069462,-0.025626402,0.046765707,-0.050716914,0.014979306,-0.0008235,0.005285628,-0.0103931585,-0.0010567155
Aegithalos_caudatus,-0.024761131,-0.07107111,0.004857759,-0.037362784,-0.092420384,-0.009998979,0.13922785,-0.0059511675,0.021880884,0.006232034,0.051341113,-0.050308276,0.0011343409,-0.045991424,0.048300643,-0.04890747,0.03221924,-0.037726738,0.035406426,-0.055032767,-0.054625977,0.08240704,-0.009107897,-0.0029718115,-0.0071348567,0.034670487,-0.006839224,-0.0089636585,0.039423462,0.0058059716,0.014173448,0.12256681,-0.08450571,0.012340094,-0.024951294,0.0132758925,-0.022205647,0.0013513898,0.039280884,0.06914349,0.034423184,-0.03325607,0.03425423,-0.084393345,-0.024498662,-0.0021954712,-0.09486771,-0.019986173,-0.058931656,-0.0018700665,-0.020763984,-0.034945104,0.036928773,0.082284704,-0.013409878,-0.006435563,0.07127238,0.062479973,0.03721947,0.04908272,-0.019740496,-0.0020606285,0.012359104,-0.019083304,-0.05815841,0.071398176,0.0038514927,0.034941137,0.08391157,0.071637735,-0.017337557,0.0011785541,-0.008170051,0.010835471,-0.056761578,-0.054168243,-0.008066971,-0.09814387,-0.0039489237,0.0014072865,0.013072142,-0.03590402,0.0005980004,-0.082749106,0.035406962,-0.040864654,-0.015950296,0.01777122,-0.09712637,-0.028397206,-0.025021669,-0.014159368,-0.02917109,0.0020460235,-0.043924768,0.019785237,-0.035422064,-0.10085406,-0.077381976,0.018126441,-0.000586172,0.0071380795,0.03397396,0.064907216,-0.055332527,0.017523207,0.014535402,0.062001575,0.031617805,0.029982546,-0.14201656,-0.027188051,0.02767235,-0.06302379,-0.03614275,0.0244266,-0.07514305,-0.02760956,-0.00064804504,0.025051076,0.12401384,-0.0004260984,-0.07906283,0.023962192,0.02922058,-0.0038702842,-0.049308084,1.4037602e-33,0.08662258,0.123164795,-0.051053386,0.019068837,0.005684664,0.009961809,-0.052875772,-0.080439,-0.0009463494,-0.009676729,0.05828964,-0.05125297,0.014975713,0.03182644,-0.0077733076,-0.04811518,-0.06318951,0.04406362,-0.0026100578,-0.032919142,-0.01935016,0.14558788,0.03256033,0.0034448206,0.0799864,0.047705777,-0.04385873,-0.077396154,0.008452854,0.053270772,0.043077566,-0.022676235,-0.007349026,0.045017987,-0.022993485,-0.0014163101,-0.029553296,-0.036793064,-0.027409472,-0.0067559653,-0.028732106,-0.011972424,-0.044994265,0.05356021,-0.0010399696,0.049549446,-0.033561077,-0.018754715,-0.050054863,0.024069423,0.012803258,0.027102696,-0.029904455,0.09399395,-0.020301336,0.035632994,0.062423274,-0.05400454,0.04618319,-0.02424091,0.095263675,0.01866825,-0.015383008,-0.10278213,-0.0013904414,-0.028663946,-0.12691844,-0.069946796,0.076809116,0.037993576,0.021910599,-0.010604803,0.0822115,0.05113511,0.005313308,-0.017596575,0.01873198,-0.024656165,0.032668535,0.012898119,-0.004949579,-0.07486431,0.0484069,-0.011185733,0.05228933,-0.04688951,0.00058509485,-0.12126272,-0.09205976,0.006588228,0.004412451,0.07306912,-0.011529934,-0.045091838,-0.13061512,-1.016964e-33,0.0139639275,0.10689334,-0.06425741,0.09218026,-0.032970242,0.03691594,0.015171853,0.01632691,0.047727704,-0.007221323,0.033603806,-0.051027216,-0.019371493,-0.011581157,0.1468554,-0.05690213,0.11960601,0.033343192,0.091270745,0.031359915,0.052761603,-0.10206599,-0.04713665,0.033118933,0.020973818,-0.02460929,-0.01990855,-0.08947441,-0.0032736182,-0.0005533191,-0.021387834,0.00077428,-0.05178994,-0.057481788,0.023803903,0.07715494,-0.021012632,0.045419626,-0.065591335,-0.0123462165,-0.022424074,-0.04483169,0.09702241,0.0010769222,-0.04168443,-0.008388347,-0.060500134,0.072795145,-0.08016392,0.038838778,0.060339574,0.019165747,0.025089854,0.055940382,-0.047109276,-0.053007957,-0.042145666,-0.030497812,-0.07380417,-0.044262085,0.09616358,0.030682968,-0.06073174,-0.003652396,0.046533324,0.01572369,-0.0067422753,-0.10881338,0.119323246,-0.00513918,0.07054252,0.03023562,-0.063889176,0.012578055,-0.014255605,-0.05305358,-0.1290541,-0.074177064,0.014924462,-0.053434197,0.032380313,0.050661918,0.050027993,0.008590619,-0.082990006,0.03541077,-0.04895236,0.07883921,-0.0007602368,-0.053763025,0.02969029,0.05635295,-0.017631738,0.009448908,0.0113494415,-3.7485215e-08,-0.029791672,-0.06495915,-0.0247917,-0.05198414,0.057627253,-0.030074451,0.10335499,-0.034473848,-0.0018457752,-0.016844103,0.044509556,-0.047264613,0.030183986,-0.029834062,0.06570568,0.05557412,-0.00028493642,0.07416634,-0.04206823,-0.004637796,0.0018464177,0.0625657,0.0052069654,-0.0022496562,-0.11000668,0.04844532,0.034427356,0.02839604,0.0059839333,-0.03267536,0.007946279,0.05248793,-0.05130919,-0.072598815,-0.06330169,0.055809468,-0.028670529,0.006842042,0.013659093,0.040948246,-0.01641881,0.09146395,-0.0016815042,0.050460976,-0.0022976554,-0.03745833,0.054751415,-0.0853281,0.038924396,-0.074011244,-0.010654957,0.073610574,0.026946358,0.041972578,-0.00023083686,0.022993863,-0.032843396,0.05430364,-0.020576037,-0.00841757,0.07328524,0.07606697,0.007823773,0.053393506
Alauda_arvensis,-0.03764723,0.012086649,0.07616475,-0.026195498,-0.031633306,0.025816107,0.08288284,-0.030250872,0.020251524,-0.010277079,0.0046756207,-0.060905654,-0.049806207,-0.06501169,0.0049887146,-0.010866548,-0.007580189,-0.004482467,0.0184972,-0.08888279,-0.027019339,0.05489011,-0.008349685,0.039382137,0.0167203,0.051991053,-0.028662324,0.039463535,0.047080226,-0.019991491,-0.016517585,0.08472162,0.032314293,-0.051986314,-0.00092457945,0.072206855,-0.015324292,0.0407004,-0.00453655,0.08762355,0.053089097,-0.035311487,-0.0009046587,-0.09124944,-0.042946935,0.04211917,-0.08870271,0.005417127,-0.030738996,0.07205523,-0.025914678,-0.021661198,-0.03081207,0.025829129,-0.0452823,0.057920292,0.09286556,0.008783163,0.022211634,-0.04899783,-0.09221068,-0.039114174,-0.047845278,0.003317913,0.01925516,-0.028546771,-0.0073521836,0.019542672,0.011788597,0.07437519,-0.056126405,0.056556307,-0.0698612,0.009906893,-0.025036825,-0.00010000106,0.028642097,-0.13670689,-0.059043877,0.03011647,-0.014898564,0.013689615,0.007391613,-0.050401364,-0.05340151,0.003736703,0.03579122,-0.048479673,-0.036629137,-0.0806014,-0.061113726,-0.09100531,-0.1221939,0.097240925,-0.011270785,0.12711413,0.009068166,-0.031504657,0.012446702,0.046692804,-0.031343658,-0.019586762,0.00068079,0.0053006425,-0.0894377,-0.061940253,-0.10074222,-0.009910674,-0.046265785,-0.048853908,-0.027394822,-0.038683668,0.015497617,-0.047057714,-0.0011425785,-0.005399199,-0.1140214,-0.009703248,-0.023858748,0.08764477,0.034136675,0.09277963,-0.0378751,0.053727027,-0.00875805,-0.02945699,0.049175594,3.7250943e-34,0.0587807,-0.065237164,0.04542473,-0.08315401,0.13154098,0.0057159313,-0.04720517,-0.025986265,0.006512124,0.013089209,0.020771429,-0.06834131,-0.029803641,-0.04831004,0.012438831,-0.10585638,-0.0067870617,0.044168387,-0.0037774467,0.04449362,0.01097266,0.056287944,0.042127673,-0.055296518,-0.004499344,-0.030141065,0.019230107,-0.042908028,0.00989038,0.04249158,0.07728472,-0.049056955,-0.018031964,-0.04178083,-0.07840074,0.01451738,-0.053800605,0.0063017933,-0.012603363,-0.02583507,-0.021093491,-0.012926143,-0.0054839975,0.016554259,-0.06892106,-0.030605396,-0.04529917,0.097622745,-0.05051376,0.0572492,0.10422772,0.0122402245,0.04924017,0.048492357,0.029277068,-0.053357296,0.04151013,-0.037959293,0.0045764996,-0.022451319,0.074331336,0.06457247,0.046039436,-0.107678615,0.03301188,0.038603283,-0.008828406,-0.0046868743,0.06363913,-0.028038954,-0.035976924,-0.008764785,0.026565641,-0.002324129,0.022641877,-0.005074937,0.045142785,-0.008996044,0.12116088,-0.029968595,-0.05910118,-0.032383967,-0.08082795,0.04221918,-0.01088953,-0.06651208,-0.0015079575,-0.03350906,-0.019619158,0.03687592,-0.023355192,0.038289968,-0.027909253,-0.013122084,-0.06504054,-2.449783e-33,0.120024905,0.033831757,-0.009497914,0.14218204,0.035891216,0.01471901,0.05090729,0.09805132,0.023641722,0.011400624,-0.047328208,-0.029786266,-0.017158864,-0.035279498,0.09892282,-0.039805546,0.029491039,0.15196702,0.13418953,0.039042767,-0.033590417,-0.08103187,-0.072987,0.027973013,-0.01708636,0.005647685,0.053469636,-0.028329194,-0.0422233,-0.024803832,-0.016250605,-0.027844097,-0.05327869,-0.051296573,-0.09515423,0.0725424,0.009439105,0.02022892,-0.022893818,0.030039957,-0.03014312,-0.009398807,0.071054526,-0.0005882562,-0.022505108,-0.008603876,-0.061887544,0.12599657,-0.017821435,0.058780715,0.05458875,0.05338879,0.055124044,0.027932586,-0.029365106,-0.065518856,-0.07662292,-0.07078202,-0.07163374,-0.0016061126,-0.003168829,-0.025298307,-0.035992872,-0.0038281723,-0.00023465922,-0.063901655,-0.019260742,-0.14077426,0.020397913,0.03090357,0.05043801,-0.0069981217,-0.07802688,-0.0008493085,0.02627886,-0.012177895,-0.065035954,-0.06705917,0.0121762995,0.006795254,-0.08087636,0.018996483,-0.00726074,0.036756746,0.014768945,-0.00088150124,-0.014705049,-0.0031558904,0.062260024,0.01124162,0.09360112,0.08095648,-0.025343897,0.054364596,0.06107225,-5.7245796e-08,0.003250245,-0.04258254,0.03126591,0.021759426,0.08924065,-0.07260988,0.13849111,-0.060952943,-0.006897222,-0.020281278,0.12479532,0.025987376,0.06619463,-0.01290008,0.07647123,0.027878603,0.06729737,0.012651246,-0.05434939,-0.07505438,-0.068767816,0.018984491,-0.0053966176,-0.08819429,-0.069227554,0.028324593,0.057843257,0.03904922,0.020474344,-0.051490285,0.021220548,0.062295005,0.037855074,-0.05076687,-0.05608754,-0.03279055,-0.040072136,-0.006694803,-0.05212992,-0.01102326,-0.019488852,0.039389167,0.030889003,-0.019713115,-0.025350908,-0.027305042,0.03307998,-0.031820532,-0.033892296,0.014711642,-0.01583365,0.050661504,0.037604474,0.032588653,-0.014542588,0.109772526,-0.06560733,0.002532311,-0.031132538,-0.03518035,0.027046362,0.003116411,0.02565575,0.016649285
Anser_anser,-0.03798027,-0.109928146,-0.019498937,-0.016792038,-0.1350609,-0.0359437,0.0531012,-0.06770745,0.064949244,-0.027619876,-0.015589373,-0.10970853,-0.032349825,-0.037649564,0.089021556,-0.0896197,0.045607913,0.041476153,-0.04690696,-0.065211095,0.055391267,0.13173468,0.017484115,-0.03211113,0.009572809,-0.026160412,0.01848527,-0.037269365,0.084468946,-0.094843335,-0.019160084,0.076865695,-0.0187015,0.019208385,-0.046868246,0.071297355,-0.07476228,0.035833195,0.0023236922,0.052846286,-0.009277118,-0.015028864,0.056198563,-0.004617,-0.0020180976,0.020846572,-0.08799247,-0.006468299,-0.0063820826,-0.050482363,-0.015471839,-0.07576069,-0.033993386,0.08463717,-0.0009620873,0.015980719,0.00079911866,-0.0016921883,0.023100438,0.09264431,-0.054825485,0.0014705361,0.017837938,0.0009939341,-0.04537776,-0.002559316,-0.017722204,0.021498712,0.03247198,0.108452626,0.021669053,0.041236296,-0.06274482,0.040044267,-0.0919612,0.008745827,-0.0125936465,-0.054732453,0.023724945,0.024852626,0.04680144,0.048003763,-0.008435774,-0.03920228,0.024477225,-0.01936864,-0.015362142,-0.05079127,-0.12837814,0.006389862,0.025350986,-0.020625679,0.054482024,0.06425342,-0.019830821,-0.0022421272,-0.02169464,-0.033778623,-0.07991282,0.008180951,-0.02854383,-0.0061237495,0.03299899,0.009619602,-0.0024366826,-0.008285466,-0.08954606,-0.039692193,-0.022661574,0.0036501032,-0.040367898,-0.007945738,-0.020091383,-0.05320476,0.06090842,-0.03305731,-0.041489515,-0.10335409,-0.028147705,0.031433113,-0.01938522,-0.025326693,-0.06247751,-0.01671194,-0.0131109115,0.028932616,-0.040326055,2.5074772e-35,0.06347217,0.0950688,-0.0411971,-0.023419902,0.002279193,-0.042213388,-0.07108004,-0.04726253,-0.014035019,0.121559046,-0.034243647,0.13408679,-0.07689613,0.04999622,0.017000474,-0.041913483,-0.09223619,0.016894586,-0.048242297,-0.018694986,-0.06167276,0.15940163,0.032953247,-0.031121898,-0.008204189,-0.11292514,0.026097339,-0.12729292,-0.112957284,0.019234564,0.012201739,-0.09499576,0.047663335,0.033262547,-0.03401118,-0.065422714,0.0315699,0.024378479,-0.022025652,0.036454465,-0.014954959,-0.037145503,-0.04808453,0.09502008,0.03499381,-0.0063474076,-0.080612265,-0.009967147,-0.010282081,0.031244112,0.074935414,-0.02663188,0.04902666,0.07962022,0.006907504,0.027116887,0.09969903,-0.00090806244,0.00037113437,-0.003761857,0.0041648517,-0.020275373,0.027290672,-0.050309636,-0.03133847,-0.02799601,-0.10613455,-0.016423188,0.044961035,-0.038953573,0.051325403,0.0011586987,0.012964818,-0.05874916,-0.01775973,0.010505976,0.0255023,0.04726099,0.03954804,0.021474374,0.06402,0.047830194,-0.013437605,0.045132864,-0.052192945,0.073657766,0.010563195,-0.07712387,0.00085663225,0.108253315,-0.04324435,0.06002644,0.01623526,-0.114381276,-0.023056334,-8.203293e-34,0.078256175,0.03142517,-0.06869487,0.13373415,-0.007675002,0.0039240066,0.049760267,0.06665556,-0.021937793,-0.021796383,0.009612377,0.015694177,0.0705075,-0.05286487,0.12500186,-0.10841768,-0.0038247094,0.103109114,0.091445446,0.0126514,0.031839635,-0.07668806,-0.0917657,-0.028393937,0.01404246,0.010252927,-0.05708305,-0.014056372,0.008093582,-0.041127343,0.017446326,-0.03496361,-0.010362604,0.018651137,-0.05392409,0.0043419437,0.085992076,0.034091868,-0.04234519,-0.057330012,-0.02581153,0.017045032,0.05751788,-0.006286206,-0.011277751,-0.0370881,-0.03636084,-0.04372641,-0.01955214,-0.005898107,0.06488801,0.012750156,0.0049768197,0.13569124,-0.06391362,-0.04602701,-0.01915815,-0.059218556,-0.019678388,0.06147095,0.0076933173,-0.040471498,-0.02337102,-0.02738822,0.0949554,0.016843902,-0.017061936,-0.06645194,0.05807543,-0.03872871,0.01268086,-0.00493568,-0.026765326,-0.023813736,0.031628903,0.009409549,-0.062467597,-0.08689188,0.0014548865,0.040821806,-0.041023985,0.0014079759,-0.051298812,0.038443502,-0.030414585,0.080582656,-0.013487496,0.033839196,0.058880705,0.037967425,-0.0045652497,0.06488488,-0.030556923,-0.03335754,0.013207343,-4.382297e-08,0.0043155462,-0.007601281,0.002719564,-0.00063682924,0.1018783,-0.08009457,0.01978398,-0.04382976,0.045656163,-0.022599781,0.014296522,-0.020237785,-0.004918044,0.013122438,0.04503555,0.046431813,0.023302179,0.08574845,0.039254762,-0.0014688325,-0.011659877,0.09082747,0.02442004,-0.013043209,-0.0709409,0.036059547,-0.021201327,0.08045447,0.029104851,0.054572184,0.005913917,0.07113034,-0.019022183,-0.088512,-0.036524247,0.07099207,-0.078850694,-0.046160124,0.010830067,0.006519538,-0.05015182,0.010697197,0.022051647,0.04798944,0.0045090057,-0.059674773,0.08595524,-0.05785192,0.040562894,-0.021033835,-0.019815408,0.056714773,0.0063022133,0.03122526,-0.03029582,0.053669084,-0.014057426,0.008717765,0.0030132674,0.04916041,0.0661353,0.009922368,-0.025314549,0.056950673
Anthus_pratensis,-0.07039448,0.014978506,0.0602362,-0.01056622,-0.05641746,-0.026689619,0.13740413,-0.039612282,0.06939051,-0.036976967,-0.0092475135,-0.037244033,-0.029811842,-0.0712185,-0.033177085,-0.034749743,0.0005882309,0.014986916,0.012490373,-0.06783093,0.0041088415,0.06023054,0.031439956,0.060101155,-0.025707435,0.033972863,-0.07685204,0.058454033,0.03806,-0.050880574,-0.004986728,0.14312378,-0.019432662,-0.008842885,-0.025963956,0.06907721,-0.00132771,-0.0029827068,0.005227638,-0.025122158,0.07627782,0.01013998,-0.0581262,-0.050239325,-0.019127067,0.034080524,-0.10652603,-0.006740287,0.008426051,0.06597636,-0.07373421,-0.038193613,0.038206406,0.00070753583,0.035492867,0.060479544,0.07392555,0.04229802,0.033753045,-0.10587365,-0.012749094,-0.04619029,-0.029943233,-0.003400602,0.01256885,-0.039507296,-0.03177815,-0.0011134619,-0.023425018,0.08927931,0.069895215,0.0061368174,-0.09697317,0.024390731,-0.06296527,0.07880387,0.027288223,-0.06958174,-0.07018376,-0.022807457,-0.03513464,-0.010840291,0.05891322,-0.13179256,-0.041277673,0.019912576,0.022716787,-0.045998774,-0.056008082,-0.0061944453,-0.020612866,-0.01746521,-0.060769964,0.02065802,0.03185058,0.0024761911,-0.0106823435,-0.07356967,0.01598563,0.060893975,0.073110595,0.014751212,0.08169719,0.064631924,-0.006661077,-0.045274034,0.023401294,-0.025172694,0.026057359,-0.011380156,-0.024928663,-0.057713103,0.03356524,-0.008864136,-0.039964672,-0.022889493,-0.05671537,0.0050911107,-0.020697908,0.087285385,0.091986425,-0.026173113,-0.07898778,-0.019840444,-0.014253739,-0.021173866,-0.051861137,6.6596655e-33,0.034313105,0.023473062,0.010476827,-0.015992422,0.17010069,-0.049335755,-0.10064444,0.019472007,-0.025699167,0.060749363,-0.09068575,-0.04704923,0.0463647,0.035599187,0.02809856,-0.110238835,0.022999298,-0.048169803,0.023785781,-0.049954962,-0.04426745,0.0758942,-0.006122318,-0.048256345,0.07097631,-0.037793417,-0.022366537,-0.128184,-0.008565754,0.023663064,0.07813215,-0.04853144,-0.012153661,-0.02492569,-0.03732868,0.015360849,0.013461781,-0.02458825,-0.035800785,-0.0304485,0.03220449,-0.028585786,0.0070034782,0.02771073,-0.07487279,0.014684971,-0.06227825,0.018395094,-0.01609432,0.013157311,0.050502174,0.02989188,0.03838791,0.016232848,0.017025772,-0.007927141,0.07460121,-0.040564463,0.009182037,0.018135987,-0.028570889,-0.0044209138,0.04855242,-0.053804122,0.059340455,0.011147599,-0.030414248,-0.023486186,0.024704175,0.036678515,-0.11664488,0.038172185,-0.0033416587,-0.012901644,-0.02700238,-0.026961837,0.0054026716,-0.0958467,0.07445916,-0.012775465,-0.0916825,-0.011712826,0.07883311,0.012827245,0.010394251,-0.03761825,0.038246647,-0.09858521,0.0090066595,0.045797154,-0.06586484,0.0663719,0.004653367,-0.054850966,-0.06444085,-6.360786e-33,0.013173571,0.022253297,-0.028245717,0.12581716,-0.011602993,0.0093554435,0.008414561,0.069101706,0.03858135,-0.08971633,-0.039338462,0.018087931,0.037642792,0.014789793,0.086326115,-0.0064149946,-0.02128159,0.06842445,0.1142155,0.032609984,0.000422192,-0.09974028,-0.014089101,-0.015741294,0.0054225763,-0.01275965,0.04656855,-0.024714196,0.03684998,-0.029272819,0.016525086,-0.030939616,-0.054058034,-0.07881511,-0.021507012,0.021958778,0.049903974,-0.012798672,-0.06511978,0.048712645,-0.020261336,0.028857298,0.031491954,-0.008738645,-0.0010998854,-0.07278264,-0.0051863315,0.1387364,-0.16538295,0.026319707,0.06942906,-0.062080327,0.03034331,0.11291509,0.018729145,-0.037388355,0.074845634,-0.025713231,-0.123440094,-0.003737486,0.049717154,-0.0023336718,-0.040338926,-0.045001127,0.04000397,0.02562652,0.035845306,-0.05974911,0.0790135,0.0069175833,-0.009362373,0.01386275,-0.0780306,-0.013880405,0.009086109,0.006200211,-0.021350354,-0.03502037,0.034160454,-0.0330119,0.013121124,0.020982627,-0.01294796,0.060123373,0.013158484,0.0205889,-0.0028609869,0.0663928,-0.013351333,0.048096947,0.030455275,0.010011772,0.034553736,0.105450906,-0.03578511,-5.7194985e-08,-0.074994996,-0.0034380304,-0.035249617,0.01470458,0.11695923,-0.04414091,0.08299573,-0.13749346,-0.02224535,-0.09683928,0.052755322,-0.049651712,0.04358952,-0.0648065,0.0028431136,0.111055225,-0.03755052,0.027015079,-0.04555385,5.9899226e-05,-0.026555743,0.08916621,0.008968386,-0.06559163,-0.056395724,0.018077374,-0.0071367,-0.0012035301,0.013287558,-0.038520966,-0.027064692,0.05273212,0.020782087,-0.061167687,0.008284398,0.0059769927,-0.01115467,-0.012265898,0.08391294,-0.0013601038,0.020477958,0.06690012,0.06277748,0.0036978135,-0.068098515,-0.08298205,0.035888612,-0.017794078,0.0013370306,-0.036648624,-0.053510636,0.098712444,0.047143657,0.054019213,0.018222092,0.11093377,-0.0068186824,0.03335712,-0.012579336,0.029869508,0.020696621,0.010233977,0.022176588,-0.033414513
Anthus_trivialis,-0.045776576,-0.019579956,0.007922273,-0.03875978,-0.08971373,-0.0024819293,0.16169259,-0.022155058,0.122742765,-0.06382062,0.017940585,-0.05299737,-0.030659022,-0.03672031,-0.02134767,-0.061370917,-0.03501947,-0.011067932,0.009970745,-0.084853545,0.07466387,0.110212974,0.021198533,-0.0016610028,-0.025373485,-0.04143961,-0.026965715,0.029035661,0.03441878,-0.062927835,-0.025092375,0.14679332,0.07003361,-0.025876928,-0.06254945,0.06554646,-0.04938822,-0.0014411071,0.014420149,0.05211292,0.04893771,-0.035403356,-0.072806746,-0.054920156,-0.053099893,-0.011688887,-0.11810034,-0.021087145,-0.026219308,0.03983606,-0.008611278,-0.044284508,0.00031977822,0.07117624,-0.010240726,-0.004617948,0.06729523,0.09599296,0.04274773,0.06498,-0.03083803,0.036804363,-0.047691826,0.010845006,-0.018242294,0.033877075,-0.0020587612,-0.02211348,0.002596698,0.10662319,0.0032679874,0.018410746,0.029072192,0.08290282,-0.042322624,0.016791614,-0.003570226,-0.106614366,-0.049059372,-0.0070653097,-0.061111,-0.037573177,-0.019393066,-0.06978327,0.03194023,-0.010339145,-0.015056279,-0.046039056,-0.06451858,-0.05251787,-0.056889407,-0.06437291,-0.05710258,-0.0050552506,-0.051592305,0.049921364,-0.020727888,-0.09146012,-0.013037692,-0.0016194724,-0.007900533,-0.030886114,-0.03844041,0.039601326,-0.00086011394,-0.036457486,-0.0692854,-0.016290499,-0.019146629,0.0063881422,-0.072477326,-0.03805951,0.076958135,-0.035452165,-0.0004206344,-0.024587832,0.0048479857,-0.01585469,0.03503927,0.013961711,0.09444922,0.017812379,-0.10101256,-0.020001644,0.048092686,0.0006030817,0.0042257104,4.5997035e-33,0.054116346,0.020485707,-0.009105901,0.0117941955,0.009001535,-0.08178207,-0.0673734,0.0067859404,-0.04221454,0.0726942,-0.014475604,-0.042024653,0.036221586,0.009804684,0.086957425,0.03634816,0.02711993,-0.0099952025,-0.015066654,0.008500785,-0.040942997,0.1094515,0.054453228,-0.047389753,0.12980649,-0.06350768,-0.020069655,-0.11279876,-0.005219804,0.0070398506,0.015158838,-0.000866729,-0.011203265,0.057006355,0.026596434,0.011551672,0.04257286,-0.024776226,-0.098539114,-0.034813862,0.008761047,-0.005841669,0.010862529,0.040992763,0.021899033,0.052174788,-0.10172524,0.03642151,0.029315664,0.04872561,0.031373758,0.046256408,0.061231125,0.061273474,-0.009382142,0.009799921,0.07509776,-0.034733914,0.021016361,0.04077751,0.025041863,0.015671497,0.046203952,-0.0135849565,0.05113415,-0.01391634,-0.11625853,-0.032176502,0.048490807,-0.009317278,-0.06767582,0.0106428405,0.0041891406,-0.010383358,-0.042650763,-0.037999764,0.023335207,-0.055190403,0.086622156,0.0184141,0.021920066,-0.06251741,0.01151458,-0.024063097,0.008371481,0.029241014,0.019428225,-0.069661945,-0.030714704,0.04810468,-0.044952292,0.056645554,-0.03012841,-0.07974009,-0.07851765,-5.5288102e-33,0.008872986,0.051992703,0.027312106,0.09267206,-0.0042866333,0.00710659,0.006085569,0.047837928,-0.053051364,0.011191209,-0.05722378,0.020881915,0.045796193,-0.050693013,0.07526319,-0.022751018,0.041794494,0.030460965,0.094805785,0.050110288,0.012645754,-0.02086078,-0.02346831,0.016970726,-0.036691763,-0.03793194,0.03611837,0.045997087,0.048798032,-0.09541306,-0.051007945,-0.08969669,-0.019806808,-0.083220236,0.018290384,-0.0076660146,0.09991087,0.08845491,-0.020683005,-0.013229059,-0.051522333,-0.038680952,0.02851775,0.024544697,0.009904649,-0.057893544,-0.01418495,0.10043961,-0.13027321,0.009724549,0.09037895,-0.015921501,0.017563,0.08274156,0.015803872,-0.07171615,-0.016561696,-0.06331036,-0.029944103,0.018457167,0.07541442,0.012704452,-0.027244534,-0.034288574,0.05508382,0.025634496,-0.0024329347,-0.09320871,0.067492,-0.013727648,0.007655919,0.003432447,-0.10820119,-0.032178786,-0.06166325,-0.04625466,-0.140097,-0.09376117,-0.028931485,0.053838182,-0.00684439,-0.02083856,0.03320892,0.08798677,0.027939882,0.029376555,-0.026129974,0.070395306,0.036611244,0.023106294,-0.020165777,0.08092652,-0.02861205,0.018958976,-0.018781096,-5.851212e-08,-0.021026606,-0.022966739,-0.035204705,-0.045662493,0.11826562,-0.09998604,0.080133855,-0.12296586,0.025785284,-0.05093995,0.00505706,-0.024662305,0.035680976,0.028237784,0.06981149,0.06641124,0.06509811,0.02650172,-0.043485057,0.020754324,-0.017551243,0.029475002,-0.08287191,-0.029437233,-0.044955663,0.047551762,-0.037534557,0.088821925,0.013217074,0.0069989804,0.004966035,0.031454857,-0.027955249,-0.01723441,-0.0438593,0.005716244,-0.034333237,-0.036495738,0.06979857,-0.044670288,0.03755168,0.025375286,0.03607071,0.10702993,-0.022890357,-0.071396306,0.029572604,-0.11817067,0.0575522,-0.028115463,-0.02710589,0.034531742,0.015111291,0.061036583,0.0074132322,0.0114180865,0.034300383,-0.025466572,-0.022992518,0.06976068,0.088857464,0.0042712246,0.038367067,0.0025462331
Buteo_buteo,0.010893578,-0.016787663,-0.019382237,-0.04624975,-0.13124159,-0.029275106,0.08642107,-0.036122315,-0.0065442515,-0.010458149,-0.013617495,-0.09923089,-0.011320815,0.02044852,0.008007501,-0.020722393,0.10248553,-0.01678043,0.05278057,-0.0654464,0.021674432,0.11766092,0.07157794,0.010362711,-0.0548249,-0.019095171,-0.051847074,0.046526175,0.064173386,-0.0454711,-0.0056415,0.08469378,0.10262017,-0.015346928,-0.10606797,0.084574044,0.03879406,-0.018804694,-0.0027962613,-0.0474434,0.024809027,0.039653163,0.027771667,-0.030875402,-0.055889316,-0.056291774,-0.11555022,-0.010355151,0.023289122,-0.023850087,-0.036240786,-0.119759135,0.058035437,0.09390343,0.024226109,0.049115766,0.03932883,0.0176078,0.034471817,-0.014171978,-0.020619983,0.032205567,-0.02365224,-0.0044922745,-0.059287906,-0.011319327,-0.037983947,-0.029692193,0.036320493,0.0507287,0.062234525,-0.014771874,-0.007324774,-0.026830811,-0.07849909,-0.006646398,-0.016906556,-0.10492338,0.03317752,0.0184998,-0.033377722,-0.033730563,-0.022487111,-0.09228875,0.009583183,-0.031669147,0.019310523,-0.035736103,-0.08520602,0.015783975,-0.00586554,-0.016874602,-0.052617777,0.035134077,-0.058878466,0.0019405766,0.018417478,-0.11959616,-0.055480294,0.045744598,-0.014925969,-0.06381206,0.077710785,0.0026552295,0.011855814,-0.0154332565,-0.029775597,-0.003981595,-0.039536588,0.029543241,-0.10284155,-0.025353696,0.019793075,0.04966422,0.020196754,-0.027313765,-0.068667576,-0.06366614,-0.035227567,-0.02346679,0.10057859,0.081071176,-0.10181262,0.003348432,0.04001638,-0.0031396882,-0.10432349,8.6169145e-34,0.059398483,0.053551584,0.040695444,0.0379168,0.04833212,-0.046070516,-0.035066828,-0.03669041,-0.015283913,-0.035143413,-0.049675006,-0.02397646,-0.0075034904,0.042548183,0.08613944,0.0026249548,-0.05615107,-0.009467666,0.027552199,0.0035573961,-0.021739963,0.14152831,0.023571862,-0.06907806,0.11060014,-0.027268302,-0.0540719,-0.1410858,-0.03863097,0.03715864,0.020337489,-0.06046796,-0.042186197,0.031298857,-0.031731106,-0.074209794,0.0146249,-0.063273184,-0.07291165,0.012440087,0.017306736,-0.048251208,-0.045177583,0.08835917,-0.0012557373,0.0059971316,-0.07160708,-0.008670739,-0.013333858,0.07744713,0.063266546,-0.028496303,0.04176907,-0.02155613,-0.04467507,0.03983165,0.09262762,-0.036665086,-0.05829003,-0.05209736,0.010865714,-0.047173504,0.061006445,-0.05813146,0.023210496,-0.10168671,-0.092553444,-0.0023624392,0.0032849838,-0.020990605,0.011231188,-0.024028743,-0.025538018,-0.072589755,-0.03973728,-0.022722436,0.07711672,-0.048802625,0.085227534,0.04374288,0.07776172,-0.008829552,-0.019645916,0.011512743,0.004880588,-0.02402397,0.033187486,-0.098615475,0.02778826,0.07539169,-0.014630534,0.050740562,-0.02859187,-0.011179706,-0.04881128,-3.2299077e-33,0.058872007,0.07126356,0.013853489,0.10535523,-0.031723276,0.050873682,-0.0054107932,0.06542806,-0.012163609,-0.03666909,-0.09941088,0.0024020576,0.1053266,-0.021975288,0.06361862,-0.031124882,0.013704792,0.068980694,0.08308056,-0.007966652,0.017903276,0.0014303374,-0.07872775,-0.049629413,-0.052337363,-0.041613504,-0.031491566,0.018954825,0.020059057,-0.030016337,-0.0018762532,0.02604769,0.011975104,-0.04194477,-0.01577399,0.09604089,0.014393211,0.012790011,0.00814489,0.0049008136,-0.027159525,-0.016293967,0.07943377,0.000928114,-0.016046481,-0.026713287,0.074681625,0.031205226,-0.093918055,-0.024136666,0.038132805,-0.009738852,0.06586107,0.12974916,0.007841374,-0.06770896,0.009136425,-0.044021122,0.0094018085,-0.013160051,-0.017725106,-0.025943171,-0.0142336115,0.008111673,0.031480737,0.016543193,-0.0479152,-0.07401375,0.052604128,-0.031562842,0.05484556,0.02356888,-0.018761467,0.041745175,-0.025951667,0.007211253,-0.108962916,-0.065708995,-0.020895584,0.008486729,0.004825591,0.03734151,-0.02196943,0.031790935,0.005145358,0.0034382418,-0.0010221457,0.047723617,0.026259113,0.04227136,0.07381401,0.10623006,-0.033924054,0.041507535,0.026175074,-3.3948922e-08,-0.05464623,0.0014461403,-0.017169768,-0.047492888,0.11526946,-0.012062713,0.061684575,-0.11051133,0.07137812,0.008670137,-0.030711496,-0.08861592,0.055068377,0.024637315,0.04372642,0.06631599,-0.0059918705,0.03931247,-0.018993748,0.028263412,-0.08510135,0.045737207,-0.0020110519,-0.04033112,-0.06725207,-0.045528453,-0.031543344,0.04201805,-0.014268961,0.04493605,-0.038435023,0.15169145,-0.06365646,-0.055255562,-0.04170222,0.07778085,-0.022811053,-0.028369743,0.02100404,-0.007431358,0.04647903,0.06160582,-0.023411179,0.012284041,0.021812383,0.004131476,0.0028760617,-0.07729222,0.030428458,-0.017279256,0.0042154607,0.07659361,0.04843169,0.04638966,-0.013996295,0.0977407,-0.04266954,-0.0304245,0.035397828,0.043629605,0.039396916,0.04138453,-0.002935125,0.024978468
Carduelis_cannabina,-0.028443554,-0.040596012,0.033503015,0.021948777,-0.07519846,-0.0675282,0.14374033,-0.007919655,0.03660479,-0.07313221,0.029650548,-0.03736203,-0.065797806,-0.043589853,0.01142568,-0.030476827,0.039613076,0.0061918944,-0.016250823,-0.08169512,0.02760429,0.09600314,-0.031233309,0.025358075,0.060037054,-0.013952046,-0.014936839,0.024606364,0.07189324,-0.013375056,-0.019794812,0.14949463,-0.023684662,0.0358962,-0.06582156,0.05793548,-0.046515126,-0.018089404,-0.06325917,-0.02219631,0.022259943,-0.021777708,0.013865333,-0.015662137,0.0242036,0.038871884,-0.06975116,-0.024754392,0.019742362,0.08453714,0.03602315,-0.0017211614,-0.024129996,0.02597397,0.027941225,0.048416905,0.14365983,0.008937672,-0.0046638562,-0.006590309,-0.036094245,0.0070610098,-0.04432044,-0.008452147,-0.016295945,-0.023956276,-0.051779907,0.025238488,-3.213811e-05,0.1214802,0.006806304,0.02565697,-0.025906768,0.11631375,-0.07011188,0.023198077,0.03845891,-0.04932729,-0.08996856,0.048664138,0.046805967,-0.07709354,-0.05511623,-0.06554268,-0.025695255,0.030362656,0.045107383,-0.038923986,-0.0039049822,0.012838561,-0.030070934,-0.03025724,-0.009042837,0.04729312,-0.110539906,-0.016218793,-0.016330702,-0.10379479,-0.03947046,-0.010500364,-0.061227538,0.03665937,0.025469888,0.12002957,-0.050256018,-0.037200145,0.0356233,-0.029563444,-0.0016502155,-0.03973003,-0.04883891,-0.014981929,0.03537503,-0.036095418,-0.064257324,-0.00019209106,-0.08290468,-0.0653347,-0.009817105,0.0016480886,0.048046358,0.033736102,-0.043910403,0.038263842,0.006740866,-0.0647901,0.015772304,-7.678682e-34,0.088527314,0.006891214,-0.009710708,0.008666635,0.073524766,-0.08124807,-0.064869866,-0.059393752,0.0011412008,0.10751594,-0.04034162,-0.011202014,0.06892767,0.021537751,0.07898725,-0.111162364,-0.036278423,-0.029068055,0.015866123,-0.010007428,-0.05249695,0.038306385,-0.01235504,-0.024939558,0.06118616,-0.038976718,-0.044945013,-0.08274394,-0.008727666,0.030162655,-0.017279351,0.017652782,-0.0010448347,-0.017677302,-0.046567924,0.0052406285,-0.010876988,0.0075899516,-0.021804199,0.052807,-0.0061718244,-0.038325854,-0.02613171,0.052857503,-0.0032867447,-0.034120213,-0.07720547,0.032579288,-0.015654696,0.048480812,0.014079254,-0.013018765,0.06672369,-0.03112785,0.04067726,-0.030564032,0.13582171,-0.026270295,-0.023032106,0.003928062,-0.0009787503,-0.05140169,0.026051665,-0.029312933,0.017064735,0.038336474,-0.07313655,-0.032050367,0.032412495,-0.04537655,-0.032580957,0.049595557,0.048527714,-0.01362003,0.07455259,-0.024196051,0.023795485,-0.051053964,0.023880161,-0.009536633,0.047889188,-0.06345442,0.04774503,0.010637216,0.05444128,-0.01613677,-0.01382284,-0.066643454,-0.029961973,0.007572834,-0.16939956,0.045077924,0.01132196,-0.017050784,-0.0079132,5.621433e-34,0.06340268,0.056878824,-0.05322957,0.1710371,0.014746923,0.031162137,0.07143015,0.06968666,0.0025921273,0.0006207987,-0.06111927,-0.06634958,-0.008255195,-0.054761793,0.13765514,-0.031268608,-0.032340482,0.029644242,0.07085789,0.07732637,0.008247122,-0.112945266,-0.013825893,-0.02997836,-0.01821635,-0.0033469032,0.057270065,0.015030346,0.013912178,-0.050524738,-0.054237682,-0.017973112,0.027497554,0.025701858,-0.01891413,0.08790579,0.13684158,0.009188529,-0.024169747,-0.023048151,0.0071383063,0.045648515,0.0841016,-0.053201176,-0.04466011,-0.012942527,-0.05291141,0.08993275,-0.08280893,-0.0053532133,0.100859076,-0.05637462,-0.010714966,0.17622805,0.028083356,-0.03008013,0.07307346,-0.055401586,-0.05341754,-0.020556007,0.041627202,-0.05696101,0.030537877,-0.02013467,-0.009166428,0.025567168,0.005154808,-0.047743786,0.05056904,0.028780464,-0.018756367,-0.019656722,-0.0139019685,-0.0026092322,-0.030168632,-0.06471802,-0.03307048,0.00057410874,-0.011724168,-0.0046977424,-0.0050765113,-0.019971577,-0.0020534855,0.059830364,0.018986808,0.035477784,-0.08478398,0.04881726,0.020841759,0.05221086,0.06927189,0.042585213,0.05833569,0.029440017,-0.0020488005,-4.729555e-08,-0.020245336,-0.04012094,0.008515779,-0.0026551455,0.10527776,-0.0060118446,0.11381521,-0.1085496,0.018006898,-0.09550876,0.04348915,-0.0064685964,0.022972558,0.030219441,0.02594364,0.08467369,-0.030399224,0.006014972,-0.030633539,0.008198061,-0.08745567,0.0666077,0.020218857,-0.040507372,-0.04928854,0.08930536,-0.061959963,0.034081217,0.08874419,-0.08681276,-0.07320999,0.043648817,-0.05307206,-0.07831393,-0.07015759,0.0120515665,0.031998314,-0.02000038,0.053102627,0.0007128247,-0.033520676,0.054480333,-0.004002867,0.03713127,0.026820349,-0.026123947,0.006136046,-0.085203715,0.029006738,0.001975773,0.008998697,0.035749767,0.02893646,0.008835295,-0.018297246,0.08299915,-0.072964884,-0.00378495,-0.0002509927,0.009242363,-0.018168705,0.022525404,-0.05092007,0.009402385
Carduelis_carduelis,-0.09909577,-0.0996803,-0.0024398973,-0.030864086,-0.1241537,-0.06383887,0.11088692,-0.026666807,0.028504774,-0.030982045,0.059591,-0.07153295,-0.025896914,-0.056382872,0.015020647,-0.020293945,0.012276808,-0.011144494,0.057780467,-0.091192566,-0.03615808,0.019805431,-0.010109716,0.023267327,0.019309152,0.002081871,-0.06965675,0.015536758,0.08359074,0.007146635,-0.015453925,0.1516167,-0.028473493,0.018822733,-0.045305282,0.056165036,-0.01766353,0.013105711,0.09290903,0.05597216,0.0088013755,-0.007242697,-0.020577203,-0.07331272,-0.04913865,-0.0011021444,-0.06895357,-8.482329e-05,-0.03609117,-0.0040956144,-0.02004393,-0.024297372,-0.046186123,0.10794891,0.013504413,0.015710527,0.06275503,0.051011886,0.02593908,0.035870634,0.03992844,0.002968491,0.013000857,-0.004496829,-0.04974473,0.04436552,-0.093380526,0.05560775,0.05990363,0.085078895,0.026933663,-0.016148442,0.024530891,0.10671724,-0.054006033,-0.018554263,0.009017564,-0.13149646,-0.02203382,-0.01706759,-0.07727354,-0.052111212,0.055597167,-0.031633377,0.02261537,-0.03709144,0.03474415,0.014143789,-0.079893604,-0.026862755,-0.03656401,-0.013011401,-0.0047983094,-0.018012188,-0.0772254,0.019310594,0.001152767,-0.065297544,-0.07193736,0.011877111,-0.013516219,-0.019718416,0.019564826,0.07445085,0.0036435355,-0.0036431737,-0.018643841,-0.020437377,0.043803815,-0.021474995,-0.12794271,0.015762566,0.018603781,0.009406013,-0.07792591,-0.04084156,-0.050772224,-0.0483505,0.052852858,0.063772574,0.12319303,0.009102961,-0.080255024,0.005671717,0.07115921,0.023348205,0.00095279905,5.000019e-33,0.07220587,0.0559494,-0.027531892,-0.077849805,0.060057517,-0.050017,-0.066643745,-0.07177676,-0.044144493,0.07356512,0.044500615,-0.04961684,0.05373072,0.07689586,0.009587025,-0.0936975,-0.025694529,-0.014363624,-0.0033891506,-0.0024606497,-0.04186142,0.12492114,0.0067744167,0.016777465,0.08464777,-0.043433648,-0.030726038,-0.09402079,0.0714681,0.059746858,-0.024706675,-0.053278632,0.028476302,0.0066687395,0.00757562,-0.042859577,0.01930558,-0.085762426,-0.052148446,-0.011768955,0.012770957,-0.041185606,-0.07097238,-0.021099558,-0.0078071854,0.02589785,-0.019961078,0.040786557,-0.006629345,-0.036646415,0.019581635,0.027733685,0.03533031,0.036980994,0.047318313,-0.016183976,0.0907946,-0.048420474,-0.005264189,0.0044006933,0.025026439,-0.05704933,0.029771449,-0.08845508,0.07735793,-0.013423802,-0.08407925,-0.044850763,0.02917726,-0.028116472,-0.023791373,0.012356044,-0.024706991,0.016345428,0.052014373,0.03248566,0.07159265,0.0029349884,0.03433568,-0.053259037,0.03582795,-0.09994771,-0.049394965,-0.01861351,-0.02906465,0.024563137,0.033825953,-0.1043418,-0.05173542,-0.0375453,-0.08538692,0.05148568,-0.04488282,-0.042937603,-0.1357377,-4.9789136e-33,-0.009903799,0.061211176,-0.076804556,0.08565152,0.011913384,0.04832679,0.04346784,0.010555175,0.02456585,0.062493715,-0.010536204,-0.021440215,-0.07264599,-0.024867786,0.063932374,-0.018239822,0.09623317,0.024249438,0.055930123,-0.0020915412,0.029758755,-0.033800647,-0.008858747,0.019390399,0.024242975,0.05168996,-0.047380347,-0.012102281,0.021338105,-0.024858551,-0.034698695,-0.024525255,0.05442227,-0.11185193,0.068479165,0.078466825,0.065464534,0.021997403,-0.09447126,-0.015532631,0.038207375,-0.009768016,0.06086328,0.015323386,-0.015128622,-0.035783954,-0.11490344,0.1305033,-0.11718888,0.017849373,0.04708275,-0.020689072,0.04481239,0.071406215,-0.040867887,-0.048703954,-0.01256121,-0.068409234,-0.04002312,-0.034751326,0.039879017,-0.05353955,-0.011643294,0.0036121574,0.053719908,0.005122026,-0.049131777,-0.069581464,0.04697456,0.03246175,0.06819358,0.06585302,-0.018924706,-0.044904232,-0.012763542,0.00953297,-0.069454506,-0.08274969,-0.008249524,-0.016071342,0.0110431295,0.018023305,0.06023934,0.057579603,-0.04048588,0.0040429397,-0.020612072,0.10413465,0.014270113,-0.03105028,0.043309238,0.04469814,0.042569794,0.059042096,0.033713367,-4.5633715e-08,-0.0038584864,-0.045697663,-0.021994434,0.006504719,0.10072951,-0.044363175,0.04271008,-0.11665195,0.019592743,0.002506183,0.02233638,-0.067516625,0.015783971,0.017954461,0.0338352,0.040654153,0.043966323,-0.009101679,-0.024326207,-0.01943908,-0.03552759,0.027816545,0.0134281395,-0.014687118,-0.09955131,0.08328674,0.0033105242,-0.016061146,-0.0033959653,-0.012700642,-0.013614819,0.10072272,-0.0003705911,-0.04753089,-0.038343035,0.028066559,-0.06887291,0.037256267,0.045004092,0.0040414934,-0.017543783,0.090666465,-0.013839515,0.07202676,0.05944981,-0.055969898,0.03233776,-0.097774945,0.06589709,-0.077928245,-0.022155548,0.023890737,0.013202596,0.063520774,0.0033817964,0.012720163,-0.055651087,0.051069908,-0.028253842,0.020890433,0.008456547,0.032510236,0.024528429,-0.007062017
Carduelis_chloris,-0.010685859,0.03603988,0.062870175,-0.0921508,-0.11904244,-0.011603653,0.06653583,-0.0517845,0.01730847,-0.06400444,0.034456607,-0.036378935,-0.020490756,-0.11139088,-0.023046924,-0.04244863,0.0382773,0.099883795,-0.009999876,-0.059414845,0.014908874,0.011479357,-0.03446227,0.007894993,7.813883e-06,0.050795536,-0.07090831,0.042199366,0.029895471,0.022239156,-0.04830051,0.09416774,-0.032420237,-0.025223069,0.013295799,-0.004001981,-0.066157155,0.054055136,-0.026435597,0.054825887,0.059732504,0.029923193,-0.050978575,-0.053763583,-0.0030945386,-0.021352828,-0.06114847,-0.008959502,-0.033036582,-0.0032639762,-0.045416795,0.029382763,-0.0012774548,0.09197571,-0.030264977,-0.022391643,0.051045172,0.11703884,0.06900093,0.0305228,-0.10636416,-0.01080784,0.03185916,-0.023979042,0.07183626,-0.08009489,-0.015808867,0.048396684,0.0153906755,0.17054887,-0.01718091,0.009415722,-0.051132742,0.09409337,-0.04165613,0.022603001,0.022280373,-0.07979712,0.057568114,-0.006311668,-0.05521627,-0.028751664,-0.05203614,-0.040623154,-0.034947358,-0.01869041,-0.043612704,-0.019361457,-0.050992213,-0.07059035,0.03820164,-0.041535243,-0.0341929,0.01565119,0.004565508,-0.006977089,0.02169181,0.0029678042,-0.042182706,0.008130002,-0.0118815685,-0.010368385,0.095971756,0.022031454,0.014050114,-0.046674322,-8.333687e-06,0.0035617829,0.06747669,-0.0681372,-0.05613468,-0.021249196,0.03598642,-0.0064312457,-0.012509569,0.05721128,-0.11529443,-0.008885848,0.007375415,0.051714126,0.10116862,-0.12053738,-0.080405004,-0.01978572,-0.008284274,-0.027763959,0.012668054,1.9942486e-33,0.08773985,0.018187344,0.040001668,-0.010957339,0.117007844,-0.05775245,-0.0730468,0.00750938,-0.04858166,0.10290805,-0.00513673,-0.0821678,-0.04148004,0.09250425,0.00063171715,-0.15071605,-0.069969,0.010686918,0.02157007,-0.0139389,-0.002313715,0.103980064,0.022177536,0.0057408637,-0.008029338,-0.057771552,-0.007901617,-0.02468688,0.024270153,0.060276892,0.07274883,-0.014832008,-0.061609924,-0.039504215,-0.08670518,0.03890759,-0.01366567,-0.012000101,-0.06946508,-0.02543045,-0.05103589,-0.014635223,-0.0152697135,0.02850799,0.013361106,-0.06268315,-0.07079652,-0.006484502,0.018366937,0.029278828,0.04878554,-0.0013092529,0.071621425,0.0027031638,0.03473474,0.030334316,0.11496045,0.029708995,-0.011843521,0.10257849,-0.019260932,-0.011481312,-0.0102786645,0.003742245,-0.014957154,0.09193088,-0.043817785,-0.05961338,0.06703783,-0.022678977,-0.021156259,0.04995429,-0.029193914,0.0563263,-0.017531045,-0.06112884,0.02692864,0.015245735,0.019216375,-0.051390722,-0.03917125,-0.016360682,-0.031447843,-0.04150039,-0.025602663,-0.012946123,-0.025244473,-0.060656153,-0.01923518,-0.032956436,-0.037534934,0.10678066,0.064413145,-0.050607912,-0.047414392,-2.1325694e-33,0.025894463,0.0127005065,-0.0040963055,0.09366893,0.0060504214,0.10484857,0.05118503,0.0449488,0.026923563,-0.06147107,-0.068448365,-0.08477842,0.0516595,-0.00428815,0.031625986,0.057718102,0.011553476,0.086381316,0.050869018,0.06888183,0.0036671907,-0.12416405,0.03537247,0.04042631,-0.011182955,-0.017109584,-0.018741366,-0.03161133,0.016702643,-0.03455615,-0.030484283,-0.016836768,-0.097108796,-0.04549014,-0.024748523,0.011533488,0.00636638,0.028250532,-0.03944825,0.031976752,-0.04106536,0.016834036,0.06456234,0.05310604,0.0054136347,-0.009285556,-0.06297003,0.08023513,-0.08116481,0.086121954,0.049331978,-0.007896275,-0.039382238,0.094071135,0.03455376,0.01797264,-0.044169273,0.015799297,-0.14482512,0.042196084,-0.005552482,-0.03163792,-0.066992,-0.036129784,0.049116794,0.014212905,0.0040768376,-0.097864464,0.032368883,-0.018096823,0.07850222,0.033698685,-0.059332047,-0.027906401,0.016499735,-0.09139016,-0.094691165,-0.044450253,-0.033881705,-0.02590715,0.0031483802,0.06582437,0.043306757,0.04893121,-0.05690698,0.030941835,-0.015321859,0.107028306,0.010523662,0.059611935,0.061539706,0.0034897479,0.036514916,0.07865064,0.017855518,-4.2453486e-08,0.013556853,-0.023236576,-0.05584873,-0.041108094,0.099633366,-0.05076732,0.03151803,-0.0674763,-0.01778842,-0.105851956,0.06727419,0.011121057,-0.002725983,0.025449669,0.054640442,0.076069616,0.003691217,0.02769725,-0.018536126,0.054062705,-0.031174239,0.07842997,0.026827363,0.02748787,-0.07340655,0.045090273,-0.06426248,0.01711691,0.00614984,-0.026473895,-0.045013472,0.06486474,-0.03542964,-0.08986411,-0.020609768,0.048726954,-0.037477076,-0.031718716,0.03689817,0.029463403,-0.0070798118,0.008721732,0.051277693,0.0021576618,0.021610443,-0.045411892,0.017337149,-0.027613968,-0.061379563,-0.017396646,-0.023564609,0.0023170458,0.045503933,-0.032557502,0.029540917,0.07699948,-0.055473562,0.041263826,-0.011814652,0.03296853,0.049374525,0.03490284,0.08141142,0.0021175544
Carduelis_spinus,-0.069465786,-0.024228647,0.013404072,-0.06199796,-0.1409154,-0.048366766,0.08386192,-0.03763578,0.07386212,-0.08989991,0.045466818,-0.059803907,0.0030244915,-0.046509735,0.010112159,-0.019194016,-0.009694355,0.0341693,-0.025602503,-0.09632438,0.024105914,0.0906127,-0.047444724,0.020103754,0.015116708,0.04905532,-0.051324166,0.0073343343,0.1197628,-0.01079811,-0.010547592,0.09162119,-0.08941164,-0.03086805,-0.08519632,0.031006167,-0.05388252,0.07193813,0.007988273,0.011099732,0.0015231501,0.01955338,-0.07028184,-0.051486608,-0.08476749,-0.0039243232,-0.049415495,0.047477555,-0.061487056,0.005495097,-0.03718995,-0.0075064995,-0.0405032,0.064035304,0.004988141,0.0046222736,0.09831652,0.071568325,0.030430218,0.05141567,-0.02741344,-0.009657776,0.0030164055,0.019610822,-0.026145972,-0.01713855,-0.043783415,0.09887757,0.0065596905,0.092103034,0.097573295,0.013852137,-0.011865069,0.037899297,-0.03287321,0.02523016,0.009366015,-0.11044015,-0.055372704,0.019222712,-0.0054449043,-0.043166876,0.012917883,-0.10230236,0.011446348,-0.009366909,-0.023890402,-0.0608331,-0.04564863,-0.023246374,-0.006890982,-0.044205062,-0.031226324,0.04865464,0.02311558,8.057314e-05,0.019781834,-0.04948523,-0.065430224,0.04511048,-0.0984214,-0.026753196,0.040364023,0.074900776,-0.0068841996,-0.015110537,-0.015432421,-0.021606328,0.036172125,-0.03126789,-0.04028504,-0.022456564,0.059188854,-0.028881554,-0.0018800865,-0.013944363,-0.01270094,-0.014614239,0.040432874,0.0815522,0.13549735,-0.033553887,-0.0801871,-0.009484572,0.039425887,-0.024563074,-0.016184574,1.8494152e-33,0.14219013,0.019644605,-0.051419254,0.015918422,0.118846506,-0.04233031,-0.08834608,-0.041262176,-0.026463376,0.06036963,-0.06760917,-0.030930832,0.0069986824,0.021973947,0.016042907,-0.14171481,-0.034993168,0.027151687,-0.019743966,0.018251143,-0.011198192,0.14919756,0.04145992,-0.028977355,0.017072275,-0.03623151,0.0019062472,-0.0800132,0.047597166,0.04994674,0.0010773725,-0.02323114,-0.042746153,0.027303863,0.024106538,0.037619967,-0.004998916,-0.009823837,-0.051008996,-0.04411343,0.016425176,-0.014167939,-0.06743158,-0.023689505,0.020836445,-0.03811787,-0.019575313,0.009767573,-0.021538988,0.008331327,0.07723452,0.028409956,0.012679353,0.028325435,0.015214053,-0.027161384,0.08877769,-0.045252286,0.072405085,0.036238313,0.00023657951,0.0016922919,-0.020995496,-0.031923525,0.014881131,0.013917664,-0.07163784,-0.05084672,0.027446436,-0.042083357,-0.04268764,0.047662385,-0.0594365,0.024332706,0.007831916,-0.017736034,0.05688638,-0.029868055,0.0695047,-0.02541811,0.01890334,-0.054079566,0.0011411773,-0.011634827,-0.030224541,0.08699946,0.00757048,-0.07590052,-0.020011354,0.03649524,-0.033195205,0.075882345,0.031578917,-0.06393241,-0.045743328,-2.8541646e-33,-0.047454495,0.006617499,0.024981638,0.08085457,-0.0035555116,0.07056454,0.0075006736,0.06120245,-0.01593131,-0.049137276,-0.0006999615,-0.044589985,-0.058571883,0.00609894,0.0751037,-0.08414996,0.11809584,0.0084373625,0.043444835,-0.0053990246,0.006398889,-0.100076444,-0.089690864,-0.024447413,-0.04675392,0.027210843,-0.0069949427,-0.0015202999,0.1190451,-0.03299752,-0.030633397,-0.042148884,0.0013557591,0.015250828,0.0034081538,0.10530019,-0.0032977094,0.034352798,-0.026059799,-0.048765365,0.000511859,0.020240357,0.10746608,0.04670007,-0.037154693,-0.01862394,-0.072640255,0.07128531,-0.10295932,-0.030763796,0.118076526,0.032928772,-0.029581876,0.039106157,-0.00993372,-0.047464486,0.05647864,-0.0910846,-0.035720985,-0.008505528,0.057368375,-0.025287822,-0.026557878,-0.056856584,0.043072097,0.011985607,-0.03007519,-0.058747757,0.055541247,0.041053746,0.035900146,0.01941802,-0.07265817,-0.121723324,0.06124062,-0.04074587,-0.08817338,-0.042929675,-0.008393078,-0.002586517,0.007911954,0.019183256,0.029970514,-0.00575856,0.014292715,0.044081606,-0.016246146,0.056692082,0.050883073,0.042445764,0.04825592,0.06247487,0.016664473,0.024130575,0.0968369,-5.1028685e-08,-0.030526895,-0.091412224,-0.019701215,-0.040606663,0.06489185,-0.03592722,0.11563321,-0.07625739,0.012213447,-0.04846916,0.029923113,-0.029027332,-0.01526799,-0.036842152,0.010600788,0.060659334,-0.058701117,-0.022122644,-0.006929513,-0.060421716,-0.029277505,0.06096651,0.015163442,-0.043405,-0.110024355,0.06252934,-0.056384407,0.017614713,0.018784095,-0.06641911,-0.00016691425,0.07048914,-0.06351047,-0.06504934,-0.06466272,0.011309745,-0.029563796,0.0039807623,-0.015548345,-0.016511412,0.039163627,0.04223288,0.05232723,0.06478507,0.057742603,-0.026877034,0.061527528,-0.08125707,0.0065948875,-0.031632997,-0.010640111,0.08327985,0.05450246,0.07322121,-0.05911748,0.045285415,-0.043230567,0.04860965,-0.06733348,0.04071432,0.043632213,-0.018973174,0.03289449,0.08170485
Certhia_brachydactyla,-0.052734815,-0.06224259,0.03196196,0.01077477,-0.06482161,-0.051414445,0.10878975,-0.0026780255,0.030596962,-0.017920619,0.019691845,-0.056881357,0.0010261199,-0.08217335,-0.014483755,0.02432876,0.0032102147,0.090491086,0.07015732,-0.14147069,-0.03725443,0.095052816,-0.05133843,0.030193647,0.077858984,-0.02265817,-0.0994794,-0.0070852037,-0.014173419,-0.070568666,-0.008950378,0.060882885,0.043453634,0.005145554,-0.089121,0.080109805,-0.0730024,-0.02465299,0.0027316005,0.072708294,0.011434103,0.014114948,-0.014972271,-0.08270088,-0.022979904,0.022208504,-0.04293808,-0.04710359,-0.01898528,0.021679657,0.010022419,-0.04476741,0.01240039,0.015601914,-0.035984043,-0.01725246,0.08585136,0.015445509,0.101786815,0.07559163,-0.000673945,0.01564988,-0.004425046,-0.05063517,0.05401053,-0.02823187,-0.04765549,0.039394572,0.004675215,0.1385942,0.04475893,0.0475043,-0.08569424,0.051786575,-0.09154414,0.039875563,-0.0047235508,-0.02055868,-0.047616497,0.018976804,-0.07742313,0.047067605,-0.004522978,-0.109743595,-0.03925183,0.020959629,0.035184126,0.0158624,-0.061101284,-0.033008073,-0.08595159,0.0041315737,-0.044310324,-0.002952915,0.0021576192,-0.054362345,-0.01979856,-0.06438633,-0.061558645,-0.006171432,-0.003054813,0.08617932,0.013854952,-0.004413063,-0.05752707,-0.021790119,-0.08002321,-0.01688168,0.01767242,0.025528032,0.021231417,-0.07354773,0.012206226,-0.03630273,-0.026848314,0.031631008,-0.08327199,-0.10007898,-0.05506104,0.069268964,0.027133852,-0.027044311,-0.10451383,-0.008910204,0.06969334,-0.075899936,0.059935432,1.8442922e-33,0.06451003,0.07742381,0.036350816,0.023127554,0.093768574,-0.026869029,-0.10978335,0.04832557,-0.037080657,0.0930136,-0.073871255,-0.013384564,-0.006369759,0.05785605,0.031012563,-0.046095762,-0.05056808,-0.020795982,-0.0023578226,-0.062181648,-0.074371904,0.086121745,-0.01583636,-0.022512792,0.045194577,-0.07295265,0.022282392,-0.061236106,0.030552479,-0.006603036,0.12954146,0.0207098,0.018803133,0.048398603,0.018450033,-0.018451422,-0.0008859208,0.04572006,-0.09547972,0.016605979,0.021789858,0.051256828,0.035914946,0.024720173,-0.0027650176,-0.0013977177,-0.018513069,-0.022178428,0.007599565,-0.0026554174,0.018533535,0.12444652,0.03436008,0.070881605,0.08375953,-0.02869248,0.1054599,0.06289268,0.02026879,0.06978964,0.03494898,-0.0025071825,-0.010243653,-0.07179397,-0.06073876,0.08451531,-0.03840252,-0.09200072,0.08861636,-0.020262854,-0.03020263,0.03627368,-0.0105329165,-0.0069425497,-0.03186736,-0.019024765,-0.005851624,-0.04232365,0.016965812,-0.017909257,-0.107404426,-0.12067343,-0.008284445,0.011719211,0.06892433,-0.038378913,0.005444951,-0.02763982,0.0046902676,0.030457241,-0.065221295,0.033719268,-0.042058207,-0.04649525,-0.0001823899,-2.0447485e-33,0.017232621,-0.010032713,0.028495966,0.1322901,-0.0052486206,0.0032198154,-0.012694625,0.035971876,0.012478252,0.007109086,0.021538606,-0.011443301,0.069242835,0.05190058,0.14437658,-0.06438221,-0.0020099273,0.08699267,0.039297935,0.09591283,-0.014202224,0.02489253,-0.030337876,-0.0021867424,0.027575051,0.009299259,-0.0003204455,-0.023458717,0.010791102,-0.06906494,0.0033689623,-0.04149705,-0.047378976,-0.030310405,-0.025134217,0.051825732,0.036039304,0.010321719,-0.04285645,0.10564104,-0.047691576,0.0032634952,-0.0030134188,-0.0059626843,-0.022410018,-0.08563822,-0.098605186,0.093664765,-0.075054824,0.013686107,0.10116256,0.014676157,-0.015371734,0.016762044,0.028513921,-0.052605867,-0.062467318,-0.017332127,-0.08236755,0.010006446,0.053420328,-0.010195706,-0.014142168,-0.04740155,0.014421567,-0.008197836,-0.014246821,-0.06072975,0.041558653,0.02287791,0.013987417,0.0051797857,-0.044441268,0.016552104,-0.0035638164,-0.05237682,-0.045280635,-0.0077890293,-0.03593914,-0.015343335,-0.05298583,-0.018602133,0.028080367,0.03416795,0.108444855,0.0712647,-0.06256938,0.012435627,0.06823633,0.004493662,0.021160377,0.049272433,0.016694568,0.05700477,0.030323828,-4.375252e-08,-0.030374726,-0.00017617283,-0.018487826,0.021695545,0.11693109,-0.08843449,0.09202854,-0.02065826,-0.09891562,-0.027882291,-0.011821245,0.012383107,-0.014442989,-0.044589676,0.09457717,0.0916095,0.03969591,0.054575402,-0.009327162,0.02519669,-0.019645106,0.031337254,0.018062502,-0.011216987,-0.14384119,-0.005157193,0.06960911,0.0061256364,-0.010692034,-0.035761766,0.07951059,0.060780194,-0.001488495,-0.054656085,-0.014706759,0.03840215,-0.0014907927,0.024201231,-0.021956818,-0.014301442,0.0037346743,0.048847597,0.016738342,0.0019741866,-0.106569424,0.005556726,0.02668391,-0.07197634,0.012701295,-0.02734927,0.0069657094,-0.00016899788,0.008060598,0.013901248,0.070582025,0.022609076,-0.02346394,-0.027578432,-0.021167304,0.03837573,0.06377216,-0.008000132,0.03605037,-0.014215754
Certhia_familiaris,-0.08213477,-0.08660602,-0.011658024,-0.041035224,-0.11678054,0.0005976466,0.10394429,-0.07387409,0.04001003,-0.062199507,0.010347101,-0.052454002,-0.049738955,-0.038210955,0.005880016,0.024115894,0.015521563,0.006395976,0.04456725,-0.10852512,0.030260049,0.123032644,-0.004682301,0.068538666,0.012976076,0.014408594,-0.05806806,0.04908579,0.05300126,-0.038700625,-0.019862182,0.14375123,0.056862466,0.008384009,-0.0986263,0.02996458,-0.052731816,0.018985637,-0.020761656,0.020737259,0.009279046,0.017946048,-0.020093754,-0.05944496,-0.066882364,-0.022990327,-0.034444675,-0.018728385,0.03877624,0.01651417,0.05131883,-0.052279092,-0.0023738726,0.07397773,0.06894718,0.041781556,0.038980268,0.029462818,0.00768208,0.03242654,-0.02736319,0.019669289,-0.01904219,-0.023323886,0.011716032,0.0675674,-0.107935876,0.0054906392,0.0056405524,0.107959814,0.057884756,0.004859332,-0.035529718,0.040712066,-0.043640323,0.009820832,0.015359386,-0.095975004,-0.037074447,-0.026203934,-0.11390296,-0.050553147,0.011549253,-0.051233523,-0.0072535537,-0.0077281375,0.029472021,0.015153129,-0.07475598,-0.020082006,-0.035168517,0.003199778,-0.077973574,-0.02994244,-0.036416404,0.025574626,-0.0015720975,-0.12900189,-0.018735237,0.027404053,-0.013314095,-0.015760602,-0.025896927,0.03132403,-0.054938782,-0.041811403,-0.026522474,0.0037959549,0.022493722,0.014647881,-0.027920678,0.010144862,-0.022856744,0.015620632,-0.06926679,-0.053720858,-0.038748164,-0.044223845,-0.051520675,0.08690741,0.04396489,-0.012404621,-0.10708598,-0.01590942,0.02935049,-0.010494194,-0.023793548,2.2274758e-33,0.05188946,0.07041041,0.009776933,0.009099802,0.085407235,-0.033655755,-0.10873121,0.010385731,-0.0464944,0.026983263,-0.004397825,-0.026772166,-0.00485536,0.014822755,0.08087571,-0.042881075,-0.023228357,-0.017324977,0.012599535,-0.0042128996,-0.0493133,0.13174613,0.038803976,-0.055872183,0.101601094,-0.06978221,0.019722702,-0.07660758,0.05890131,0.006429756,0.05319967,-0.0030173124,0.017618729,0.016940882,-0.019114736,0.013107657,-0.013454165,0.0011533828,-0.091085844,0.012005591,0.019592198,-0.0043167933,-0.032070592,0.013486157,0.025668684,-0.042665858,-0.07240375,0.017482208,0.046277266,0.10615164,0.04793837,0.010141833,0.07907987,0.003310381,0.04715822,-0.03860674,0.09007311,-0.031098528,-0.016844468,0.0655892,0.008344952,-0.047805592,0.022130726,-0.090703085,0.04786022,0.022084912,-0.09010051,-0.022690168,0.020361133,-0.10326978,-0.024136046,-0.008404875,0.037118413,-0.021139747,-0.07710204,-0.016795073,0.0633704,-0.029461075,0.08312092,-0.019472973,-0.070202366,-0.080093436,0.0017440537,0.012794255,-0.009003161,0.020346185,0.018396672,-0.106508516,-0.0378045,0.020142583,-0.049267665,0.07760966,-0.0529282,-0.048542548,-0.054723438,-2.907875e-33,-0.018260818,0.02965052,0.008035391,0.12953979,0.037468184,0.002316835,0.006767479,0.07832368,0.005758699,-0.044956323,-0.015802385,0.021895792,0.021529375,-0.0061445646,0.04009729,-0.022150813,0.010137125,0.113674,0.07339755,0.07060039,0.05935435,0.030681172,0.020086296,-0.009919029,0.023725793,-0.054657996,-0.0172692,0.013437848,0.054096423,-0.09727141,0.01847085,-0.0071745976,-0.022601938,-0.075322546,0.035013568,0.026328797,0.11696747,0.023703998,-0.015075676,0.07283634,0.010084247,0.009382765,-9.080012e-06,-0.025989966,-0.04903485,-0.036074813,-0.09197822,0.11342095,-0.112853415,-0.016628396,0.057950243,-0.07854898,0.008805234,0.10989187,0.0025905934,-0.10191098,-0.008554058,0.0041690464,0.01507632,0.0063548493,0.039108492,0.017476067,-0.03487597,-0.020323964,0.029668164,0.023309266,0.041478332,-0.1140034,0.037096754,0.0106737595,-0.0077790855,0.02930757,-0.097163126,0.011481835,-0.021538444,-0.039007008,-0.08451113,-0.09376641,-0.047091804,-0.0065980987,0.020463264,-0.018876603,-0.006186605,0.056916755,0.00920695,0.052644093,-0.012334307,0.054152723,0.042834908,0.030777588,0.028265538,0.13380283,0.009597151,0.09478715,-0.011504682,-4.2686715e-08,-0.05210157,-0.0002657294,0.013257279,-0.034470696,0.13012928,-0.05610857,0.10807582,-0.09851041,0.040580228,-0.066689484,0.005976889,-0.084732756,0.025868589,-0.07242185,0.019235056,0.052098647,0.01923029,0.03801887,-0.014464721,-0.008221609,-0.0615909,0.0812902,0.037431583,-0.032900553,-0.09230474,-0.0053513013,0.016450465,0.06027077,0.007532204,-0.041685987,0.013095541,0.09591528,0.06047305,-0.07953035,-0.051757812,-0.01392552,0.0058980943,0.06943905,0.015185782,0.014875252,-0.00091390917,0.045368712,-0.02207431,0.0075867623,0.015000771,-0.0411824,0.014902667,-0.06041362,0.046318423,-0.06736911,0.045537964,0.048134644,0.018971426,0.011057561,-0.0052326275,0.05740685,-0.038165256,0.011641047,0.0008018141,0.026108561,0.071658,-0.0021889664,-0.010064119,0.03216239
Ciconia_ciconia,0.06595784,-0.040904425,-0.0030928184,0.013964112,-0.047109745,-0.03086531,0.021181598,-0.11193866,0.08312585,-0.08966167,0.0136406,-0.05748348,-0.041899715,-0.019745782,-0.0072369436,-0.008147529,0.07661888,-0.0007821668,0.042631958,-0.021461658,0.03937763,-0.011540792,0.09268942,-0.009444058,0.06018278,-0.048461575,0.011070484,-0.07701764,-0.0070088673,0.015452919,-0.013510463,0.025855446,0.064743005,-0.008081841,-0.07293148,-0.016374784,0.103196844,0.019575885,0.049791202,-0.016093463,0.043205164,-0.02603457,0.028197892,-0.14517242,-0.048153248,0.053990986,0.020238684,0.011801297,-0.03849566,-0.009113885,-0.03066859,-0.06741329,0.011825306,0.08075605,0.030191677,0.022724623,0.024512203,-0.028047927,0.008440404,0.022380015,-0.012350249,-0.001579812,-0.008102377,0.029086754,-0.0103016,0.06074992,-0.028685967,0.060470562,0.047717698,0.013843965,-0.002920408,0.067630894,0.0012622793,0.055244472,-0.017188065,-0.021599036,0.034572795,-0.06494286,0.01769741,-0.0022693365,-0.07221205,-0.04731131,-0.0721829,-0.0686473,-0.064736605,-0.036709063,0.06395945,-0.001112464,-0.1011508,0.01777815,-0.109151006,-0.064542584,-0.09135258,0.015743354,-0.045766536,0.025586138,-0.053688996,0.016792605,-0.06452847,0.008415355,-0.04695643,0.056488954,0.03532381,-0.021715809,0.013001287,0.077308096,-0.051093344,0.024065385,-0.035851397,0.061246265,-0.07053544,-0.023309996,0.053214803,0.023280589,-0.013720309,-0.005293463,-0.0065701134,-0.024536546,0.040538162,-0.00488743,0.11176103,0.00061294547,-0.018292291,-0.040959556,0.025817199,-0.060105454,-0.07697798,-1.1548157e-33,0.028114678,0.014644485,0.014189724,0.026009502,0.08990286,0.019674065,0.0047224797,-0.07573329,-0.0014450791,0.07230533,0.04680057,-0.04961587,0.057423938,-0.07304713,0.006076277,-0.07975341,0.00040145684,0.09013655,-0.069098644,-0.059790757,-0.047282856,0.09282739,-0.026781509,0.08937129,0.12077212,-0.0841456,0.031922806,-0.06343223,-0.0054147406,0.008769155,-0.03975548,0.0038531388,0.050877377,-0.06407845,0.021637902,-0.0011550138,0.031456545,-0.043853693,-0.03749408,0.0128548965,-0.04055303,-0.06637509,-0.04582423,0.0010087778,-0.054958757,0.050078765,-0.04087068,0.023685327,-0.00039075114,0.0029312233,0.056141205,0.03410905,-0.042170405,0.0572547,-0.017619193,0.07325686,0.11378736,-0.12521131,-0.040605195,-0.0625461,0.06725393,-0.011365394,0.03260905,-0.059535503,-0.05419771,-0.022776581,-0.08655411,-0.061046183,-0.019292371,-0.07511822,0.06600602,0.029166311,-0.07542787,-0.027721288,-0.063089564,-0.013737219,-0.004408195,0.014726084,0.12913702,-0.037701815,0.011641036,0.016163953,-0.04427312,0.060748436,-0.039548025,0.026842188,0.0011261341,0.016408259,-0.050337348,0.022515908,-0.05488288,0.03747639,0.043592107,-0.0638846,0.007824061,-1.0731779e-33,0.029433953,0.04701368,-0.030957593,0.09248358,-0.025591452,0.081844114,0.011876208,0.033038486,-0.017673641,0.044239853,0.0038016865,0.013117173,-0.04180993,0.064073645,0.037408303,0.0032371103,0.13060133,-0.02077514,0.09251416,0.10462967,0.022783056,0.010635325,0.051386043,0.038346887,-0.046729818,-0.040145345,-0.055218533,-0.024366423,0.013177736,-0.11042289,-0.02480828,0.06728982,-0.040965762,-0.050214995,0.009014875,0.0884017,-0.0465026,9.839802e-05,0.011914642,-0.06536922,0.0064899665,0.035875335,-0.0499281,0.018076064,0.010153946,0.043671306,0.06913879,-0.047514815,-0.07319947,0.03158847,-0.015223492,0.014396795,0.01924164,0.0105461,-0.028261138,-0.0046634367,0.0486792,-0.007623213,0.03926178,-0.06572001,0.020433135,0.03245284,0.010544208,0.005572365,-0.03201157,0.04113058,0.009998867,0.042828076,0.14508942,-0.043081332,0.0770966,0.013676638,-0.017929172,0.05571794,-0.029191768,0.0360658,-0.08901133,-0.186732,-0.050878372,-0.01978812,-0.0026239406,-0.013568574,0.0030808107,0.007995013,-0.06683331,-0.020818325,0.0814261,-0.007470911,-0.035117898,0.11055265,-0.0031691717,0.016736016,0.050300702,-0.09232498,-0.0049044816,-2.417708e-08,-0.09603526,-0.016277552,-0.04086477,-0.12672819,0.04772536,-0.05865024,0.056871474,-0.036261432,-0.0153983785,-0.0008213311,-0.016743748,-0.050636727,-0.0074436693,0.034137346,0.05975295,0.06183108,-0.0005399882,-0.015470161,-0.050248053,-0.026587263,0.03224953,0.089602955,-0.108760074,0.09695076,-0.015682176,0.04050967,0.07563093,0.01894455,0.011902775,-0.0013727187,0.02204936,0.035171863,-0.06784439,-0.010351547,-0.03695959,0.07304559,0.015703434,0.032300435,0.04929012,0.026230464,-0.041175853,-0.01580838,-0.055760358,-0.022000153,-0.013313322,0.05771136,0.031382423,-0.058186416,-0.07204784,-0.025255512,-0.019224243,0.09217737,-0.014600496,-0.045771834,0.0050398326,0.06048054,-0.037462108,0.017596863,0.050001044,-0.036482017,0.09726001,-0.011214071,-0.05389231,-0.0029694457
Coccothraustes_coccothraustes,-0.05426186,-0.043537978,0.039655395,-0.0005661034,-0.027511986,-0.03839916,0.12529156,-0.049418796,0.0049987445,-0.037519455,0.002509722,-0.053745713,0.04823245,-0.05123748,-0.052137684,-0.06742484,0.040034182,-0.03631973,0.06353372,-0.0049116947,0.0012379391,0.047968954,0.061973866,-0.023197709,-0.010238355,0.03570885,0.014534334,0.037894245,0.051686697,-0.029789634,0.021240437,0.18200338,-0.023521,-0.050474633,-0.008634598,-0.059712533,-0.0024590911,-0.00828229,0.043926843,0.0008452363,0.030644631,0.026873214,0.014482577,-0.09590768,-0.042571113,0.057962313,-0.036788072,-0.057474412,0.007031999,0.029330356,-0.039329458,-0.06426985,0.021403424,0.041778978,-0.002645942,0.046631306,-0.02269951,-0.033481583,0.035708092,0.020538572,-0.079950854,-0.0059526605,-0.0073399344,0.008175169,0.053995762,-0.049481783,-0.07695253,-0.027585126,-0.0366699,0.06037622,-0.013557848,0.061273396,0.0013084186,0.017858772,-0.06069605,0.06022855,-0.009336981,-0.13266045,-0.11018178,-0.027718693,-0.047636483,-0.036689945,0.03384562,-0.044475164,0.038040277,0.060000867,0.07079157,-0.02212168,-0.06545738,-0.03138957,-0.03919957,0.036650494,-0.06894506,0.026081135,0.0468955,0.011632004,0.041541643,0.003525542,-0.05113788,0.03361588,0.05969886,0.03330866,0.07993888,-0.020553583,-0.06685372,-0.011399747,0.020251805,0.03056448,-0.018849624,0.021792596,-0.064821474,-0.055786088,0.009490874,-0.0357588,-0.063030496,-0.03435078,-0.024750128,-0.029017061,-0.060315996,-0.01875267,0.11977013,-0.028873805,-0.11220427,0.03988605,0.041541446,0.0057072756,-0.06764854,3.1791871e-34,0.0055767987,0.084907554,-0.072602004,-0.06264619,0.072877385,-0.01422459,-0.08294908,-0.051039014,-0.056963798,0.13907875,-0.03190209,0.027132686,-0.014068372,-0.029349066,0.04499804,-0.014286136,0.015073029,-0.039838497,-0.0112648355,0.0044402843,0.05667641,0.12515341,0.027390618,-0.06560334,0.07538277,0.02034699,-0.016987775,-0.1487425,-0.04834102,0.01587558,0.037907146,-0.0062515847,-0.045334447,-0.028073136,-0.01841879,0.030104874,0.028011156,-0.057625107,-0.061146405,-0.057561237,-0.03128523,-0.039348274,-0.021876056,0.0436352,-0.081751116,0.07241182,-0.02271503,-0.04361909,0.020888485,-0.025931744,0.01181867,0.02383076,0.025412856,0.04224842,0.0070066825,-0.008793924,0.095271796,-0.074761495,-0.0038549115,0.030666294,0.04706882,0.04283201,0.017628415,-0.03786476,0.035980836,-0.0030509466,-0.059376627,0.0019564126,-0.001057151,0.05876864,-0.058938242,-0.024224019,0.04879107,-0.055801157,0.0338318,-0.0573557,0.0020305114,-0.028844018,0.095919445,-0.045053814,-0.023736835,-0.05680229,-0.02380178,0.05440973,0.017576238,-0.002257968,0.023620527,-0.043760125,-0.086591735,0.0063058008,-0.010105149,-0.015548176,0.028877858,-0.017334282,-0.10701024,-1.8423203e-33,-0.03722638,0.062937155,0.00071596564,0.07522048,0.034079973,0.045187477,0.03457735,0.063821375,0.03711433,-0.0842495,-0.046556037,0.029163994,0.030160513,-0.011658369,0.045646593,-0.050951183,0.03849978,0.09456523,0.0899144,0.0051715863,-0.015318712,-0.03134973,0.0062621497,-0.021626417,0.0036026454,0.062342554,0.10727394,-0.023819178,-0.038498897,-0.029390967,-0.07062033,0.0025201114,-0.02709136,-0.13612956,-0.02531912,0.059905592,0.031968884,-0.014927163,-0.07808015,-0.052868374,-0.06854853,-0.038083132,0.03545341,-0.008630479,-0.003315584,-0.029734489,-0.072133645,0.14212681,-0.048425317,0.103786506,0.08226195,0.016813705,-0.0009144298,0.03549668,0.03773442,-0.02621847,0.013349458,-0.04832141,-0.0035080004,-0.031006778,0.0036934018,0.040085044,-0.027758941,0.054742876,0.0074350154,-0.018438146,0.049046062,-0.06691763,0.055068273,0.06277274,0.017508041,0.09544,-0.08989957,-0.03508264,-0.009902587,0.03358375,-0.0510718,-0.104083136,-0.0088626165,-0.016983805,0.029053101,-0.02494742,-0.0073643774,0.07699066,0.031401515,0.037568904,-0.036626656,0.0062146434,-0.0060072974,-0.0273866,0.0775975,0.07414558,0.015256028,-0.028125051,-0.11872888,-5.0113204e-08,-0.06624664,-0.00787137,-0.0479137,-0.07342412,0.11909521,-0.04016782,0.079981826,-0.04461414,-0.012378073,-0.02261857,0.11726562,-0.022438979,0.08047901,0.034759756,0.039063506,0.05814658,-0.030513873,0.046090074,-0.03605118,0.023012184,-0.056235336,0.08226754,0.008748624,-0.036118835,-0.08596045,0.01851497,0.018444238,-0.013863034,-0.024157053,-0.0016222468,-0.014161267,0.075121626,0.051070783,-0.007942463,-0.026172522,-0.0036516092,-0.0091416165,-0.0024636656,-0.01932692,-0.053739604,-0.0014680937,0.065153055,0.05636479,0.034297306,-0.07590396,-0.07357905,0.058883525,-0.110340595,0.1010683,-0.006427376,-0.018564511,0.07704768,0.0015170049,0.02282124,0.063923724,0.04747595,-0.046622206,-0.012418812,0.02116474,0.03697707,0.07034671,-0.0035587193,0.021646438,0.043506783
Columba_oenas,-0.013368299,-0.04131595,0.019923408,-0.019491415,-0.08739526,-0.021466041,0.084265724,-0.094301715,0.056935474,-0.042449065,-0.019819492,-0.042221,-0.08721737,-0.03224352,-0.026008677,0.03938052,0.04396982,-0.0314822,-0.016848195,-0.009108129,0.021495448,0.08738307,-0.01686652,0.078534596,0.008976318,0.029471962,0.009912801,0.065882385,0.026787862,-0.10235226,0.007140547,0.061345186,0.07861952,-0.04398618,-0.019921232,-0.04760555,0.0641571,-0.07020114,-0.036395736,0.02914105,0.03268426,0.026346112,0.037329085,-0.008356063,-0.048103813,0.072977655,-0.0811204,-0.029205162,0.040479656,0.039762054,-0.021354984,-0.09229989,-0.0094261225,-0.00076512044,0.059240572,0.01619818,0.094707765,0.045961488,0.029571867,-0.04107217,-0.0009428542,-0.018379482,-0.012312807,0.012561412,-0.019696034,-0.09515728,-0.028459411,0.009648876,0.00042176197,0.07939206,0.00044880257,0.014506678,-0.04453521,0.0747003,-0.02415907,0.010069512,0.028430931,-0.09637617,-0.02270782,-0.0030184183,0.009191275,-0.06170276,-0.11260021,-0.10749385,-0.009946832,-0.027379928,0.052682064,-0.004109573,-0.09819542,0.031046832,-0.08932374,-0.06121131,-0.03606457,0.024721704,-0.023019684,0.004842919,0.033665583,-0.045914304,-0.052546453,0.08444972,-0.032897364,0.038568318,0.06155417,0.05164372,0.017031245,-0.026517887,0.023924373,0.00403848,0.0006013538,-0.054217685,-0.063012175,-0.016650504,0.020195043,0.011165923,0.0009611613,-0.07467126,-0.064056784,-0.04428903,-0.04622028,0.032422543,0.085705616,-0.08618118,-0.07111341,0.059887394,0.015462752,-0.02519041,-0.090893954,2.872173e-33,0.08398964,0.016990634,0.008631162,-0.007146395,0.11446248,-0.043580182,-0.08535021,0.009599526,0.0048979498,0.075012565,-0.046789374,-0.034739755,0.036115117,-0.028633567,0.14203827,-0.122523926,0.02345838,0.0040694033,0.0054918677,-0.009251244,0.029062172,0.08754027,0.04148521,-0.07833284,0.07410703,-0.018512469,0.0016208659,-0.14313409,-0.020204954,0.04500728,0.010966838,-0.05846035,-0.05080474,-0.022633143,-0.090041384,-0.027035372,-0.03669026,-0.04712676,-0.030286513,-0.011061953,-0.020843951,-0.012884563,-0.11452909,0.03404906,0.0016769512,0.009756102,-0.056169875,0.058885507,0.06920761,-0.0002762052,0.05050796,-0.0056086895,-0.010143132,-0.015343558,0.05202317,-0.02447005,0.10327588,-0.045196217,0.042343028,-0.08315487,0.02253107,0.0015382528,0.07954792,-0.1288558,0.01959743,0.043422148,-0.0483925,-0.048225753,0.023692332,-0.062206335,-0.027274048,-0.05719235,-0.03844865,-0.057200603,-0.06387279,0.011843524,0.056798894,-0.0358186,0.11390901,-0.04047995,-0.002672698,0.0327273,-0.012665207,0.022659024,0.04553206,0.009479896,0.046794977,-0.070443235,-0.06109749,0.06099854,-0.15036066,-0.011848281,0.034690157,-0.060457386,-0.025910048,-3.7784154e-33,0.036048837,0.04973736,-0.074127406,0.074995056,0.031390235,0.106151305,-0.028635923,0.12287896,-0.038720537,-0.013207351,-0.05674562,-0.014722771,0.034707606,-0.0015717379,0.06274775,-0.066856846,0.030074297,0.06611228,0.10707972,0.035635468,0.055387456,-0.03194612,0.032953277,-0.00959589,-0.020611124,0.01629175,0.017879995,0.012609775,0.009173216,-0.009769025,0.030246735,0.027699731,0.01528738,-0.06654985,-0.0517211,0.08137743,0.046382573,0.030380266,-0.04801053,-0.006526049,-0.037061613,-0.0011394763,0.06735787,0.04285939,-0.00508497,-0.0066797454,-0.0471372,0.08923131,-0.07659924,0.028921861,0.043227628,-0.03946176,0.03291755,0.082725,-0.033827953,-0.0028276106,0.05636237,-0.05607524,-0.032074623,-0.058210786,-0.0004628179,0.018261576,-0.053324804,0.030551402,-0.015207881,0.0055996655,0.0629953,-0.010228102,0.027468488,0.0014967563,-0.04093949,0.020904403,-0.0530207,0.030363148,0.017749373,0.029918017,-0.05539246,-0.06468849,0.010448518,0.03558834,-0.06644534,-0.055774134,0.00040420733,0.07875763,0.0043407404,-0.007607688,0.03629429,0.044191442,-0.014142732,0.05779296,0.06045386,0.0634273,0.042573098,-0.0049911733,0.06922534,-4.2351434e-08,-0.052861806,-0.0413991,0.048975766,-0.046814322,0.07602104,-0.048110843,0.044570673,-0.077279806,-0.013609671,-0.060307093,0.060370065,-0.058857173,0.023329515,0.0075120525,0.005756723,0.09539765,-0.03718999,0.024512522,-0.0494088,-0.047984768,-0.03374324,0.08470079,0.037265897,-0.061305642,-0.033284634,0.0141947735,-0.00844946,-0.0046342807,-0.019084176,0.0015910803,0.038823534,0.08388167,0.006312588,-0.049764093,-0.05232132,-0.021347193,0.04587573,0.0045805313,-0.028068857,-0.03672966,-0.038245495,0.07073629,0.01922534,0.030605223,0.02475492,0.04435238,0.07440124,-0.06388101,-0.07482046,-0.0121981995,0.013241406,0.065369554,-0.015432223,0.031895068,-0.01492892,0.1413365,-0.07893486,0.0048909215,0.012296521,-0.005908965,0.09585114,0.022224797,0.0042677578,0.0036118424
Columba_palumbus,-0.026119249,-0.007546757,0.08625034,-0.011137638,-0.06514984,-0.044743292,0.10144643,-0.12683724,0.0434077,-0.06947876,0.003246936,-0.042528093,-0.06434417,-0.06731409,-0.019829243,0.03945038,0.04881091,0.024422511,-0.00878151,-0.029524285,0.06125022,0.10345219,-0.043095764,0.0013142787,0.015234569,0.0023220908,-0.0056776316,0.01238836,-0.006281743,-0.010423514,-0.010511538,0.069170885,0.06806314,-0.05683455,-0.0568557,0.0022949756,-0.0060913838,0.05616947,0.052411705,0.06546435,0.052995674,0.011057587,0.0012196358,-0.061414987,-0.08906684,0.010361355,-0.10592074,-0.05320621,0.023754654,-0.010528855,-0.054020036,-0.059895217,0.04806369,0.007843182,0.024379665,0.012351833,0.15971301,0.032321945,-0.011365585,-0.024820942,-0.069238245,0.033731956,-0.04622598,0.0196297,0.03517664,-0.04703183,0.013872503,-0.033569776,-0.021026814,0.118389495,0.022880198,-0.0053915475,0.047738116,0.05755287,-0.041152693,-0.012357729,0.021132415,-0.054426752,0.10793429,-0.033974938,-0.06366046,-0.00790331,-0.009985286,-0.03871753,-0.06448857,0.0068858294,-0.01346286,0.01454924,-0.10088854,-0.039661244,-0.09133919,-0.045988224,-0.06833862,0.044387706,-0.012624248,0.009719624,-0.007541353,0.038390666,-0.067326255,-0.0045093866,-0.035228435,0.020663295,0.014770544,-0.021020684,-0.021062937,-0.053373057,-0.0050029955,-0.026721222,-0.0684071,-0.019212777,-0.034311242,-0.029693898,0.06413401,0.040144283,-0.06343767,0.0072875274,-0.06221781,-0.03127962,-0.006317052,0.016130151,0.09782669,-0.01775254,-0.04258113,0.01821035,0.05819883,-0.094668,-0.050052907,-1.03549665e-33,0.03582979,-0.037933253,-0.022608958,0.001244153,0.101310454,-0.10922165,-0.060790874,-0.013322226,0.0048077237,0.11949851,-0.01794499,-0.057582233,0.004898957,-0.07687114,0.07335507,-0.065863095,-0.00323087,0.007975856,0.004481575,0.041813258,0.049681213,0.06330042,0.03327171,0.032509785,0.04726239,-0.034761395,-0.052074753,-0.116746396,-0.031908505,0.06625607,0.052174125,-0.07586128,0.004838214,-0.028887773,-0.12137191,-0.08177191,-0.009856182,0.009858451,-0.11376568,-0.038529094,0.05252718,-0.045762073,-0.10859523,0.024610113,-0.018791594,-0.0008578215,-0.051080007,0.034000557,-0.07544473,0.10784709,0.07847707,-0.07079409,0.11860605,0.051557746,-0.024120068,-0.031930745,0.057942014,-0.11289217,0.010966193,0.036059313,-0.03419986,-0.0039811917,0.06091159,-0.09501125,0.036653798,-0.049210675,-0.0014963332,0.01717674,-0.012718452,-0.010950431,0.03724744,-0.06863344,-0.074243784,-0.014705831,-0.071467504,-0.023473462,0.107845016,0.0045202784,0.09092461,-0.013938217,0.13836923,-0.01442623,-0.030202566,-0.034066696,0.029896867,0.048787355,0.01958669,-0.06472721,-0.10401743,0.06251958,-0.09283641,-0.0039554676,0.036012754,-0.06680246,-0.00468793,-9.168646e-34,0.024472488,-3.6627927e-05,-0.0037695232,0.06844269,-0.02264278,0.13252895,0.013920949,0.053045575,-0.067519195,-0.038069453,-0.057862908,0.011827971,-0.0071041505,0.007809691,0.03820342,-0.04612398,0.034194734,0.024858011,0.07070606,0.02873442,-0.008328704,-0.080411516,-0.014818042,-0.00838531,-0.0064757615,0.012427897,0.011021776,0.039333526,-0.0017089061,0.03459839,-0.0049955603,-0.00018842063,0.029935472,0.035535853,-0.050156638,0.04857685,-0.018698376,0.08904003,-0.03339741,0.033955347,-0.10079269,-0.008984138,0.028329011,0.02489597,-0.02387432,0.026015079,-0.02717432,0.04652464,-0.06090264,0.06260473,0.06327355,0.037209358,0.027836071,0.013829712,-0.06752358,0.021904008,-0.0038955235,0.008789634,-0.07321969,-0.017434344,-0.00060273655,0.014858373,-0.037105843,0.012900444,-0.0050021694,0.052982263,0.045290366,0.014348053,0.043903388,-0.03588191,-0.062490627,0.067563534,-0.029238855,-0.013956026,-0.045873206,0.007374587,-0.06780552,-0.07247118,0.0124827875,0.062081937,-0.06780446,-0.021070626,-0.014773073,0.06651086,-0.02930258,-0.0072731716,-0.051356196,0.10825074,0.032932255,0.04258337,0.02909544,0.11415024,0.024640983,0.028311824,-0.016808188,-4.6882505e-08,-0.006393864,-0.033059783,0.089704,-0.03763266,0.098352805,-0.0643267,0.028012557,-0.058103617,0.019525249,-0.055996083,0.036979534,-0.011886589,-0.03457979,0.0326433,0.022768512,0.027858282,0.0033678703,0.043713987,-0.027866228,-0.109289296,-0.024867639,0.027053416,-0.022033485,0.013125614,0.007140293,-0.017229214,-0.036425978,0.003569311,-0.0075462703,-0.044765726,0.042917285,0.1192655,-0.023494953,-0.032853127,0.032436546,-0.033876974,0.036566522,-0.031683613,0.04703462,-0.032117873,0.016725319,0.06223149,0.029437648,0.031249877,-0.01831765,0.054415394,0.073903374,-0.049690343,0.02605216,0.0076463753,-0.015045324,0.11412788,-0.010693253,0.052275162,-0.031419486,0.09400511,-0.016048431,-0.038434282,0.004211704,0.0581003,0.044996563,0.028180707,0.026594348,-0.001730652
Corvus_corax,-0.03228693,-0.035103094,0.027301067,1.8036868e-05,-0.035886977,-0.0044713053,0.06367714,-0.060883876,0.061535,-0.054455977,-0.0047703795,-0.035966333,-0.012217221,0.02921302,-0.020045683,-0.016583301,0.025905516,0.05611477,-0.0064615,-0.031757046,0.0060235118,0.027571276,0.057821155,0.050899927,-0.0052426374,0.04020197,0.031333167,0.019236367,0.037471533,-0.08552015,-0.022233937,0.095176056,0.052869193,-0.063258216,-0.026187306,0.06183503,-0.013989981,0.019283036,0.03175681,-0.00041814407,-0.032590766,-0.010220275,0.06660178,-0.01105504,-0.0058594607,0.02169047,-0.05825851,-0.029000496,-0.017049838,-0.068958156,0.04989516,-0.06937117,0.01968501,0.055495422,0.018552497,0.009310333,-0.048951983,0.032392222,0.08586433,0.0531545,-0.005919983,0.012380389,-0.009375987,0.079900555,-0.02131243,-0.019144055,-0.018295677,0.029808361,0.08379555,0.08980569,0.036439985,-0.012546614,-0.0068523074,0.116735235,-0.037190836,0.0068800603,0.012594222,-0.03314492,-0.01067854,-0.01908927,-0.05904279,-0.019042931,-0.09207788,-0.08303232,-0.01759664,-0.026407862,0.01593519,-0.058836862,-0.055193122,0.0033076133,0.04289231,-0.07904984,-0.022648077,-0.0054361387,-0.054124948,-0.011687797,-0.04339355,-0.031086585,-0.080240674,0.047465038,-0.028825536,0.0054231896,0.009838635,0.03151664,0.017356515,-0.117087945,-0.11823489,-0.0013077122,-0.04716938,0.029172128,-0.06413652,-0.034005046,0.01847882,0.0045200423,0.08729169,-0.021953447,-0.03874348,-0.027850244,-0.00898024,0.06706473,0.09302193,-0.09842183,-0.11578152,-0.020897562,-0.003042314,0.05671652,-0.018428296,5.665542e-34,0.068572715,0.05715602,-0.020708691,-0.05184544,0.039009504,-0.1439476,-0.06482909,-0.015015063,0.013086959,0.059121486,-0.023713596,0.05693004,0.026731104,-0.04581095,-0.042551458,-0.021607297,-0.13190591,0.053269953,-0.06815178,0.034553494,-0.029974699,0.107565515,0.023307426,0.06997311,0.033162985,-0.040175717,0.011473063,-0.06207579,0.017547276,0.028643075,0.078822166,-0.019259637,-0.014498608,0.061145093,-0.0755641,-0.024253644,0.023061775,-0.009631691,-0.031084158,-0.011744687,-0.04527423,-0.07086305,-0.0919873,0.08756298,0.07338164,0.0033325427,-0.010228167,0.07212168,0.0048093298,0.00651187,0.077978626,-0.02046631,0.026470354,0.08509695,-0.00336435,0.11645522,0.13607253,-0.088385925,-0.004957757,-0.019437749,-0.019424828,0.04339508,0.079394594,-0.041836347,-0.01403658,-0.07198901,-0.10053895,-0.002320212,0.06470318,-0.061086312,0.0046830517,-0.037873928,-0.0030824724,0.009971825,-0.015257718,-0.06896978,-0.0031043398,-0.0057381517,-0.009151847,0.026697813,0.019636592,-0.0658035,0.012884876,0.036661632,-0.0006766021,0.016151216,-0.034980483,-0.118213184,-0.064362876,0.07773829,-0.05980775,0.015695367,0.04377131,-0.034679696,-0.037284482,-1.51224015e-33,0.0777451,0.013554563,-0.025251126,0.1429041,-0.0076955995,0.054506533,0.0028937801,0.08951559,-0.047678594,-0.031597883,0.0026503329,-0.013709153,0.03692995,0.061377633,0.08210232,-0.074465506,0.06503286,0.12251957,0.064356655,0.06668651,0.026750704,-0.026412353,-0.08859149,-0.010448513,0.016901188,0.03448762,-0.044231713,-0.017109826,-0.016157504,-0.03592996,-0.015919164,-0.03191395,-0.018111505,-0.036281057,0.0066013057,-0.014742485,0.06287703,0.009559107,-0.08043524,-0.10144787,0.008043512,0.04430864,0.078437276,0.060167685,-0.026737854,-0.07359017,0.00075363676,0.046943355,-0.026215278,0.0014049291,0.009511638,0.030682964,0.0036354675,0.06440131,-0.03501164,-0.01603321,-0.011839649,-0.0005630791,-0.019769821,0.04892588,-0.047778513,-0.08869066,-0.0057860846,-0.0061245207,0.06482489,-0.009605462,-0.011625928,-0.060028024,0.015536128,-0.02501553,0.03424785,0.01298819,-0.00053060515,-0.010749033,0.00082101836,-0.020220267,-0.1132207,-0.11379633,-0.07566818,-0.001217314,-0.066817164,-0.016960526,-0.0005795279,0.0833493,-0.0952386,0.033817276,-0.0020304462,0.074061334,0.04360897,0.015414768,0.040636174,0.0809581,-0.020458866,0.018733837,0.017595416,-3.742401e-08,0.034399893,-0.007265213,0.019323597,-0.070855215,0.15658902,-0.017764952,0.014735788,-0.051070124,-0.03174685,-0.1270441,0.05457401,0.0025172262,-0.02198892,0.021107914,0.061734762,0.0019726278,-0.02472245,0.11156165,-0.07831276,-0.052211083,-0.0004943562,0.042406186,0.028238319,0.0073941317,-0.0039420333,0.033353545,-0.022377646,0.0979334,0.029085262,-0.058395587,-0.041494492,0.025094053,-0.03163267,-0.004481554,-0.0627668,0.10238799,-0.047080874,-0.010033436,0.036725752,0.038595647,-0.04224766,-0.008240755,-0.0066840593,0.050293673,-0.065168776,0.019952295,0.030122612,-0.07456721,-0.017018875,0.013940913,-0.043675885,0.029947544,-0.035868872,0.0071764123,0.03751059,0.10386582,-0.026270019,-0.08664548,-0.050147094,0.028368372,-0.011041307,0.031967875,-0.029513957,0.06445353
